<?xml version="1.0"?>
<opencv_storage>
<opencv_ml_ann_mlp>
  <format>3</format>
  <layer_sizes>
    784 128 10</layer_sizes>
  <activation_function>LEAKYRELU</activation_function>
  <f_param1>1.0000000000000000e-02</f_param1>
  <f_param2>0.</f_param2>
  <min_val>0.</min_val>
  <max_val>0.</max_val>
  <min_val1>0.</min_val1>
  <max_val1>0.</max_val1>
  <training_params>
    <train_method>BACKPROP</train_method>
    <dw_scale>1.0000000000000000e-03</dw_scale>
    <moment_scale>0.</moment_scale>
    <term_criteria>
      <epsilon>1.0000000000000000e-02</epsilon></term_criteria></training_params>
  <input_scale>
    1. 0. 1. 0. 1. 0. 1. 0. 1. 0. 1. 0. 1. 0. 1. 0. 1. 0. 1. 0. 1. 0. 1.
    0. 1. 0. 1. 0. 1. 0. 1. 0. 1. 0. 1. 0. 1. 0. 1. 0. 1. 0. 1. 0. 1. 0.
    1. 0. 1. 0. 1. 0. 1. 0. 1. 0. 1. 0. 1. 0. 1. 0. 1. 0. 1. 0. 1. 0. 1.
    0. 1. 0. 1. 0. 1. 0. 1. 0. 1. 0. 1. 0. 1. 0. 1. 0. 1. 0. 1. 0. 1. 0.
    1. 0. 1. 0. 1. 0. 1. 0. 1. 0. 1. 0. 1. 0. 1. 0. 1. 0. 1. 0. 1. 0. 1.
    0. 1. 0. 1. 0. 1. 0. 1. 0. 1. 0. 1. 0. 1. 0. 1. 0. 1. 0. 1. 0. 1. 0.
    1. 0. 1. 0. 1. 0. 1. 0. 1. 0. 1. 0. 1. 0. 1. 0. 1. 0. 1. 0. 1. 0. 1.
    0. 1. 0. 1. 0. 1. 0. 1. 0. 1. 0. 1. 0. 1. 0. 1. 0. 1. 0. 1. 0. 1. 0.
    1. 0. 1. 0. 1. 0. 1. 0. 1. 0. 1. 0. 1. 0. 1. 0. 1. 0. 1. 0. 1. 0. 1.
    0. 1. 0. 1. 0. 1. 0. 1. 0. 1. 0. 1. 0. 1. 0. 1. 0. 1. 0. 1. 0. 1. 0.
    1. 0. 1. 0. 1. 0. 1. 0. 1. 0. 1. 0. 1. 0. 1. 0. 1. 0. 1. 0. 1. 0. 1.
    0. 1. 0. 1. 0. 1. 0. 1. 0. 1. 0. 1. 0. 1. 0. 1. 0. 1. 0. 1. 0. 1. 0.
    1. 0. 1. 0. 1. 0. 1. 0. 1. 0. 1. 0. 1. 0. 1. 0. 1. 0. 1. 0. 1. 0. 1.
    0. 1. 0. 1. 0. 1. 0. 1. 0. 1. 0. 1. 0. 1. 0. 1. 0. 1. 0. 1. 0. 1. 0.
    1. 0. 1. 0. 1. 0. 1. 0. 1. 0. 1. 0. 1. 0. 1. 0. 1. 0. 1. 0. 1. 0. 1.
    0. 1. 0. 1. 0. 1. 0. 1. 0. 1. 0. 1. 0. 1. 0. 1. 0. 1. 0. 1. 0. 1. 0.
    1. 0. 1. 0. 1. 0. 1. 0. 1. 0. 1. 0. 1. 0. 1. 0. 1. 0. 1. 0. 1. 0. 1.
    0. 1. 0. 1. 0. 1. 0. 1. 0. 1. 0. 1. 0. 1. 0. 1. 0. 1. 0. 1. 0. 1. 0.
    1. 0. 1. 0. 1. 0. 1. 0. 1. 0. 1. 0. 1. 0. 1. 0. 1. 0. 1. 0. 1. 0. 1.
    0. 1. 0. 1. 0. 1. 0. 1. 0. 1. 0. 1. 0. 1. 0. 1. 0. 1. 0. 1. 0. 1. 0.
    1. 0. 1. 0. 1. 0. 1. 0. 1. 0. 1. 0. 1. 0. 1. 0. 1. 0. 1. 0. 1. 0. 1.
    0. 1. 0. 1. 0. 1. 0. 1. 0. 1. 0. 1. 0. 1. 0. 1. 0. 1. 0. 1. 0. 1. 0.
    1. 0. 1. 0. 1. 0. 1. 0. 1. 0. 1. 0. 1. 0. 1. 0. 1. 0. 1. 0. 1. 0. 1.
    0. 1. 0. 1. 0. 1. 0. 1. 0. 1. 0. 1. 0. 1. 0. 1. 0. 1. 0. 1. 0. 1. 0.
    1. 0. 1. 0. 1. 0. 1. 0. 1. 0. 1. 0. 1. 0. 1. 0. 1. 0. 1. 0. 1. 0. 1.
    0. 1. 0. 1. 0. 1. 0. 1. 0. 1. 0. 1. 0. 1. 0. 1. 0. 1. 0. 1. 0. 1. 0.
    1. 0. 1. 0. 1. 0. 1. 0. 1. 0. 1. 0. 1. 0. 1. 0. 1. 0. 1. 0. 1. 0. 1.
    0. 1. 0. 1. 0. 1. 0. 1. 0. 1. 0. 1. 0. 1. 0. 1. 0. 1. 0. 1. 0. 1. 0.
    1. 0. 1. 0. 1. 0. 1. 0. 1. 0. 1. 0. 1. 0. 1. 0. 1. 0. 1. 0. 1. 0. 1.
    0. 1. 0. 1. 0. 1. 0. 1. 0. 1. 0. 1. 0. 1. 0. 1. 0. 1. 0. 1. 0. 1. 0.
    1. 0. 1. 0. 1. 0. 1. 0. 1. 0. 1. 0. 1. 0. 1. 0. 1. 0. 1. 0. 1. 0. 1.
    0. 1. 0. 1. 0. 1. 0. 1. 0. 1. 0. 1. 0. 1. 0. 1. 0. 1. 0. 1. 0. 1. 0.
    1. 0. 1. 0. 1. 0. 1. 0. 1. 0. 1. 0. 1. 0. 1. 0. 1. 0. 1. 0. 1. 0. 1.
    0. 1. 0. 1. 0. 1. 0. 1. 0. 1. 0. 1. 0. 1. 0. 1. 0. 1. 0. 1. 0. 1. 0.
    1. 0. 1. 0. 1. 0. 1. 0. 1. 0. 1. 0. 1. 0. 1. 0. 1. 0. 1. 0. 1. 0. 1.
    0. 1. 0. 1. 0. 1. 0. 1. 0. 1. 0. 1. 0. 1. 0. 1. 0. 1. 0. 1. 0. 1. 0.
    1. 0. 1. 0. 1. 0. 1. 0. 1. 0. 1. 0. 1. 0. 1. 0. 1. 0. 1. 0. 1. 0. 1.
    0. 1. 0. 1. 0. 1. 0. 1. 0. 1. 0. 1. 0. 1. 0. 1. 0. 1. 0. 1. 0. 1. 0.
    1. 0. 1. 0. 1. 0. 1. 0. 1. 0. 1. 0. 1. 0. 1. 0. 1. 0. 1. 0. 1. 0. 1.
    0. 1. 0. 1. 0. 1. 0. 1. 0. 1. 0. 1. 0. 1. 0. 1. 0. 1. 0. 1. 0. 1. 0.
    1. 0. 1. 0. 1. 0. 1. 0. 1. 0. 1. 0. 1. 0. 1. 0. 1. 0. 1. 0. 1. 0. 1.
    0. 1. 0. 1. 0. 1. 0. 1. 0. 1. 0. 1. 0. 1. 0. 1. 0. 1. 0. 1. 0. 1. 0.
    1. 0. 1. 0. 1. 0. 1. 0. 1. 0. 1. 0. 1. 0. 1. 0. 1. 0. 1. 0. 1. 0. 1.
    0. 1. 0. 1. 0. 1. 0. 1. 0. 1. 0. 1. 0. 1. 0. 1. 0. 1. 0. 1. 0. 1. 0.
    1. 0. 1. 0. 1. 0. 1. 0. 1. 0. 1. 0. 1. 0. 1. 0. 1. 0. 1. 0. 1. 0. 1.
    0. 1. 0. 1. 0. 1. 0. 1. 0. 1. 0. 1. 0. 1. 0. 1. 0. 1. 0. 1. 0. 1. 0.
    1. 0. 1. 0. 1. 0. 1. 0. 1. 0. 1. 0. 1. 0. 1. 0. 1. 0. 1. 0. 1. 0. 1.
    0. 1. 0. 1. 0. 1. 0. 1. 0. 1. 0. 1. 0. 1. 0. 1. 0. 1. 0. 1. 0. 1. 0.
    1. 0. 1. 0. 1. 0. 1. 0. 1. 0. 1. 0. 1. 0. 1. 0. 1. 0. 1. 0. 1. 0. 1.
    0. 1. 0. 1. 0. 1. 0. 1. 0. 1. 0. 1. 0. 1. 0. 1. 0. 1. 0. 1. 0. 1. 0.
    1. 0. 1. 0. 1. 0. 1. 0. 1. 0. 1. 0. 1. 0. 1. 0. 1. 0. 1. 0. 1. 0. 1.
    0. 1. 0. 1. 0. 1. 0. 1. 0. 1. 0. 1. 0. 1. 0. 1. 0. 1. 0. 1. 0. 1. 0.
    1. 0. 1. 0. 1. 0. 1. 0. 1. 0. 1. 0. 1. 0. 1. 0. 1. 0. 1. 0. 1. 0. 1.
    0. 1. 0. 1. 0. 1. 0. 1. 0. 1. 0. 1. 0. 1. 0. 1. 0. 1. 0. 1. 0. 1. 0.
    1. 0. 1. 0. 1. 0. 1. 0. 1. 0. 1. 0. 1. 0. 1. 0. 1. 0. 1. 0. 1. 0. 1.
    0. 1. 0. 1. 0. 1. 0. 1. 0. 1. 0. 1. 0. 1. 0. 1. 0. 1. 0. 1. 0. 1. 0.
    1. 0. 1. 0. 1. 0. 1. 0. 1. 0. 1. 0. 1. 0. 1. 0. 1. 0. 1. 0. 1. 0. 1.
    0. 1. 0. 1. 0. 1. 0. 1. 0. 1. 0. 1. 0. 1. 0. 1. 0. 1. 0. 1. 0. 1. 0.
    1. 0. 1. 0. 1. 0. 1. 0. 1. 0. 1. 0. 1. 0. 1. 0. 1. 0. 1. 0. 1. 0. 1.
    0. 1. 0. 1. 0. 1. 0. 1. 0. 1. 0. 1. 0. 1. 0. 1. 0. 1. 0. 1. 0. 1. 0.
    1. 0. 1. 0. 1. 0. 1. 0. 1. 0. 1. 0. 1. 0. 1. 0. 1. 0. 1. 0. 1. 0. 1.
    0. 1. 0. 1. 0. 1. 0. 1. 0. 1. 0. 1. 0. 1. 0. 1. 0. 1. 0. 1. 0. 1. 0.
    1. 0. 1. 0. 1. 0. 1. 0. 1. 0. 1. 0. 1. 0. 1. 0. 1. 0. 1. 0. 1. 0. 1.
    0. 1. 0. 1. 0. 1. 0. 1. 0. 1. 0. 1. 0. 1. 0. 1. 0. 1. 0. 1. 0. 1. 0.
    1. 0. 1. 0. 1. 0. 1. 0. 1. 0. 1. 0. 1. 0. 1. 0. 1. 0. 1. 0. 1. 0. 1.
    0. 1. 0. 1. 0. 1. 0. 1. 0. 1. 0. 1. 0. 1. 0. 1. 0. 1. 0. 1. 0. 1. 0.
    1. 0. 1. 0. 1. 0. 1. 0. 1. 0. 1. 0. 1. 0. 1. 0. 1. 0. 1. 0. 1. 0. 1.
    0. 1. 0. 1. 0. 1. 0. 1. 0. 1. 0. 1. 0. 1. 0. 1. 0. 1. 0. 1. 0. 1. 0.
    1. 0. 1. 0.</input_scale>
  <output_scale>
    1. 0. 1. 0. 1. 0. 1. 0. 1. 0. 1. 0. 1. 0. 1. 0. 1. 0. 1. 0.</output_scale>
  <inv_output_scale>
    1. 0. 1. 0. 1. 0. 1. 0. 1. 0. 1. 0. 1. 0. 1. 0. 1. 0. 1. 0.</inv_output_scale>
  <weights>
    <_>
      1.1387298793750392e-02 1.2269553985093964e-02
      -1.3843261547858182e-03 -8.6855124004784603e-04
      -9.8455799213965998e-03 -1.0926633757622534e-02
      -8.1646308020788139e-03 -1.8059549192560611e-03
      2.6701243556026717e-03 1.2269526420832925e-03
      3.4476618669937495e-02 -2.3916814962589444e-04
      3.5400073913398598e-03 2.0723396041613485e-02
      1.4841897026988361e-02 5.8530989478942216e-03
      -2.5701179929849822e-03 -2.1158380094510688e-02
      -8.1601892803466838e-04 -1.0631216351516299e-02
      -4.6721937953470016e-03 4.5974992881546196e-03
      4.8553569366339994e-03 -1.0176632171495711e-02
      -9.8106842517438394e-03 4.9044143178373521e-03
      3.8324289104117570e-03 1.0087731194781513e-02
      -1.9281319209709040e-02 -2.0667127769827459e-02
      -3.6645806288373773e-03 -2.8229417094861764e-02
      8.4574156911729583e-04 -1.8487848372322126e-02
      -1.0001292778454764e-02 6.2299602617359815e-03
      -1.4369877610395215e-02 8.1407774807164719e-03
      -2.6368114922813751e-03 -1.7295007345266247e-02
      -1.9592519381119285e-02 -4.2268342529356382e-03
      7.1802480445928131e-03 8.4149687086983605e-04
      -1.1784748871723193e-02 -2.3981513704304552e-03
      -2.6095353501735491e-03 6.7534455944559177e-04
      -1.0553763351928364e-04 6.7717616734005231e-03
      -1.1944125097849425e-02 -2.3824622487247610e-03
      -2.9964649630440819e-03 -9.1673781349938422e-04
      -6.6943694566579150e-03 1.3556614321079692e-02
      1.4890390032336453e-02 -1.0014264281481517e-02
      2.4601666153543831e-03 6.2609159768010963e-03
      -9.3234590684941037e-03 -2.6725849033184396e-03
      9.6990871741256426e-04 -1.1924386055539714e-02
      6.5451028070304500e-03 -2.0591118986814830e-02
      -2.4606152205387533e-02 -1.6246312745150600e-02
      -8.5790667579357383e-03 -1.0751907072185986e-02
      -3.0892621433243192e-03 6.2554473465708442e-04
      -1.0695505895905531e-03 -4.4149163128180272e-03
      -1.8612208556265466e-02 3.6215193427997436e-02
      -1.8770886488965431e-02 1.3294214806289721e-02
      -3.4562836217363695e-03 1.3870332258842044e-02
      1.2341869811840345e-02 -9.3958189095386668e-03
      -8.2927842507433108e-03 -1.8039796883920645e-02
      1.1612727797311302e-02 3.4745590675901825e-03
      -1.9180336392935374e-02 1.7282777574719105e-02
      -3.2758149830057794e-03 2.0016178764508058e-03
      1.6965162404271915e-03 2.0277364892138288e-03
      -1.3836532103465278e-02 5.0340800416865126e-03
      -8.0319525109803606e-03 1.3535562798108062e-03
      -9.6368941317167174e-03 -2.0710480924832331e-03
      3.4869470455524171e-03 2.2305865726365632e-02
      -8.9094156397940305e-05 7.2296303949248445e-03
      1.8422429348699604e-02 -1.1706367707981504e-02
      1.0620720593897137e-03 -1.3415437935455335e-02
      4.5965749918082527e-03 -3.3577590128194917e-02
      -1.0164552811648005e-03 2.6812991502452245e-03
      6.1501655270975528e-06 5.3245699628686593e-03
      1.4886478554597328e-02 -1.6405200651204405e-02
      6.0105542184741775e-03 3.1851268111855849e-04
      -1.9467261860946087e-04 -6.1665037481611158e-03
      -9.6057861094475776e-03 2.1985044000360655e-02
      1.3867896903825736e-02 -1.4592442350685355e-02
      2.6384576814201034e-03 -2.4008863839146063e-03
      -9.5081354829045020e-03 2.0470778068455734e-03
      -1.1764476543855653e-02 -1.0299810563097734e-03
      3.4043696859055381e-03 4.0188657613795488e-03
      -1.8074383252910315e-03 5.7329018175240670e-04
      3.5996993876490279e-03 -9.1559759333146890e-04
      -4.6823131312266324e-03 -5.8995672933663292e-03
      -1.3945347652000828e-03 -2.8012654389250290e-03
      3.0071102019489437e-02 -1.5771492755513048e-03
      -4.5858933754056518e-04 3.2739279072460234e-03
      1.5007466650365607e-02 -6.5190586187187831e-03
      -1.3334378403181990e-02 -8.2236929558215516e-03
      -1.9822887839173993e-03 -1.6885734633988951e-02
      1.2999791661206624e-02 -4.7590166805016850e-03
      -3.0379602397290180e-03 -1.3924871944433740e-02
      -1.7225174902329929e-03 8.5601357389745465e-03
      2.4083240913164664e-03 -1.2141810007396477e-02
      -1.2141778796321348e-02 -8.2486406236970261e-03
      2.9726966654383988e-02 -1.6461203204718515e-04
      -2.6894788044976832e-03 1.2606069050887149e-04
      3.6808391043945737e-03 1.1498327205650060e-03
      -1.9431550077366459e-02 1.4199133785721690e-02
      3.3186447605655073e-05 -1.5818012489702708e-02
      -2.6596843576496280e-02 5.6672469144352254e-03
      3.8388804782442379e-03 2.7440770513035759e-02
      -2.4196352917282373e-03 8.2086086607183559e-03
      1.6937088861292412e-02 -1.6050618866466380e-02
      1.5338493069640302e-02 -9.3999792770882483e-04
      -2.0527314163075659e-02 -3.3449888423634430e-03
      -2.5244092037960816e-03 -1.7060119805941954e-02
      2.3064464761808974e-03 -1.5487637006969179e-02
      1.0222839106634511e-02 8.0896828754972762e-03
      1.4114430974527810e-02 8.1899985794123900e-03
      6.4266605561077552e-03 -1.1028504484560678e-02
      2.5386342244524554e-03 -1.9923034797145068e-02
      -5.0897633792660350e-03 1.3905055161690422e-03
      -1.5105231334133008e-02 7.2158208044845783e-03
      -1.7297842467144383e-02 -1.2905887534051244e-02
      1.6151266925416987e-02 -2.0507013268961097e-02
      -9.5742940094804257e-03 -6.9986402747076121e-03
      -2.1492660721757609e-02 -2.1352734671398515e-02
      2.4130151920320805e-02 -1.0371320164590058e-02
      -9.3366302198545658e-04 2.9403576671658702e-02
      1.2598521659932410e-02 -2.6576985536156095e-03
      9.1551030474487319e-03 -4.9566380948049566e-03
      5.7368965587144124e-03 -1.4594471731046724e-02
      -2.6295591631498843e-02 1.5170276880672920e-02
      -1.8867654081593778e-02 -1.0347882799316747e-02
      6.1914064060323258e-03 -1.8364078831132964e-03
      6.5939120787399030e-03 -1.5819717149760104e-02
      -3.3042299490548487e-03 -1.3117340370652814e-02
      -2.4499573099334344e-03 -4.3948920905533930e-03
      1.2862100261800558e-02 2.6655565703327395e-02
      4.3937901191033217e-03 -2.9272647478821327e-03
      -3.0950523402788855e-02 2.9779572218256063e-02
      -4.2924147387167324e-03 -1.5887448681488441e-02
      1.6423726892182525e-02 -2.1273754748868300e-02
      2.2281813100165630e-02 1.8649583106146506e-02
      3.7635942488805159e-03 3.3272215657667602e-02
      2.0230886400905506e-03 -3.6458962998188594e-03
      1.9048496496446504e-02 -4.4960350814374529e-03
      -1.2057036073395873e-03 -2.2909228042602104e-03
      1.7204845606303323e-02 1.7269613499721399e-02
      -2.0732958210511292e-03 8.6532494959506660e-03
      -1.0986692342491212e-02 1.0753746774501522e-02
      -1.0133101933596558e-02 -1.8149905852202181e-02
      1.9730378298877596e-02 1.5486724172353333e-02
      1.5656708878169685e-03 1.6266561430206925e-03
      -1.0827806733998816e-03 1.7041296016480042e-03
      -4.4466816197373752e-03 3.4454554002889414e-03
      4.8643316371776314e-03 -2.0627846597224053e-02
      1.8100407681270775e-02 -3.8321504854578474e-03
      2.0736385860159592e-02 1.7960424545981572e-03
      8.6797516143270262e-03 -2.0022089924672261e-03
      -1.8823745340934245e-02 -9.1808487960511433e-04
      -2.7808688012256133e-03 8.8177718849467551e-03
      6.1256815513670044e-04 1.6250481532791684e-04
      5.7106616916309191e-04 -8.1860075597210112e-03
      7.7615250464339930e-03 -1.4037864861139763e-02
      -8.4044444395158166e-03 -1.5990807000634245e-02
      1.3802125510598114e-02 -1.4185007257611121e-02
      -1.4444407801072581e-02 -1.9089024608561739e-02
      -1.1279400606020611e-03 2.5835859676182411e-02
      1.2347657657962629e-02 1.5079656768546570e-02
      -1.2798487653327105e-02 2.1214255244189781e-02
      -1.4827012961433796e-02 2.7750246403474125e-02
      -9.4180174631486552e-04 1.9381652769436906e-02
      -7.8943211824683661e-03 -9.9043370710993938e-04
      -8.1412805600268399e-03 1.6126556902720895e-02
      -1.0653255341947297e-02 1.0666794443823519e-03
      -1.3641860059652755e-02 1.2029958464379188e-02
      2.1506141867270257e-03 -5.1213352507539301e-03
      9.0642702086838924e-03 -1.1373839161702827e-02
      2.7100095420373373e-02 -1.5285168872105234e-02
      1.1782766370337654e-03 1.1550046607436217e-02
      -7.8197935753657466e-03 -2.1843732366174141e-02
      -1.0270195058021925e-02 -6.3403052690912450e-03
      4.4924237294401538e-04 -6.5479551396086947e-03
      1.5352874089470359e-02 -1.4373751179034035e-03
      -1.8499599251524041e-03 -8.6028843769631151e-03
      -1.0555304079614112e-02 2.8038926098121805e-03
      3.2655856732953527e-03 8.4643840678379060e-04
      -3.4458235382081287e-02 3.3813195914238498e-03
      -8.4328265075141826e-03 -1.3213814545912330e-04
      -3.1479499230668176e-03 -5.9433582073137913e-03
      -8.1451446921076854e-03 2.2408065775816523e-02
      -2.3826248836395143e-04 -4.1164864275808916e-03
      1.9389973760229131e-02 6.1626867158824398e-03
      2.9303197828297019e-03 1.0072338833752149e-02
      2.5368087720834226e-03 4.6396367791316081e-03
      -1.1842713162527860e-02 9.7752269475553499e-03
      -1.8917777005456975e-02 -1.2461307570967156e-03
      5.2247459998262307e-03 6.0161742781528454e-04
      -5.5306077197254154e-03 7.9938317795693083e-03
      -5.0405620397774055e-03 -7.1284502562244301e-04
      4.8878523325078336e-03 3.5407470333170587e-03
      -5.9471289494210542e-03 1.6191779534135253e-02
      3.0795070442502098e-03 2.3100849646018324e-03
      -1.1508914264701523e-02 -5.2574258101161838e-03
      -1.0949042704919199e-03 -1.7256173955246538e-02
      -6.3946875783762180e-03 -1.7512685242702285e-02
      -3.3709997475360621e-03 4.0446617276995948e-03
      8.3105583990612311e-03 -1.7314528572478154e-02
      9.3879808214750952e-03 -6.5959403669303696e-03
      2.5973225647091442e-02 1.7258996444211597e-02
      -3.6664665783424717e-03 -7.2914773323283057e-03
      -2.2231692171953352e-02 -2.4292812618953562e-02
      6.9770047046931859e-03 1.2389856150985108e-02
      -2.0732616692141313e-04 -2.0987457751352911e-02
      -3.6856747469454299e-03 2.0275800961559683e-02
      -6.5588812735145937e-03 4.0232478064931377e-03
      7.4038195113691752e-03 2.7725342942906722e-03
      -2.3135266117319669e-03 -1.0367101970341418e-03
      2.0690960025564573e-02 1.0352045315831396e-02
      -8.1704857573041759e-03 6.0119342781494046e-03
      -6.5436153117317758e-03 -8.7809331337424261e-04
      8.7674320575621637e-03 -7.9915137744282338e-03
      -4.1718654837688950e-03 2.8825303190682283e-02
      -1.3508697325156253e-02 1.9585131107221127e-03
      -7.9933986114096532e-04 1.3152768787173816e-02
      1.5033313731590621e-03 -8.6458929461657973e-03
      6.6018612963476553e-03 -1.6061170589064336e-03
      2.0896891010373812e-03 1.8553216962260841e-02
      -7.1673262679423201e-03 3.4068153633997652e-03
      -6.2015895746380381e-03 -1.2562801986453778e-02
      -1.1131252244152849e-03 -5.9515443308919263e-03
      1.0090347389691043e-02 -1.5353113798272549e-02
      7.7947442329387197e-03 1.1817719416962396e-02
      3.5268592303538881e-03 -1.7418525169462769e-03
      -9.5867946618605968e-03 -4.5024771276993523e-03
      -1.9699588160267973e-03 -2.8920343343470625e-03
      -2.1930236965929741e-02 1.9721351538801769e-02
      -1.2849164686863654e-02 5.1841410808603858e-03
      -2.4194951718039598e-03 -1.0739217554534490e-03
      -9.7113320658786390e-03 1.2799355904007721e-02
      -6.7792857272439460e-03 -7.5518017965088748e-03
      1.9797410811811324e-02 4.0522365726703537e-03
      3.3528932503498581e-03 -1.3996169028429090e-02
      -3.3547901874919969e-04 1.3103076457412445e-02
      2.7762696728699642e-02 -1.7527029230104015e-02
      7.3224549763993285e-03 2.7071522163717079e-03
      -1.8562691476175645e-03 -4.0377376321223618e-03
      -1.6750606392112635e-02 2.8667800749293468e-03
      6.6816666913879020e-03 -1.2554175863354907e-02
      -4.8057205326118265e-03 -4.0322847908748523e-02
      5.7795068885468787e-03 1.2020773383762156e-02
      -1.0381911854627853e-02 -3.8032581484099505e-03
      -9.5799828094284955e-03 -5.7276266445652575e-03
      -2.6375267026814901e-03 -9.1036673036485292e-03
      1.5001617197140380e-03 2.2419226816259696e-02
      -5.1826088357716195e-03 -1.2385644434377237e-02
      -2.1003143038360574e-04 4.4604391954554818e-04
      -5.7031665110440005e-03 2.2182850107792555e-03
      -1.3196594814138452e-02 1.8006501697849953e-02
      -5.3638536101314332e-03 -8.6191354849238996e-03
      -7.4415536424942549e-03 1.7433722004105562e-02
      -6.1528050689673543e-03 5.7144923797244193e-03
      1.0296917299143107e-03 1.2144104737001527e-02
      -5.4753442567042438e-03 1.2583361638883049e-03
      5.7049430316921251e-03 1.9587962342984412e-02
      -3.0638948274717696e-02 4.8139620923114820e-03
      -2.8591577484290481e-03 1.5540885824303461e-02
      -1.3160209971189236e-02 1.6488112782407111e-03
      -3.2086790988561714e-03 -1.2008983667737255e-03
      -5.9035843284640007e-03 1.3485278810044859e-02
      1.2147318784798265e-02 -1.8360202685783072e-02
      -4.4320044069725515e-04 7.5055837791242006e-03
      -6.0897460281762088e-03 1.2641147473307413e-02
      7.2570304348675693e-03 -5.0704533596065519e-03
      -8.8865642924282470e-04 -7.3112508620971550e-03
      2.4577483156659990e-03 1.9242907019869016e-02
      3.0325302462630502e-03 -4.5420996579880807e-03
      -1.8755669639438383e-02 -5.9290021968503095e-03
      3.6493486737776220e-03 1.9011560554156131e-02
      -1.7459998681210408e-02 9.7267907844456655e-03
      9.1839826787845549e-03 5.2072948009397498e-03
      -3.8918256520085984e-03 9.4036628264525626e-04
      3.4032645950216524e-02 2.4748951138317762e-02
      -1.6301203191768803e-03 1.0643073857833054e-02
      1.0178589889216350e-02 -7.3098835272978665e-03
      1.3133183080203980e-02 -4.7071863753511984e-03
      -2.1593755686210858e-02 2.7975677846092699e-03
      -1.2910305635856203e-03 4.5963299620111770e-03
      -2.3557191200498599e-03 2.0086365054631048e-02
      -2.7536173238005787e-04 -4.9697684317879355e-03
      1.5330096882864177e-02 -1.0603298021819408e-02
      1.6306273678004270e-02 1.5381416841342321e-02
      -7.6285278954462906e-04 -2.6082005158764705e-02
      -3.1827265837904386e-03 -1.7721686152932614e-03
      -1.3572123420473488e-03 -1.7264712927799585e-02
      1.1833086060854729e-02 -3.2422219798822753e-02
      2.8093779359468214e-03 1.3001996634674799e-02
      2.2822207973960526e-03 -5.2366308796496569e-03
      -4.9133978520519827e-03 -2.3544177591989370e-02
      -6.4422939574185359e-03 5.7307464912097527e-03
      -1.1745542485402622e-02 1.8287103839455404e-03
      1.1214058997366480e-02 -9.1711417707078056e-03
      -6.4581184533397847e-03 2.4375847895622854e-03
      -6.8555354874648795e-03 -2.3184209092903134e-02
      1.8846759245784842e-03 -2.2672540965757451e-02
      2.4170709812007026e-02 2.6510895045035454e-03
      -3.9199631121931292e-03 1.3905637380872774e-02
      -1.6534066752675432e-02 1.0367607624735950e-03
      1.0577663952853349e-02 -1.8928759726865547e-02
      1.0563636192969374e-02 -1.6590538641471458e-02
      -3.8096770655266566e-03 8.6349248873221120e-03
      1.1212421815864244e-03 -1.0398105760882669e-02
      2.3087907042651620e-02 -6.2594329776374021e-03
      -3.7719959853545560e-03 -1.6427099947844203e-02
      -1.6414469665786244e-03 1.0025679796822094e-02
      -4.0648888193445254e-04 2.2557936480245996e-02
      -7.5154635823513488e-04 -1.9722068184868458e-03
      -1.5350201931256953e-02 -2.8910610189370458e-03
      2.2250857500599051e-02 -6.4619806081417895e-03
      1.9153542519814563e-04 -1.0409528165083460e-02
      -8.0128888761717074e-03 -1.1750614670699606e-03
      -1.1436452555914882e-02 -2.1980662504530027e-02
      1.0049652791772806e-02 3.2901594095672954e-03
      -4.0940903412657152e-03 5.5643114244648944e-03
      -1.9291211211661649e-02 -3.7449403988604984e-03
      -8.0637591935169770e-03 -3.4068933759550104e-03
      -7.4133133869611952e-03 5.6318438890303104e-03
      1.7117688583310946e-03 6.9235371464827682e-03
      -1.0729743737285611e-02 3.6271277335628217e-02
      -2.0586543679245378e-02 4.4670391537889346e-03
      -1.7115347335811729e-02 9.9722110424179770e-03
      -1.6857412217605856e-02 -1.6236508010424568e-02
      7.7664961769702591e-03 -1.6798581034805347e-03
      2.7649606254325082e-02 2.5461474665897738e-02
      1.4414210393455709e-02 1.0069286672095275e-02
      1.3031605401984283e-02 2.0837803496685667e-02
      7.5818109447157555e-04 1.8711234078706066e-02
      -2.0380801223671540e-03 1.1926726152993276e-03
      -1.6908748342386276e-03 -1.3976882751756900e-03
      -2.0677330441571419e-02 -8.9070017735138371e-04
      -1.7529753811267820e-03 -7.6578971680876483e-03
      1.8437238651731161e-03 1.0572688345548737e-02
      6.3760666744110746e-04 -1.6056656171494561e-02
      -1.6372307654070432e-02 5.7847674672238773e-03
      2.6435990905380137e-03 -4.2933604032782454e-03
      -2.5842693170205835e-03 4.7014540940018611e-04
      1.4873527030902832e-02 1.0654008651458640e-02
      3.6426044470854266e-03 7.4984011061188212e-03
      -1.9059155468610409e-02 -1.8484627514135682e-02
      1.5830949838836719e-02 -3.3087581648611726e-03
      -7.0332912090093989e-03 -9.0963697900261695e-03
      1.9765323570423571e-03 -1.6092156819716534e-02
      8.6128217497399232e-04 7.3120124747631213e-04
      -9.9093763740146050e-04 -2.1251262799965698e-02
      -4.9959392270868316e-03 -1.5726319853163612e-02
      2.0739473705079899e-02 -4.5827845261697990e-03
      2.6968961503962990e-03 1.1982958795922729e-02
      -9.0495559257597058e-03 -1.1348542275351385e-02
      4.1604533202659662e-03 -8.1705255156875184e-03
      -2.8501083686638864e-02 -1.7708847125859345e-04
      2.1333634790426055e-02 1.2780857938992961e-02
      -5.8712633877467009e-03 1.0625956372493002e-02
      -6.7479461652606603e-04 -1.2135233373486374e-02
      -6.0314024763572496e-03 1.3957913069735432e-02
      5.5997786333166558e-03 3.5431249997603157e-03
      -1.4452705074739348e-02 -2.0057470205150141e-02
      -1.7550621095076600e-03 -1.1231366955245591e-02
      1.1698950329330325e-02 -3.1928609751491095e-03
      2.3129130550610614e-02 -6.4810213278314911e-03
      1.3256217871868552e-02 -9.8793635575195639e-03
      1.9299174870651002e-03 7.1657961878091071e-03
      -2.7277550579279048e-03 4.9439083725769245e-03
      -1.6324817397684856e-02 -1.5695883434862445e-02
      1.0131730974216597e-02 -1.0298768108112411e-02
      -1.0229680434404587e-02 8.9999521579441667e-03
      7.3834991962198407e-03 -1.5687313633860247e-03
      1.2990257967442426e-02 4.7431454935827127e-03
      -6.2760542803553185e-03 -9.4680760947449451e-03
      8.4350420870149201e-05 6.4634571741205953e-03
      -6.9891771510463014e-03 5.7910417304597546e-03
      -4.8189933996251868e-03 -6.1448483563175628e-03
      -9.6511083369899050e-03 -8.8549592945220672e-03
      -5.6671905489770859e-04 -5.3819521185932608e-03
      -6.8285275920672433e-05 -1.9636388870666138e-02
      -1.4748226697267032e-02 -2.5636726532744141e-03
      -5.7375410400695871e-03 -1.3917989932633270e-02
      -3.4089300323696142e-02 1.2525280976035721e-02
      2.7286623104686063e-03 -3.6086551546915453e-03
      -1.2914753029630277e-02 8.4859092959261914e-03
      -9.0387536672354267e-03 -7.8049755076839804e-03
      -6.3205747961513920e-03 1.1905100464458765e-02
      -2.3284362686846067e-04 1.1118479483752179e-02
      -8.8624678645128664e-03 -1.9679425756935778e-02
      2.0545704365001406e-03 1.2720662909502129e-02
      -3.0191218796435538e-03 2.6863783442403729e-03
      -6.5371543350678414e-03 1.8890238291129176e-02
      -1.5072894676390165e-03 -1.6978824842322996e-02
      1.2041498442887681e-02 1.5081168359628897e-02
      -1.4669178750412955e-02 7.6469187709625359e-03
      4.3101900118273709e-03 -1.3191463411089246e-02
      1.3463474489496153e-02 2.7854518035758517e-03
      -2.6187495750119166e-04 2.0897321896713185e-03
      -2.4770796024631910e-03 -1.3417895052068115e-02
      -1.1274798522263515e-04 4.1719247674512775e-03
      4.5485417154664731e-03 -9.2371226935961236e-03
      7.0520449963751859e-03 4.4115240915039797e-03
      -2.6074533039832548e-03 -1.4707785138573888e-02
      -1.9119964401767039e-02 3.9340255144600248e-03
      7.3193953449554366e-04 -6.4220784630687651e-03
      -3.4906303550145483e-03 -2.6702187250427604e-03
      2.1372523786666008e-02 2.0105475003144437e-02
      2.9287417962654515e-03 1.6371474482839706e-02
      -1.0687758746255924e-02 2.1781463029484655e-03
      3.2330293720899436e-03 -5.4497231680258927e-03
      -4.2658429908913010e-03 -6.7297168157020937e-03
      5.3803518613699435e-04 -1.2972912461800488e-02
      -9.1886728823549688e-03 5.6057511611318526e-03
      1.2850940674901960e-03 -2.2719702895169294e-03
      -1.2525212620837837e-02 -1.5226384498537285e-02
      1.8941013658255141e-02 -6.3272173825314349e-03
      7.2433245595028960e-03 -1.4200877623852430e-02
      1.3743256022110198e-02 -8.3378525969420719e-03
      2.3438072525686876e-03 1.2592666334580695e-02
      8.8738694027363247e-03 3.5936919683446991e-03
      1.6810187512017013e-02 1.7269013336361827e-02
      -5.0767197595005106e-03 -1.3018157905221634e-02
      -7.1912893140709134e-03 -3.7482457144980452e-03
      8.1011154986443802e-04 1.0815651709960810e-02
      5.9431028012828799e-03 -5.7741908099583003e-03
      -1.9005257234976397e-02 -3.8423251937143639e-02
      1.1737503162345442e-04 -1.3031502947835056e-02
      1.5035271781140301e-02 -6.0427799536250581e-03
      -1.6487911219715756e-04 6.8930973868091584e-03
      1.7210546319162860e-02 -3.9025027204674899e-03
      1.4123948551756835e-02 -2.2762030171041482e-02
      1.3828875549909353e-02 -2.5852688255236099e-03
      4.6288277515533155e-03 3.5508956339395646e-03
      1.3247913639976983e-02 -5.7547708442968791e-03
      -9.1798319972016592e-03 3.4932086390269163e-03
      -8.3610716889369434e-03 3.6168395220518798e-03
      -2.9754252951101627e-03 -3.8271540350599880e-03
      6.9888825441017169e-03 1.4764311765914880e-03
      4.0826228823593394e-03 -8.9963894016367174e-03
      -1.9763213364071570e-03 1.3196553256418374e-02
      -4.0958207115263188e-03 -8.2759489826894697e-03
      -1.0700371768047669e-02 -1.0600890359719350e-02
      6.5204204738746824e-03 -6.1772220336348449e-04
      2.7481379109856184e-03 9.2446017302019231e-03
      -1.0643629452402822e-02 3.3283545820474120e-03
      1.1688258432886844e-03 4.5008896862684814e-03
      4.5661185611478686e-04 -1.3640566733012785e-04
      -4.8534185611859137e-03 -1.9745280887849765e-03
      -5.2803210731520089e-03 1.9250399522216261e-02
      -1.0037131143190015e-02 -1.9760749618004836e-02
      2.0741178389757860e-02 1.2909431510503597e-02
      9.1422416761274676e-04 3.7791529241666603e-03
      7.4195566776328525e-03 -6.4816996056231962e-03
      -2.0715774870989361e-03 -1.1540484712973130e-02
      -5.0556367506568280e-03 -4.0240453273382342e-03
      -1.0135719530048513e-02 4.3673962423075984e-03
      2.8478112131009835e-03 6.7599390538653952e-03
      7.2237967444763723e-03 -1.7425718263469583e-02
      3.1477339021411567e-03 8.8081960961551176e-03
      -1.0524440152859702e-02 7.6031060140901996e-03
      1.1580376102940663e-02 1.0591097955818165e-02
      1.3610264846397872e-02 4.7630318854369356e-03
      -2.3386705103181516e-03 -1.6750646468825334e-02
      4.0723343998146548e-03 5.5463374405802079e-03
      -9.2389728211145789e-03 -1.0627550617674479e-02
      8.1025077549705653e-03 1.2804448033598875e-02
      7.0107271121066994e-03 -1.0645774761786988e-02
      8.8271315528989803e-03 -3.7880995070494060e-03
      -7.1726687334378080e-03 1.0881320895646324e-02
      -3.3299777429668547e-03 -2.3454438429168574e-03
      1.8987145821148028e-02 1.1338308176357529e-03
      9.8239987900257831e-03 -3.5226218776873135e-03
      5.0754856189318001e-03 -1.6148468729501320e-02
      -1.3605683278136579e-03 -2.7945775790926258e-03
      5.3280268413228773e-03 7.7901435910088367e-03
      -3.7449994245709519e-03 -1.3359878940440670e-02
      -2.9188066523809764e-03 -1.8242241923096904e-02
      -3.0380733579553707e-03 -6.8705767411819003e-03
      1.7338724115757811e-03 3.8575849468834738e-03
      2.2435385345051476e-02 -1.8357624575243911e-03
      6.1827194635161609e-03 1.6067483960973829e-02
      2.6143535356529723e-03 -2.0015519332662140e-02
      5.0681809463413519e-03 -1.3720576134258656e-02
      1.0233412343593972e-02 6.0687358629274944e-04
      1.2914350030939908e-02 -1.4042259104015058e-02
      5.9325075127680824e-03 -1.8358887448065176e-02
      -1.4188446477640778e-02 -1.0769853413368306e-02
      6.6662962155088490e-03 -3.7496845476996934e-03
      1.8317807391271340e-02 1.8498954297077225e-02
      -9.9913564363556581e-03 -1.5485205701989800e-02
      -7.7833543267800077e-03 -8.1797667809160868e-03
      -1.2247245260720621e-02 -5.9533995044915994e-03
      5.4531740883658987e-03 6.8958539348887727e-03
      1.8607309946796002e-02 -3.2369664768267118e-03
      1.3331021828189222e-02 -4.0069611179063954e-03
      -1.4084459455193134e-03 -1.8770935878116214e-02
      8.9169263992812196e-03 -4.3486428990655041e-03
      -4.2989334872872726e-03 8.4314298596685818e-03
      -1.4524091033512277e-02 8.3024995621695102e-03
      -1.1727126740427894e-02 1.8526247754208198e-03
      -7.5415344234171094e-03 -1.1144594210835952e-02
      6.2117774506240519e-03 4.2826860232353446e-04
      -9.1122537144492331e-03 -1.8364583873008718e-02
      1.4376503686425939e-02 4.2867892149145142e-03
      -3.6287487159519290e-03 -1.3927297963764284e-02
      -1.2823477743238183e-02 9.1351158060113489e-03
      7.2364761613191294e-03 -2.9926073224005624e-03
      -2.3667121581765205e-03 4.2495796733193134e-03
      -5.3872085191793819e-03 1.0710124118479604e-02
      -1.2316911235916274e-02 2.5630080990626258e-02
      4.5872260981498544e-03 -8.7055784441370018e-03
      8.8467316119114469e-03 -2.2489822314155351e-02
      6.5540373281857030e-04 -7.8768230794194170e-03
      6.2908603105784103e-04 -1.3193591013509861e-02
      1.5933308714695889e-02 8.6025744674290174e-03
      4.8331453942323090e-04 -3.3885181732262876e-03
      1.3731104518070452e-02 -5.8514623099466204e-03
      -1.1398158013121990e-02 -3.7122800762893537e-02
      -3.1039713712656685e-03 9.8399659042828548e-04
      -2.3587634049129628e-03 -6.7536950335545442e-04
      4.0713386963596061e-03 4.4138662513490273e-03
      -9.6348004740853827e-03 -8.8801890000353521e-03
      -2.3966512398723942e-02 -5.5500529555169925e-03
      -1.2481590747847869e-02 2.7130230928722318e-03
      -4.7571723678150957e-03 6.1336558162325625e-03
      8.7768887128622675e-03 8.7927971141348645e-03
      -7.3093284874144594e-04 -1.1823503211397736e-03
      -1.2758751820497358e-02 1.0876029129119009e-02
      3.8231851795436172e-03 -1.8632644281621927e-02
      3.2565782738535275e-03 -7.1718718415838233e-03
      1.2153673395425344e-02 -1.0431591381340116e-02
      -1.2300601290192704e-03 -9.2822569575145304e-03
      -5.8548873257455039e-03 1.0326346317141629e-02
      -1.4792292241313800e-03 -1.2799616054397845e-03
      7.6743530936667628e-04 -2.9500646734977589e-03
      -7.6594907178287814e-03 -1.8952256680468772e-02
      6.1916620426255781e-03 -2.8770373569703498e-02
      -1.0466890578117602e-02 2.1494878976720247e-03
      -4.0110090019127307e-03 -3.0643746476499692e-03
      5.6709560609784979e-03 -2.1627913064796981e-04
      -1.7554658675512490e-02 5.4345902504874142e-03
      -2.2538010702274265e-03 6.0489873353102228e-03
      1.8473615706480873e-02 1.8019890073480095e-03
      2.0142349875272553e-02 -1.2365899879339060e-02
      -5.6178009557358664e-03 1.1580267801930201e-02
      -4.2551891865518698e-03 -1.4213273785452557e-02
      -1.0851265275032085e-03 -1.4690481260274477e-02
      -1.4065897563899551e-02 1.7022869210731706e-02
      6.1558211976191733e-04 -1.1515574043399658e-02
      -7.2920073477366178e-03 1.8119043379729441e-04
      -7.9894259397053462e-03 -1.0568558712815401e-02
      4.2370220127456544e-03 -1.2025093487510090e-02
      1.5362221062974123e-02 -6.3737504326894113e-03
      4.0211732050043854e-04 -1.8777354551306812e-02
      -2.4530870478967532e-02 -3.4018608780455113e-03
      -1.7746104844128707e-02 -6.9144398132845782e-03
      1.1988948746468083e-02 -5.5713626622869768e-03
      -8.8414060128879576e-03 9.0594450791511225e-03
      1.0536911835335510e-02 2.6028904274643532e-02
      -5.0949521016002653e-03 -1.8334506206846905e-02
      3.0023034937140015e-03 -8.1697422466806176e-03
      -5.3723125111727638e-04 7.9471108345665620e-03
      -1.1466114027450824e-03 3.9603279340093001e-03
      -2.6559233315774197e-02 -1.9716709675572885e-04
      -1.4060265833912964e-02 -8.8746154531211419e-03
      1.3453160567305389e-02 2.0548040641948356e-03
      -5.3959647922599866e-04 -1.1702709386033494e-02
      7.3136308256559904e-03 1.6902652724539825e-02
      -8.1892334975848459e-04 -8.5466692021393242e-03
      -9.1192742161535795e-03 1.3911118455413986e-03
      -2.2677514020859797e-03 2.5810203829155529e-02
      -3.3689297243170123e-03 -1.1036643997609502e-02
      2.7972545193622698e-04 7.9106356525623801e-03
      1.2587031409204009e-02 2.5654048524563915e-02
      9.8519787421583009e-03 1.1038462103677375e-02
      5.2787287739320095e-03 -2.0726497519879820e-02
      -6.2582466024908223e-03 -1.7505352055880621e-03
      -3.6507331155060940e-03 3.1018008169948715e-03
      -6.6579693909832724e-03 1.3223886479144945e-02
      7.7182062994614895e-03 -1.1781750023321161e-03
      4.2590463348439196e-04 7.1585208409055204e-03
      -9.0974170568470149e-03 -2.4173859885741337e-02
      -8.1940830106467591e-03 8.9143235627032330e-03
      7.7181052169245602e-03 -1.8192091999861715e-02
      -7.8355186633197980e-03 -3.3857784200839005e-04
      -1.1925024576240747e-02 -1.3361030409801362e-02
      -2.6706986682654924e-02 1.8423256821285617e-03
      4.3349158498364772e-03 3.5928474498452658e-03
      1.1978876817921313e-02 -1.7245761397647920e-02
      3.3398981212561622e-03 -6.5407446407613487e-03
      -2.5415611255697771e-03 -2.9633340246378254e-03
      -1.1637185464443006e-02 -7.0623730472964674e-03
      -5.5368027269896642e-03 -6.1785624794498427e-04
      3.1678491571470175e-03 1.6462050571878391e-02
      1.3252576869129040e-02 -1.6108941268111080e-02
      2.1191230686398093e-02 -6.6685925741149588e-03
      3.2858319061432077e-03 7.7957501728742112e-03
      -2.6843420241746884e-03 -1.4825674866140556e-03
      -6.4983913596238316e-03 -7.0910729776851780e-03
      9.0146175651416327e-04 -1.2909663666868715e-02
      -2.6956043109961883e-03 -1.5813841204146072e-03
      -8.2342357166935692e-04 -7.7650323621646588e-04
      -9.2983584599996266e-03 -1.6998331440738611e-02
      8.1537794532133712e-03 1.1425367044149986e-02
      -1.0578027803337928e-02 -1.9340868738728947e-02
      3.5266530657428630e-04 -8.6409544328812146e-03
      2.7993313217188710e-02 1.0743367482859312e-02
      1.3373686400396753e-02 -6.9696013791259901e-05
      -4.2040338086054988e-03 1.8899717720123070e-03
      -4.3584781548289733e-03 -6.2127205161979599e-03
      4.6629522552571710e-03 -7.8810868039489342e-03
      -4.7557436449590417e-03 1.5377302476285886e-02
      1.1616053738409505e-02 -3.6122239928906780e-03
      -8.8778854542416706e-03 -1.2386987552971688e-02
      2.3957559435953684e-03 -1.4537626187811886e-02
      3.9381964899633899e-03 3.0399339914534899e-03
      5.0834332023616952e-03 -3.4648549989901903e-03
      -5.7273811565298439e-03 -2.4208986193870702e-03
      -1.9219541405849860e-02 -4.0893966779945038e-03
      -1.6099109034186754e-02 -4.7882510062096607e-03
      -4.6563788789639590e-03 -2.1423851136992120e-02
      6.0607795701528439e-03 -1.3126785747929198e-02
      -6.0694077120639002e-04 -7.0367020731481903e-03
      -1.2634281206539092e-02 3.6904930832722229e-03
      1.5068088801306315e-02 -1.0911899605344078e-02
      1.5803390372560591e-02 1.9436623908597916e-02
      6.3291540189881462e-03 1.0080066261771650e-02
      -5.3104752253108076e-03 -2.5597209852339119e-02
      -1.0683589178386646e-02 5.4758487466908760e-03
      6.3609434347478818e-03 5.6801919780619433e-03
      -2.6951607654224874e-03 -1.4566160536763706e-02
      9.5442226248481019e-03 -5.4274542187025907e-03
      1.9443360364835894e-03 8.5286608104490937e-03
      -8.7220395003020749e-03 1.9831458172537130e-02
      -1.0985527265017694e-03 8.6411528317205111e-03
      1.7359178343206911e-03 -4.3660613587697397e-03
      -1.0599609948523174e-02 -8.9751401271327674e-03
      2.4196555731378789e-02 1.0047933841832427e-02
      -1.9142953469683493e-03 -2.0232940867199916e-03
      1.2814453558567038e-02 5.5473333841294797e-03
      -3.1757222313326017e-03 5.9033309279461809e-03
      4.6625758517178321e-03 6.8416747321236046e-03
      -1.3075508781015992e-03 5.3109193442084741e-03
      -9.6599861998169177e-04 -3.8579804598242429e-03
      5.6236468692641966e-03 1.0045700611236023e-02
      -7.1926239891612160e-03 -1.7684434182258270e-02
      5.8241847525513247e-03 1.5480586045796977e-02
      2.0761425271946736e-02 4.0862384169098208e-03
      -1.8920162614905235e-02 -1.3495865490542706e-03
      9.1160211900438281e-03 1.7333775898913857e-04
      7.0168165906027711e-03 -2.4336120849209621e-03
      -9.1494470413573895e-03 1.1709199012530598e-02
      8.0091105668281953e-03 -7.1746888784959967e-03
      1.0126166671027892e-02 -1.0995107642146911e-02
      -1.7316995313678066e-04 -4.3394942364454875e-03
      -6.3642865334993396e-03 -6.3706247699544657e-03
      6.6152414020268667e-03 2.1274043399119417e-02
      7.0095599584618119e-03 4.7918403901447216e-03
      8.5210984864842101e-03 -1.9479010048189471e-02
      1.4081444709773860e-02 2.0445051408809058e-02
      -1.5830565744715034e-02 7.5336767220088247e-03
      -7.7365528968070666e-04 -7.5062792015894982e-04
      -1.3584721029280036e-02 -9.4573846902111201e-03
      -6.6912291706661036e-03 -4.1452577170991269e-03
      3.6364786240446747e-03 1.3390261291345478e-03
      5.4609617382808907e-03 -7.3222193945356243e-03
      2.7042479060039996e-03 -1.5462552646933712e-02
      1.2363443134900705e-02 2.7049148945014329e-02
      -1.4707821746100939e-02 -2.1112911386551279e-02
      -2.1249177561913448e-03 8.8537959651959850e-03
      -7.4690312326745943e-04 1.2284671710966260e-02
      1.8987834840999815e-03 -3.4666414587298040e-03
      -9.9637101564866771e-04 -1.8348294423732460e-02
      -7.9907012913606520e-03 8.5176567469508657e-04
      1.5693085120610916e-02 5.8451282175342656e-03
      7.4016790304088616e-03 -5.5739356287311010e-04
      -3.2233867166239489e-03 5.3121238940308810e-04
      -7.7740132507329272e-03 -1.2724380683545859e-02
      -1.1053695270939710e-02 -1.0935681158678077e-02
      -1.0415042842249049e-03 -3.1300830335168539e-03
      -1.3144522601407653e-02 2.3941736655016112e-02
      -1.7890869792373709e-03 2.8512191452513529e-02
      -1.0983844862109567e-03 7.6129495141884023e-04
      7.9745422283538387e-03 -6.3753828897122455e-03
      -3.9182760424086400e-03 -6.1710143544878400e-03
      -2.7643225518522701e-03 -1.1842566926463276e-02
      1.3475638937600858e-02 -9.2913507230186730e-03
      2.2106245621072902e-02 -1.0053008855360233e-02
      -1.4128471331908053e-02 -4.6850992327759832e-03
      2.7044981941243437e-02 -3.4509425066673633e-03
      1.2536475581876236e-02 3.6305792121175517e-04
      -1.3105490078472377e-02 -1.8826104564252603e-02
      -1.9033603124779811e-02 4.6912397291021604e-03
      -5.2874187713928666e-03 -1.6527288002583053e-02
      1.6881881012345400e-03 -1.0814017175614211e-02
      -1.0278696059459583e-02 -2.3336446046374113e-02
      1.2557681967296508e-02 7.6215685049952605e-03
      -9.6586885741071007e-03 -2.0204204783608851e-02
      -2.7469869203112472e-03 1.2835340244687732e-03
      -5.3808039189577269e-04 -3.2068002074497324e-03
      -8.2611477813947568e-04 -3.8421968330875850e-03
      1.7040142671124584e-02 1.3960594221881889e-02
      8.8324079905181970e-04 -1.5142348893361058e-03
      -9.6724934399691348e-03 -5.4336582995029156e-03
      1.6067335718961634e-03 1.8052846192694511e-03
      -5.8569071095851090e-03 -4.5888600819225184e-03
      3.0759315594832922e-03 -9.7000084414099446e-04
      -4.8696922084741122e-03 -9.5163804144979807e-03
      -1.3524598307729267e-03 -8.7622354618824803e-03
      -7.2820552455149191e-03 -6.9429407146805872e-03
      1.8395861847732239e-03 2.0153755350490205e-02
      2.0511489917734497e-02 -1.0566999292382483e-02
      -2.1660062711763423e-02 4.7407140482641635e-03
      6.1787206933669537e-03 2.6955570371022270e-02
      -1.7301873139089056e-03 7.7804505254652680e-05
      1.9004507423450547e-03 1.6192155697887212e-03
      8.7270035379180856e-03 8.1343649357130173e-03
      1.7833386078837587e-03 -2.2517146857096101e-02
      -2.7278396218273220e-03 1.0068964160989293e-02
      -9.8977237137065945e-03 8.0895742307327059e-03
      -1.4563886787269773e-03 2.6312311959058712e-02
      2.0345322570086573e-03 2.9564969782274953e-02
      -5.5240746267414334e-03 -1.5072260281996154e-02
      4.9042091379108820e-03 6.2229842917610589e-03
      5.1496207872623054e-03 1.3240878755660542e-03
      -3.3460367868787299e-03 7.6713014275558351e-05
      -1.4057839492986736e-02 -6.2546239908721456e-03
      -3.6843000141694518e-03 -5.3665643273295479e-03
      -1.8688440140961438e-02 -3.9538477294507717e-04
      8.1996284834035199e-04 -5.0784852677650330e-03
      -1.4718672341890930e-03 -9.9015229493074029e-03
      1.4076951827434542e-02 5.8263195953522648e-03
      2.6427822354552315e-03 -3.7717950965954119e-03
      -9.0384210778282333e-04 7.1771145312790781e-03
      -1.0910444418689871e-02 2.1271342475649831e-02
      1.0232758509514063e-03 3.9812515391253016e-03
      4.4199259849929569e-03 -8.1269719045227243e-03
      -9.3333059175573375e-03 1.0097937784435703e-02
      -2.0270153874392413e-03 1.1999077874796987e-02
      1.2389853429219217e-02 -2.1673727303087007e-02
      2.6390103010357816e-03 -1.1395873453652396e-02
      -3.1872213507134968e-04 -2.6636061821730613e-02
      -1.1952435613881556e-02 -1.1906932228776085e-02
      -2.6924261542112314e-03 -5.3767589124202085e-03
      -8.3270065368487595e-03 3.1463548497609097e-03
      -8.5192125427194006e-03 1.2152150576229256e-02
      9.7242521156779733e-03 8.0339417386499827e-04
      -1.1153217795651718e-02 1.8519134322791673e-03
      -2.7644432232407489e-03 1.2498089881448085e-02
      1.2242082392460137e-02 1.0438254085241976e-02
      2.0763761617964040e-02 -1.4262640778396203e-02
      3.6217314481775853e-03 -1.7962881752624282e-02
      1.1209760973668987e-02 2.0951537584271876e-03
      2.0466175684731424e-02 -6.9483669231112490e-03
      1.0875872567214109e-02 -1.4036133764942078e-02
      -9.1189457560344484e-03 5.2957453093567478e-03
      -5.4335276109993588e-04 1.2003026350533841e-03
      -6.9932050701627243e-03 -9.9846986703601981e-03
      -9.9831051667772074e-03 -1.0162731426711659e-03
      4.6907772564290370e-03 -1.7668463452835723e-02
      1.7844008781107517e-02 8.8088764737781077e-04
      -1.2638501379261143e-02 -6.5947720554168018e-03
      -2.3427450282886642e-03 -2.0580013944996523e-02
      2.6842007545612562e-03 3.6580750913755350e-03
      1.4544896646774786e-02 -4.9352543978414083e-04
      1.7666506850237813e-02 4.6592256896331070e-03
      4.9755209010359904e-03 2.1683860337424622e-04
      -1.8893590193563146e-02 -2.1853426875104470e-02
      3.3124204883220890e-02 -1.4618860547411777e-02
      -2.1237420281612721e-04 -1.9468913095437228e-02
      -5.5377628608376699e-04 -9.0396502587266267e-03
      -4.6091630627740909e-03 -4.2635840149747011e-03
      7.7752162515247652e-03 -2.7463395906103560e-04
      1.4927467571197431e-02 -4.0987399432860097e-03
      1.5612811477450166e-03 1.0907377827151543e-02
      1.9132108530316709e-02 -8.4083306614649422e-03
      -9.4661788155372458e-03 4.7248287662098563e-03
      1.2993611767579759e-02 9.0679435124817274e-03
      9.1875165087279206e-03 -1.7710393800000239e-03
      -1.0445088123210709e-02 1.8715698842191974e-03
      4.0987701020091796e-03 1.7803851054912764e-02
      -1.7144090910133731e-03 1.1422762065609066e-03
      8.7400584178082979e-05 -1.7685058303200114e-03
      4.5337027495027032e-04 -1.6075882709611151e-02
      -3.3324897751553445e-03 -6.6691649852531785e-04
      2.6521985547039470e-03 3.0242275799469531e-02
      -1.5471928306109585e-03 -6.5413035791628609e-03
      6.4188217391633285e-03 1.0752088767115831e-02
      -1.8439747240877535e-03 -1.8393431668564475e-03
      -3.2004033489488994e-03 -7.6423212353294085e-05
      -2.0704263599343620e-02 -8.1535461069196929e-03
      -6.1236891305662660e-03 6.4017144827274901e-03
      1.6786564034422614e-02 2.4359206090600262e-03
      -1.2404526816947641e-02 -4.3980910198819249e-03
      6.4871695778079500e-03 -1.3503219474383113e-02
      -8.0842996153047703e-03 -8.5983798064484356e-03
      1.8661908245268435e-02 2.6214833367515615e-02
      1.0278793969225094e-03 -9.0288668408761619e-04
      -9.1147668159930577e-03 1.1037537277050181e-02
      2.7822217941809882e-04 -2.0296023508943072e-03
      7.8816928960943151e-04 1.2010511693587155e-03
      -1.3976664971185561e-02 1.7887668690051539e-02
      -1.8107013704421783e-02 9.4441463644251832e-03
      -3.0617776023020390e-02 -9.8795810493747128e-03
      -5.7884494675782168e-03 5.7776403496977748e-03
      -1.5552105932601164e-03 -3.7455115943455068e-03
      6.7852658828234814e-03 -1.0496212075004917e-02
      -3.9463658612890464e-03 -7.9022099798302884e-03
      -1.7540919730791974e-02 -1.2086495560305940e-02
      -3.0336679325693875e-03 9.2684322548186159e-03
      1.6165659553926570e-02 -1.9428084469194880e-03
      -2.3497097794207347e-02 1.5751478437693766e-02
      8.5082523942192102e-03 2.7409264569030301e-02
      1.9793950670897731e-03 -1.6437976867342754e-03
      1.1525687918926360e-02 -5.4978221322943442e-03
      -2.6093269746247982e-02 2.2523029424064946e-02
      -1.3941636490838332e-02 -1.7021663233516087e-03
      6.7506907017256322e-04 -5.2363639384890954e-03
      -8.3561546940771284e-03 -1.6152739926939597e-02
      4.8466696871407719e-03 1.2635844780571510e-02
      4.4707383287905168e-02 1.4611168952694056e-02
      8.2715738536796417e-03 -7.2008348722883923e-03
      -1.7712244528066776e-02 5.4798833823729637e-03
      3.1924012695992758e-02 1.3820051737108150e-03
      -3.2978709414820103e-05 -1.4540339320063173e-02
      -1.5106957098457984e-02 1.7125543836811596e-02
      1.5748380385100871e-02 -1.3578668301821983e-02
      3.6242816675350594e-03 1.0742776276405307e-02
      -2.6113286776162760e-03 1.3050390625171710e-02
      5.5878469543144951e-03 -7.4668053822398179e-03
      5.2926729014614671e-03 -1.1470671298747686e-02
      -9.9595409226840622e-03 8.8174045198018982e-04
      1.8349975349531828e-02 -7.5664898073901513e-03
      4.4302237444207343e-04 1.6101863923906696e-03
      2.8555570403031969e-03 -2.2374469752325372e-03
      -4.0172130557136866e-03 2.4653873685518109e-03
      1.5152497489641147e-03 1.2320542442403367e-03
      2.7630852365345411e-02 -1.2983703534640399e-02
      3.9880588123146678e-03 -6.6727484640744725e-03
      -4.2009442839049576e-03 1.4898003408772903e-02
      7.1588717957337305e-03 1.8522039270199204e-02
      5.8838322335217023e-03 -8.8694799860747058e-03
      1.9469121074247756e-02 -2.0000788543549003e-02
      -2.7218789031016716e-03 2.1611717131302774e-03
      5.7025174486783157e-03 3.1323468370423029e-03
      9.7870480547424775e-03 9.2032566412851898e-03
      -1.1929312668060214e-03 2.5236423299401980e-03
      1.7515942629215672e-02 -1.1364750214373481e-02
      -3.3750174489180803e-03 8.5246608305400028e-04
      1.0324656477988213e-02 1.2341661309762660e-02
      7.5498046168369847e-04 1.1856733181853788e-03
      -9.9149686318207031e-03 -4.9553135809367981e-03
      1.3149379157607120e-03 2.7094189983811572e-03
      -3.1551943624215290e-03 -2.3028725117660775e-03
      -6.1203046039774193e-03 6.2980351631269317e-03
      2.6463272511129485e-03 2.3957640918803382e-04
      7.0540924319528898e-03 8.7775798573471626e-03
      -4.5914651913473697e-03 -2.7960685445909870e-03
      1.4914225244315469e-02 -2.3894275079359435e-02
      -1.6641256718773666e-02 -2.0127565697826911e-02
      1.4322174297838297e-02 -1.0731874743129279e-02
      -3.2432022138001153e-03 8.2257261461798664e-04
      -1.0356662334308736e-02 3.1497733609748509e-02
      9.7405515856433464e-03 4.9134878276120295e-03
      -3.5896916661360399e-03 -1.6463966578913667e-02
      -1.6194848504219157e-02 8.2618308181267343e-03
      -3.3980033937462212e-02 2.9015837548893565e-02
      -2.2527029551949365e-02 -1.3985006309751000e-02
      -2.8937727854503785e-03 6.0128123034451572e-03
      -1.3813524983691359e-03 8.4525292932956415e-03
      1.5081355748822760e-02 -1.1809056846430625e-02
      -1.7718852836471452e-03 -1.5952723133605341e-02
      5.5212750041852489e-04 7.3992459130303133e-03
      2.3994482936443360e-03 -5.6304610845174900e-03
      2.4352985525142646e-03 -6.2699602207593619e-03
      -9.8058206865930392e-03 3.7878992538174336e-05
      -1.2673206388763946e-02 5.1411236352713208e-03
      5.2983566792444833e-03 -1.1980860512299633e-02
      -1.2637175227350080e-03 -4.4433978892623885e-03
      -1.4318557677935981e-02 3.8199701068726533e-03
      8.4461193658545829e-03 1.0263107725947683e-02
      -1.3580146251382886e-02 -1.4559545489188502e-02
      5.6518682431751309e-04 -2.8377462996950347e-04
      -7.6015668869508432e-03 -4.4355263064201874e-03
      3.9625537399672985e-02 1.0603057426510810e-02
      3.0277927457064758e-03 8.0789859026075897e-03
      -1.6670896189414273e-02 -1.7615500100709620e-02
      -9.4364936248457296e-03 3.5060359797969205e-03
      7.7123483633337250e-03 -8.2376919681552800e-03
      -1.6107680490079372e-02 -3.2221620106660039e-03
      -5.1148036668969190e-03 -5.6410533441062713e-03
      8.9267485527859305e-04 -6.3417368075186324e-03
      -9.3403188020420164e-03 2.2701927850912507e-02
      1.7776635392153003e-02 -3.8837249127278875e-03
      -9.4318931769340319e-03 -2.1559594618244290e-02
      -9.8259650970287191e-03 -1.1085369992900438e-03
      1.9413878389383944e-02 5.1782160367009940e-03
      4.8324782768529072e-03 -1.4523566254456775e-02
      1.6538225260220472e-03 -4.7561046764368151e-03
      -7.2503600758851566e-03 -1.4244486263573830e-02
      8.4164315591455392e-03 -8.8799909390460275e-03
      1.5350908026485329e-03 -1.2849259827387285e-02
      2.0475139915112116e-03 -2.0422274962528710e-03
      -1.0789686826057594e-02 1.3800478658369128e-02
      5.5743233835129956e-03 -1.4075495639226542e-02
      1.7786302482329221e-03 -4.7080795738471829e-03
      1.3410295899810397e-02 3.3504457267569871e-03
      5.0991972199466631e-03 -1.5214162747832754e-02
      -6.7655505751214083e-03 7.4916939925859837e-03
      -5.3733577408963092e-03 1.5697924957548869e-02
      -3.0595592232107449e-03 2.6224113448363003e-02
      2.2715844388540287e-03 -1.1994289977130028e-02
      -1.4699584461563915e-02 2.6916043095852590e-02
      -4.7411289112401370e-03 9.7035798620869473e-03
      1.1218684143752515e-02 4.1057515079258840e-03
      -1.4066056890283630e-02 2.5491211103374816e-04
      1.1895488858883743e-02 -2.8280105729216864e-03
      -6.6607525188372451e-04 -1.5702873090724264e-03
      1.9478431459423594e-02 1.5943152814142405e-02
      1.4341904717203565e-03 5.5537612878801225e-03
      -2.3964298366226885e-03 1.3033698953010027e-02
      -1.0627693003538788e-02 4.8434916010289498e-03
      8.5874587233754057e-03 -6.1222126263883085e-03
      -1.0670256914273354e-02 -1.8973089777887621e-02
      1.1312118106957274e-02 1.3046099726214155e-03
      -2.6902585343025597e-03 -5.7756683983088246e-03
      5.2297749995032844e-03 9.9194214360339879e-03
      1.6647944889860683e-02 3.7463091873205690e-03
      2.3499616859375681e-04 5.6238912815023143e-03
      -9.4876511283625547e-03 4.4240175718904167e-03
      -1.1205818162351350e-02 1.2895285751041182e-02
      1.0364034015980220e-02 1.4825749819072616e-02
      -1.2888383148425804e-02 -9.7809350316726447e-03
      1.0358519156875204e-02 -3.1117682413729918e-04
      2.4856522387378652e-02 -1.3337347351978885e-02
      4.8892666490301575e-03 -1.1546165542234270e-02
      3.8469120909112024e-02 -1.7194877055858957e-03
      1.0529011194744859e-02 -8.4491356488507335e-03
      -6.7159618841072157e-03 7.9193743329771544e-03
      -8.9011958206699857e-03 -7.8256800257984951e-03
      -2.7612579170146707e-02 5.4045863807536060e-03
      -1.5527039119537690e-02 -1.6443737885231954e-02
      -1.6570588597867721e-02 -7.2622843659920734e-03
      -9.5068497666988827e-03 -9.8286551327683193e-03
      -9.3759816782436282e-03 4.1080165673540531e-02
      -3.7535652057465300e-03 2.5365490724568226e-03
      -5.8298378231080592e-03 1.4146098418010390e-02
      -2.5258099259047127e-03 1.2743440501075197e-02
      -1.0523410113392551e-02 -1.2845124354136515e-02
      -7.8714314783499949e-03 7.7000470241781296e-04
      -1.6657161218116164e-02 -2.5005995877680983e-02
      -1.3416627972858178e-02 5.3917351325241817e-03
      1.1147248576972007e-02 8.0834611259956533e-03
      -4.1829086553000997e-03 2.2836814645727432e-03
      -1.2422943594883228e-02 1.3603079465246906e-02
      -3.3327661028218986e-03 -6.4882907460023240e-03
      7.7472803205239481e-03 1.2402215771143350e-02
      -1.0846692948677239e-03 -3.1402952413983651e-02
      4.1481260002477274e-03 1.0900809672078493e-02
      2.1304294792692434e-02 -3.9574321344340259e-03
      -3.3266463996142592e-03 -8.7570673598910843e-03
      6.8443860550416206e-03 6.2107083542118106e-04
      -7.1595292802965546e-03 -1.8496207517021094e-03
      -9.3912481561781776e-03 -4.5405142805892080e-03
      -1.0927855117897348e-02 -2.8012805840420701e-03
      -1.7112579842611539e-02 -6.8370611291340374e-04
      9.8047752279607474e-03 4.1018986219575008e-03
      1.8920302029808669e-02 8.4364562513828591e-03
      -2.5220052331297199e-05 -1.7138701658766867e-02
      -2.2704009140325422e-02 9.9804319572268860e-03
      3.6094290224090103e-03 -2.8991264400698808e-03
      7.8903033476921229e-03 -8.9700477955124980e-03
      -3.0893893536181830e-02 -5.7442075957000564e-03
      -1.0563080105201059e-02 1.2719645549042055e-02
      -3.1693755200014432e-04 2.7968478078525174e-03
      2.2745098271530696e-03 -8.0238908712676697e-03
      -1.6563483692992986e-02 2.7757548109650362e-02
      -1.5402046015782900e-02 7.8795521288841427e-03
      -5.4143459087302890e-03 1.8065459596839605e-03
      -7.0324700253802013e-03 5.2765585203352729e-03
      5.3541516614911012e-03 -2.5803629495100028e-03
      -4.9652016426984065e-04 9.1676314290343043e-04
      2.4929765747790274e-02 -1.7087179950551060e-03
      -1.2085479705565332e-02 2.7248038302075478e-02
      -1.3209245078988886e-02 2.3527698050712573e-02
      -2.1807639040247274e-02 8.5742068832501562e-03
      1.9654649147216395e-02 -2.9828622459512791e-03
      -4.8935670544381906e-03 -1.3052967292053113e-02
      1.0254808110550892e-02 2.7746763657685455e-03
      -3.1177546702150999e-03 4.8247647303079197e-03
      -5.7550513524469117e-03 1.1443711902723926e-03
      1.1116052350282114e-03 6.2088852926516268e-03
      2.4032666295682303e-03 1.0970900902738312e-02
      -1.1079347223111161e-02 1.3236658577730934e-02
      -6.5250982579712416e-04 9.2815786759666077e-03
      -6.1433951524763816e-03 -7.1935737627438308e-03
      -2.4966068223152917e-02 4.6963549582918615e-03
      5.6007967571193905e-03 -7.2517338875042435e-03
      2.0345366719203724e-02 -1.3098989001599335e-02
      1.4251303578889693e-02 -5.5027745302866039e-03
      1.5927470799953897e-02 -2.2156786359470045e-02
      1.5090380592586487e-02 -1.1540851482125483e-02
      -8.3739556555808697e-03 6.5160901406913522e-03
      -4.0586759839211558e-03 8.3548445888004643e-04
      -4.1162619928945448e-03 7.2172604491012394e-03
      -2.9041041050107318e-02 1.6501184215019078e-02
      -3.2458395615837410e-02 2.1130780743018693e-02
      1.1043250860404507e-02 1.4125452403084570e-03
      -2.0266261723176793e-02 3.5365728178125125e-02
      -1.2655914652660756e-02 -9.1470730644003691e-03
      -5.0711995972642704e-03 1.2456285244426541e-02
      6.9853315554082392e-04 1.6255994903738438e-02
      -3.1106703175685407e-02 -3.6488040271635274e-03
      -2.1009609045460575e-02 -2.0020408600879676e-04
      -1.2026000612633243e-02 -1.9617301961689447e-02
      2.1240438845988169e-03 4.9265626069028160e-03
      7.1620945854714065e-03 4.3606951295490732e-03
      3.9754573381810764e-04 4.0940597650134880e-03
      -4.6288763373711194e-03 -1.8210261941666670e-02
      4.6638000636516660e-04 2.1567801642755152e-02
      -7.9294913850135457e-03 8.5059089272509492e-03
      -2.3577817060546347e-02 -2.3558887065383272e-02
      -5.9585036394099360e-03 8.3666961977808315e-03
      2.6304335236447440e-02 5.9519580906511856e-03
      1.4471885963284524e-02 -4.8720744049777437e-03
      4.9375459869436750e-03 2.1777277775618449e-02
      -1.6090639033649150e-02 -4.6150178335007909e-03
      -1.1728443919476386e-02 -1.0491525091251706e-02
      -2.1157239652328557e-02 -4.8788782745662913e-03
      -1.1272429763219053e-02 4.5353129471626076e-03
      2.1613340778787044e-03 7.6611306606009383e-05
      8.0179150474789223e-03 1.8523218657133640e-02
      1.8273157961886295e-03 -8.1227857151617221e-04
      -2.5493439271578221e-02 1.0368568760506245e-02
      -5.6085717939070630e-03 5.1654030547195967e-03
      7.8207584792171457e-03 -4.8019644585029359e-03
      -2.7425414694502520e-02 -1.4114299793574666e-02
      -8.8155895228225183e-03 -3.6923244988305327e-03
      -3.1509881795817010e-03 -4.5145956355893396e-03
      9.3358863663025177e-03 -8.0590362930951017e-04
      -1.4544039558349589e-02 2.7193209097451588e-02
      -4.5823554658474463e-03 -9.0831283856665432e-03
      -2.4447013353131378e-02 2.4198413023000490e-03
      -8.9605722636729376e-03 -9.7644833790976188e-03
      1.3031874421492732e-02 -7.1003186165150877e-03
      -1.5337726083642406e-03 -1.7632583560023153e-03
      4.6970153731902857e-03 -2.4179137877641477e-02
      -1.4613201201555532e-02 3.3836022619525069e-03
      8.3547111398117255e-03 -4.6886516859667134e-03
      -2.1660056662113601e-02 -7.3745829429932748e-03
      1.7771404323855607e-02 2.5071130040868517e-02
      -1.0753521958954406e-02 -1.6743242013482575e-03
      6.7627823436330163e-03 -7.9171787962490515e-03
      -1.5143855328410953e-03 -1.3045443175435514e-02
      4.6902254662294683e-03 1.9743178595186490e-02
      9.6136742346124987e-03 -8.8209857201025903e-04
      -6.7708138768621693e-03 -8.6501158781047815e-03
      -6.7851658190399367e-03 2.0733156445539368e-02
      5.1862061330635520e-03 3.5515273082220938e-02
      -1.1021167729303945e-02 -1.5025427099175280e-02
      4.2722772412154076e-03 7.0388340127542880e-03
      9.8556900278322628e-03 -1.6347114363289346e-02
      1.9513252501738323e-02 -1.3719641788135702e-02
      7.4739773956969653e-03 -4.2116384718198403e-03
      1.0865239553411364e-02 -2.2094617218579284e-02
      7.2596717020067250e-03 -1.9260987617168466e-02
      -5.5169539407654679e-03 3.6572900931872918e-03
      1.9506093117400647e-02 -3.0089196376290395e-03
      -1.0379346093678602e-02 1.6860696837527900e-03
      -2.1410209241918002e-02 -1.7423492092184044e-02
      -6.9896138315201960e-03 3.0205743591730522e-02
      -5.5392802702208012e-03 -7.5786429215619888e-04
      5.7824645339460466e-05 -6.4959086153745507e-03
      -1.1895249650135564e-02 -7.0900474196208532e-03
      -6.5558581862349774e-03 2.2475634231826806e-02
      -1.5657572744574206e-02 -7.4182649619994132e-03
      3.6490373484475069e-03 6.0849069880477653e-03
      1.0947801766329933e-04 1.7168621396239949e-02
      -5.3724672006026089e-03 7.9188312931201682e-03
      1.2876189466622381e-04 -1.0536024044369511e-02
      -3.2791436478259066e-03 1.6109921877600406e-04
      -1.8193572907582221e-03 -4.9101899317025640e-04
      4.5873963377895759e-04 9.3683184717650754e-03
      1.7522783257778224e-03 -1.7410992150263888e-04
      -1.4308850466010782e-02 -1.4363016331402110e-02
      -8.7417621793547846e-03 1.7833508647836293e-02
      1.5340002674689480e-02 -9.1339026922437807e-03
      3.7337363496021493e-02 5.4216290807571820e-03
      3.9615137180861143e-04 1.3028128261074945e-03
      -3.4726974675176672e-03 9.0853286672209592e-03
      8.5191330693479891e-03 9.6561957827346057e-03
      -9.3158878470834781e-03 -1.0954957581815363e-02
      -1.5539938490576822e-02 6.1501002964527455e-04
      -3.4497320824286713e-02 -1.0611204767146545e-02
      -2.5967802809636203e-03 7.9137431610611722e-03
      1.1034541577362915e-02 -3.0264298470616346e-03
      5.0719013914449652e-03 -1.1336297465246909e-02
      -1.5479362252765055e-02 5.0936475909804215e-03
      -7.8733923832312791e-04 6.9318830561268807e-03
      2.4574982512367949e-02 7.5869320787604324e-03
      -1.9377699420034235e-02 2.4206051234586341e-03
      5.6854406949908929e-03 5.7715927664882070e-03
      -3.0801748586424954e-03 1.7281888206041342e-02
      1.6208293568073593e-03 6.9128087821454676e-03
      -2.9492855378091733e-02 3.5213843472886003e-02
      4.2854529632427654e-03 -5.4044270115041612e-03
      -5.8461910246393185e-04 1.8491853471104176e-02
      1.6140615692761655e-03 5.3028116824085335e-03
      1.1269000064119973e-02 -2.2870166717169814e-02
      -1.1929050752798416e-03 -1.4883466858821111e-03
      -8.4841773926662180e-03 -2.4585831166973739e-02
      -1.2893444124893108e-02 -3.5795102291267144e-05
      6.6390342280718984e-03 8.4292498097893014e-03
      -1.7365181884389347e-02 -1.7955762259321318e-02
      3.7829030892934959e-04 3.7307545382886373e-02
      -1.7896317557315564e-02 -7.3007315448017900e-03
      1.5154897972393310e-04 -2.5795318298384728e-02
      -2.4793541095128294e-03 -4.9479746747245939e-03
      1.2505892306689627e-03 -5.9652605740870331e-03
      3.1029106050838501e-04 5.5748624095347896e-03
      -8.2194500234619786e-03 -1.9344919042521354e-03
      -1.2343366884223475e-02 1.9191660455494922e-02
      -7.2562591306670554e-03 2.4319459636526652e-02
      2.5252240870443816e-02 -1.3532652631146643e-02
      8.4272137104429348e-03 -2.0011737087247756e-02
      2.1562403237788397e-02 -2.8696922429933901e-02
      1.7738236543727127e-02 -1.0269827667449742e-02
      4.3652404392837425e-03 -1.1745433980750088e-03
      2.0626153690522328e-02 -8.3265432285469457e-03
      -7.9413025878955455e-03 -4.3238466004407727e-03
      4.5993315401696828e-04 -1.6641118457170923e-03
      2.8563594493975011e-02 -2.3731074572257653e-04
      -4.5207547523225478e-04 8.4196106487874067e-03
      -2.0279518293235509e-02 -1.7573286326056439e-02
      -2.4064988271101781e-03 1.9234213258923105e-02
      5.1575184096891939e-03 4.7716332211416058e-03
      1.4867885377972576e-02 1.4841759246144479e-02
      -1.5261794159690725e-02 1.8135012089492359e-03
      -6.3766315882534865e-03 2.8312541361366151e-03
      2.1352048690793719e-02 1.4950168600454226e-02
      -7.8887087235619206e-04 -4.9570385390706097e-03
      -1.6434920589224098e-03 -1.4732851543127652e-02
      -6.8734886309484294e-03 9.9942682824011048e-03
      1.1704061756220395e-02 -1.0692304382657117e-02
      -1.8789252935232925e-02 9.8009155874394811e-03
      1.0359049860600765e-02 -1.7091442895940997e-02
      -1.4671887086654513e-02 -1.8679107350792943e-03
      2.9022946338555537e-03 1.6474387391406012e-02
      6.1343814237811720e-03 -9.1993886430198745e-03
      8.9898756285392511e-04 1.1473542959088850e-02
      -5.4739986166516975e-03 -5.7358512362443142e-03
      1.5608554023606050e-02 5.0941434584899298e-03
      -1.8074642434283989e-03 1.4421228862071788e-04
      -3.3737841187519387e-03 -3.7609570153297298e-03
      -2.1076772728379448e-02 1.1208599626870085e-03
      -1.2388750887180255e-02 -2.6351342710647647e-03
      -1.1777950805524375e-02 1.9527406283335453e-02
      -2.2497783192420729e-02 -5.7550997356753024e-03
      -2.1787244811544912e-03 7.0153457591649775e-03
      8.3056018078031708e-03 -2.5005043367551365e-03
      -1.7430219420600381e-02 8.9748317937298726e-03
      2.7911161174163745e-03 2.2927265185683887e-02
      1.1319138248390516e-02 -1.1645322813245578e-02
      1.0238247438433330e-02 1.7679507354099684e-02
      -1.7269592050717878e-02 2.6230118432095028e-03
      7.7280260719998937e-03 1.1103013751225143e-02
      -5.2804681258239667e-04 1.5159654473182958e-02
      1.0369231226124405e-02 7.2670845642771936e-03
      -1.5145105301124093e-02 8.7292992472163423e-03
      1.8903406815100859e-02 -2.4876145572593866e-03
      8.0698646633804300e-03 2.1822959268676379e-02
      -1.2790207984144307e-02 1.1889891505595549e-02
      1.4218984756198183e-02 -2.8315285246112664e-02
      3.2129409747539287e-05 1.7613940893519183e-03
      1.2523155900116315e-03 -8.2186242198360078e-03
      -6.7298639836390010e-03 1.2006294679242947e-02
      1.0498652000000211e-02 1.0819488524527358e-02
      -1.6482271474652657e-02 3.2655858060023227e-03
      1.3458888720733544e-02 1.7150430361672905e-02
      -1.0823825997626334e-02 -2.2074572720133133e-03
      -6.5764113975930391e-03 3.4815890766001991e-03
      -1.6773304751626741e-03 1.3502280889376472e-02
      7.0062490473231098e-03 -5.2500245680630400e-03
      -5.0344961983914598e-03 -5.5864651785212981e-03
      -1.7386524218309513e-02 -2.6721730348160066e-02
      1.6339133682773753e-02 2.6805165849872557e-02
      1.6886866527132368e-03 -5.2307957138781986e-03
      7.5610919542264479e-04 -1.4834821439750227e-02
      2.6487834854611241e-02 -1.0479872684616531e-02
      2.4416252288608626e-02 -1.7834186077415728e-02
      6.4662778706987001e-03 -2.0193709630602595e-03
      1.1491290904309937e-03 3.6131582386949427e-03
      -6.0452010331099124e-03 4.6074202797176745e-03
      -2.8246639305180496e-02 5.2381388312845072e-03
      -2.2842149180345816e-03 -1.4371378161185618e-03
      -3.0232276114375869e-02 3.8050114288578152e-03
      -1.1189424304496626e-02 -1.0731950868135567e-03
      -3.2981549366380744e-04 2.7051260689224730e-02
      2.4299351088615923e-03 1.7989742482223552e-02
      6.9801500707516685e-03 1.2130701538828647e-02
      -2.2078354586069427e-02 4.4593164546679323e-03
      -1.7662192948913049e-02 -2.7325223288520457e-03
      1.5650459415095350e-03 -5.0685194251815138e-03
      -1.6875125794695452e-03 7.1292675473239699e-03
      2.8625656445194552e-03 -1.5298784117324146e-02
      -1.5584847475036757e-02 3.5688510537572144e-03
      -1.0970043244413029e-02 -2.4947388669975076e-02
      4.8815776777422154e-03 9.0623787582417136e-03
      -2.6950369938675972e-03 1.5064620315007431e-03
      9.3591458356870397e-03 -1.1916859461986690e-02
      1.5907384415743263e-02 -9.5273089324538103e-03
      5.5942424590909603e-04 1.4215642835552548e-02
      -3.1612176957701902e-03 -1.8954616255993841e-02
      -6.2653412822085046e-03 -5.3809926271117421e-03
      -1.2960288543528058e-02 1.3050689621605592e-02
      7.4777203362087438e-04 -2.8102192530715725e-03
      2.0478166610745290e-02 1.6114711704258954e-02
      1.2411553763388647e-03 -1.3673571440570081e-02
      -2.0031647481975688e-02 -5.3035756820505537e-03
      -1.5893116407812477e-02 -1.5552140622295419e-02
      -1.5843305576527373e-02 -3.9164244857059598e-03
      -1.6598912467034734e-02 -1.0313244334651531e-02
      -4.3628851174880362e-03 7.3452571378772322e-03
      4.6203301070818622e-03 -2.1108936647046078e-02
      -1.4664440575574303e-02 -2.0537915886500627e-02
      2.0205743202762024e-02 -1.3236283287647718e-02
      -2.0599613056696598e-02 -9.0115179035468885e-03
      1.4330054280793568e-04 1.0936699745265449e-02
      -2.6860438443714076e-02 -3.2656895450421763e-03
      5.8524936679888971e-03 5.9013053687803066e-03
      -3.1086225682804888e-03 -9.8248892378347214e-04
      1.3747494111850772e-02 -5.4952109497759961e-03
      3.3580273454604315e-03 -1.2987735895897494e-02
      -1.1755113545196202e-02 -8.0799495243270309e-03
      2.3948668251323542e-03 1.6618104722882911e-02
      7.1124395356304271e-03 -5.3145986706440700e-04
      9.7449282192977171e-03 -8.7671637140366611e-03
      -2.3119469430021048e-03 -1.7464567886856836e-03
      -1.4409257338089256e-02 2.3225784483161555e-03
      1.3532651816626222e-03 7.0558644805173059e-03
      1.5709610207393167e-02 2.0496747410541610e-02
      -1.6872789263847502e-02 -1.0241026247859604e-03
      4.0434812059760329e-03 -5.8295936614223137e-03
      -5.4517595534058876e-03 -3.4096353786087130e-04
      -5.3745742988148965e-03 1.9488972868496850e-04
      7.9360496832954919e-04 -1.3961277924023859e-02
      9.5621430436682222e-03 -2.5172163339197981e-03
      -4.4563521494939183e-03 1.4941139156754497e-02
      -1.7496719808601739e-02 1.4008535449744376e-02
      -6.0735889762538267e-04 1.6661785710029079e-02
      8.3808569398942151e-04 -2.0363161637185115e-02
      -5.8518455346127721e-03 -2.0413659366286460e-03
      -4.0596294871139546e-03 -1.4043983143746067e-03
      -8.2985676533128480e-03 3.4653099087334758e-03
      5.1296874517815548e-03 -3.4899229585990655e-03
      -5.8009834113049198e-03 3.8863187309878893e-03
      1.0782740680065493e-03 -8.3081645578893647e-03
      -3.3336251215033640e-03 5.5631428603177407e-03
      -5.1584230287916267e-03 -1.7071740688631354e-03
      -2.8801162650697591e-02 4.8231557923329501e-03
      -7.9146560306095001e-03 7.3248883500103669e-03
      -5.3731426317712343e-03 -1.8343865183404202e-02
      6.1373805572402778e-03 1.5209018231030819e-02
      -6.0454556229486839e-04 1.4218243488232338e-02
      1.2222786068372049e-02 1.1585358899532351e-03
      3.3917860235456129e-03 -1.1444837747526580e-02
      -4.9561536449012648e-03 -3.8986066737802020e-03
      -1.1073112363928064e-02 1.8796603695541619e-02
      -1.4393854614986280e-02 8.8458661495237362e-03
      -8.3419128246320709e-03 1.5763306365935620e-02
      -1.4569560999569183e-02 -1.4421586183228006e-02
      -2.5863537953953044e-02 1.6551985645776517e-02
      -3.0751389143922797e-04 -1.8177060977748970e-03
      2.6635423064657547e-04 -1.3652283402963825e-02
      3.4697857754205748e-04 -4.8949916930753502e-04
      -3.2748912985187291e-03 -2.8989500248916288e-02
      -1.7939564127742523e-02 -8.8590147573043999e-03
      1.4084902821734999e-02 -8.9788425961526575e-03
      2.9416703934355193e-02 -6.1049861861994644e-03
      7.4028920359957579e-03 1.1135875943194035e-02
      6.7447466499880575e-03 -1.4288112190451775e-02
      -1.7781958758338525e-03 -1.2105305978627962e-02
      6.7352516332144334e-03 -4.5107537797240554e-03
      -4.0631757428918726e-03 -4.4233770957211689e-03
      -1.6466901233390448e-03 -1.0171272473746235e-02
      -1.6870698836519728e-02 -6.2341417522098338e-03
      2.1671449992086519e-02 1.1796604703629258e-02
      -1.8912479665198007e-02 -5.7451412355515380e-03
      1.4431707395533360e-02 -1.1849588329512000e-02
      1.4258682892007537e-03 -9.3457204731323858e-03
      -1.5970409642293758e-02 1.3645117239160396e-02
      -1.4073420530560463e-03 1.4472233692796144e-02
      -7.1634266624561278e-03 1.7093294365876015e-02
      2.4840482606570701e-03 -1.5673610145793843e-02
      7.9002905780301322e-05 1.2161730956167799e-02
      -1.4409930004006825e-03 -1.8819271481655925e-02
      1.5876750639739663e-02 -5.7151073747557495e-03
      -1.7149439147649218e-02 3.0489159049558582e-03
      1.0040435799909538e-02 2.2875497275840304e-02
      5.7284983426974913e-03 -5.4585086757967744e-03
      2.3549286472254922e-02 -2.6850068659458604e-03
      -2.9471073448048440e-03 1.1897037034008611e-03
      -1.7483385565326306e-03 -1.2506919959298252e-02
      5.1096083135143558e-03 -8.7793571774734229e-03
      5.9635550443385161e-03 2.7585552871078386e-02
      -1.3975929346395455e-03 9.0455013378960124e-03
      -5.6782034059806247e-04 2.0507845679479254e-02
      -7.1769480903837151e-03 -6.1814885081026803e-03
      -2.1212344523516592e-03 1.3341331572578805e-03
      -5.2002816781356075e-04 6.7233449874636248e-03
      -1.1916326805359010e-02 -3.1197055269556401e-03
      -1.4771419423592419e-02 5.9375031776595305e-03
      -1.1296905726872037e-04 1.6961413838623686e-02
      6.7479535002378764e-03 8.6517212811296970e-03
      3.0749492984989621e-03 -8.2757728827010310e-03
      -1.3504585392203186e-02 -2.3515112275380778e-04
      2.6422313063918981e-03 5.8146714317602755e-03
      9.1952004301582967e-03 -9.9160458471348953e-03
      -3.0237655408327196e-03 1.0807227171826281e-03
      -5.8381218372891572e-03 -6.5772483345348728e-03
      -8.3970548906870356e-03 -1.2492847862095582e-02
      -2.7463365329280080e-03 1.0919902294082948e-02
      2.4922295066754688e-03 -1.0912949104128813e-02
      -9.2308713099525687e-03 1.1279032268211083e-02
      -1.0183379395482226e-02 -4.9584023468790227e-03
      -1.0338819757727323e-02 -5.1603279834746491e-03
      -1.6481634391222799e-02 1.1074675522147010e-02
      -1.2030613653782241e-02 -1.0714321718751594e-04
      -1.5790586380589715e-02 1.2530386939560349e-02
      3.4959756042880676e-03 1.9163424410220959e-03
      -4.5835045578458463e-03 2.8416264541037909e-03
      -1.0375383104162439e-03 -5.1858525149005158e-03
      -2.5825031011834001e-02 1.2527308537190151e-02
      -9.5591794281150774e-03 -3.4335076397402553e-03
      -2.2957015910269600e-02 -1.3886587946674916e-02
      -1.9108592644101585e-02 -5.9394677381100153e-03
      -4.2093825802591812e-03 -1.2787618836321197e-02
      1.0167052412487320e-02 2.0931598530517133e-03
      -1.7015632917794191e-02 2.6362042576840630e-03
      -3.7277990065036500e-04 -9.1605596808883132e-03
      2.1604909405097067e-03 7.6426538942060114e-03
      -4.1090692542866290e-03 -1.6526804809268822e-03
      2.1973150561135447e-02 -6.8043234027629880e-03
      -2.7956774842704576e-02 -6.1462754659266849e-03
      9.6199695252757698e-03 -1.8550446176668570e-02
      1.1465378882432645e-03 -3.1146972750919068e-03
      4.7666698504468835e-02 1.5707684122222548e-03
      6.4553190851229089e-03 5.4900472226186410e-03
      4.1224196246044204e-02 -1.0988553962776079e-03
      -3.6661445176989619e-03 -5.3969975422182652e-04
      -9.0545269877706745e-03 3.7211222189532569e-03
      -1.5047487830481295e-02 2.1490831291576046e-02
      2.0067414989224444e-02 -4.8212794260267941e-03
      -6.7052148530691328e-03 -2.0617553349052787e-02
      2.0825730875814043e-03 1.3434493945185977e-02
      1.0511760289811155e-03 -8.3602503806595417e-03
      2.2334224578553514e-03 1.2110597267462069e-02
      -1.8636805090750479e-02 -3.7866975915186517e-03
      -1.7146062612421590e-03 4.4883664435870288e-03
      -4.7377319013651277e-03 -6.9425158419889063e-03
      6.7337874684451036e-03 -4.4755848952872067e-03
      3.0734264600181267e-03 -4.1475624649933637e-03
      1.4712507096074263e-02 -5.1752980021663540e-03
      9.9504772248960455e-03 -6.9713723234629014e-03
      1.7036171849281107e-02 -1.5610276446849654e-02
      -1.1119332651102235e-03 -2.3876431325748999e-03
      4.4483484224882609e-03 7.6184248539364879e-03
      7.5374559671807957e-03 -1.5500116866593446e-02
      -4.7997569223134386e-04 1.0076807079571842e-02
      9.6105689998745043e-03 1.5071145821890381e-02
      -1.6852528550701986e-02 -4.6982289660885317e-03
      -5.0571688801935490e-03 -1.9510021242374216e-03
      -2.5623343089434957e-03 6.9405557817735592e-03
      -2.6857308663982772e-03 -7.9103974145572301e-03
      -3.2229233119604427e-02 -3.1525725164297377e-03
      -1.4281113696512433e-02 7.8237259552802162e-03
      6.6988372058273005e-03 1.5082757801673875e-02
      7.8362580611914690e-03 6.4948597451739490e-03
      3.8512655233211993e-03 8.6941150223713301e-04
      -1.0581592418566906e-02 4.7556208415303249e-03
      2.2839439788836648e-02 -3.7065905483934622e-03
      8.1670859947954016e-03 1.1796833025599600e-02
      -9.9212765770500845e-03 5.9735092290952811e-03
      -5.1345797150520811e-03 1.8266773901260342e-03
      1.1540774416460081e-04 1.8728118431183403e-02
      1.8555401386595637e-02 2.3498916982919699e-02
      -6.2743273319345316e-03 1.0099640832144346e-03
      2.3541254877466920e-02 1.6179445561748083e-02
      5.2369192859115822e-03 -5.9436057718883686e-03
      -1.3014855960718746e-02 1.4995857155523099e-02
      -2.3651979142872166e-02 -2.8389471595717156e-02
      -1.0338420442784510e-02 -1.6253174745539374e-03
      -3.0359941384469288e-02 -1.0317749644060801e-02
      -8.8091677330035638e-03 -9.1299976951669404e-03
      -9.0721799810826410e-04 -3.9829291665909744e-04
      1.7868153145191350e-02 -1.7106343566283329e-02
      -5.2195424592484645e-03 -6.9596400075638853e-04
      -8.8685528311883925e-03 -8.8372051391470280e-03
      -1.5557327634063152e-02 -1.6758384119423226e-02
      4.7531728325579461e-03 -1.1069627164162455e-02
      -3.8343185201812589e-03 -4.9777171125409900e-03
      3.8306471255542983e-03 1.2315075024990947e-02
      -6.6549765203103520e-03 8.4796456638667611e-03
      8.2197626000750986e-04 -5.6579575989522601e-03
      -6.0385030917942031e-03 1.0751163593096356e-02
      6.4384196165973911e-03 1.0324705540717322e-02
      -6.4528804530785341e-03 -6.4249599848500219e-03
      2.4659271883577158e-03 7.4822145291380624e-03
      1.4725621847741257e-02 -5.0031786285601957e-03
      6.8596411196315144e-03 7.3355821307447729e-03
      2.3735080080115566e-02 4.6427031328763937e-03
      7.6205474048932067e-03 5.9719014818844177e-03
      1.4206840888744694e-02 -1.6620788995567769e-03
      -1.4844013902860215e-02 2.9136843121620395e-05
      1.0458039568262330e-02 1.4000704194351683e-02
      4.5358324911267782e-03 1.2926373286284501e-02
      2.3661196436178731e-02 -3.0348839400944675e-03
      -1.3117565033700609e-02 1.7346565611002278e-02
      -4.4025951857870520e-03 -5.0843720814860395e-03
      1.3691396882048502e-03 -2.3383136224490644e-03
      -1.5013490857689315e-02 -1.1687083497639897e-02
      -6.1029048608240554e-03 -2.0787592893313661e-03
      -3.6586053470631127e-03 1.3492964758374019e-03
      -8.1143879468818150e-03 1.5258839074327055e-02
      4.9336470422331871e-02 1.1670927827611257e-02
      -5.1523249852215526e-03 -2.7661423270834247e-03
      -1.7339138008918356e-02 -1.3796529844484770e-02
      1.0104450691008741e-02 2.4725033203905830e-03
      -4.2694747240642856e-03 -1.9770824285063493e-02
      -4.4757505713047289e-03 -1.2535774636460231e-03
      -2.0965974958817909e-02 -4.9781401869405083e-04
      5.6102227637615130e-03 -1.0218829955541509e-02
      -1.1477690242315361e-02 -4.1205415691043461e-02
      2.6950363796773066e-02 1.0736191506463429e-02
      -1.0440547664605655e-02 -1.5463988998280396e-03
      -6.8856742917858364e-03 -1.0038733761995803e-02
      -1.3849145353286632e-04 -5.8755122359180961e-03
      9.9573636680612551e-04 1.0582364986770586e-02
      -3.9807313021495039e-02 -8.6727029125813291e-05
      -1.6574968354279965e-02 3.8946833749210251e-03
      -1.0243121680065099e-02 4.7602676892748485e-03
      5.9106651949557441e-03 -1.3153778726553746e-02
      1.2323428960767945e-02 2.5671992658716978e-02
      3.8427762409537808e-03 1.4555464909284083e-02
      2.1934678608644540e-02 3.9548250685502604e-03
      -1.5560869309073150e-02 2.2224929557937884e-02
      -3.3799515883106705e-03 6.8119964993086455e-03
      -4.9667539667630125e-03 -8.4237632888272199e-03
      1.3626656591944680e-03 -6.2832074694152296e-03
      1.9745275295016861e-02 1.3439045661822946e-03
      -1.8453543078434047e-02 -5.2204755992136939e-03
      1.4402952092211969e-02 -6.6977620771939434e-03
      1.2506129668844205e-03 4.8730087731833818e-03
      -1.8562937386914988e-02 1.4597162040440870e-02
      1.0635913241299042e-02 -8.2970174897732570e-03
      4.8237955389901378e-03 -2.2576601730916506e-02
      -1.3853571860818368e-02 1.1000493241212635e-03
      1.3731436612778075e-03 -6.6687792032406306e-03
      -5.8206848666540545e-03 -1.6112756525959789e-02
      1.0443396584003249e-02 -1.3576586679688668e-02
      1.4718882564761664e-02 -5.2398570057381171e-03
      -5.5776849727414068e-03 -5.7261554600242810e-03
      -4.7262063464007052e-03 -7.9582484490050513e-03
      1.2699329096029832e-02 7.5192898288006359e-03
      -9.6595530027345448e-03 -6.1795809904267689e-03
      -5.0482882979501660e-03 2.1354431589223687e-02
      2.0029307078614278e-02 4.3637607104205747e-04
      -1.8914721072510370e-03 -4.0092822990453348e-03
      -3.3090384486021279e-03 -7.1588945826403369e-03
      -1.3572191497835005e-02 1.0935421113360403e-02
      -1.3450258299888591e-02 1.6465867730023283e-02
      1.5942523210409668e-03 -1.6522435394163467e-03
      1.5197525239055924e-02 1.1846500139020466e-02
      6.0498492839681679e-03 3.9260785077754580e-04
      1.5762776028075780e-02 5.2941341493482966e-03
      3.0287046652588776e-03 1.2005096049102978e-03
      -1.2771383923050746e-03 -1.4771041393826772e-02
      8.8953059219866078e-03 4.3106603632210227e-03
      -2.2464909081485471e-03 3.2212353177139548e-03
      1.1594547459103606e-02 -1.3680467514117098e-02
      8.3016639855588766e-03 -2.2690172998135489e-03
      3.1079683355542051e-03 -1.8375563832704561e-03
      1.1923659367321911e-04 8.3431587628896085e-04
      -2.9268879636981191e-03 -1.3414072572389061e-02
      -4.3555623612643868e-03 -4.5619624008347319e-03
      -5.7636412302712820e-03 -5.7896424144587054e-03
      -1.6229239998216659e-03 1.0355329276799869e-02
      2.8550994778735625e-06 7.9505736250529164e-03
      1.4482340065629188e-02 1.0077138056602155e-02
      -9.5837488842697213e-03 -7.1206882095687133e-04
      1.5027627408579136e-02 -4.5221680494281378e-03
      -7.9573693395089944e-03 5.2135477622305380e-03
      -4.2913165651111192e-03 -1.3868665623546352e-02
      -4.2346806138728521e-03 -2.7260673352798477e-04
      -7.7790928180203672e-03 1.1578933933249625e-02
      3.2712795985460350e-03 -1.3546325355401602e-02
      -2.0104104472905622e-02 -2.6306758399170189e-02
      1.7449385943321457e-02 5.9792513511816954e-03
      4.3037743191365633e-03 -8.8399441037884489e-03
      8.1643865203469695e-03 1.2326926640292101e-02
      -9.1926554664169043e-03 7.2894032479486469e-04
      -3.4343254434690295e-03 1.2788147422946467e-02
      -1.8129540150353039e-02 -9.0673590223003305e-03
      -1.4556551751292390e-02 -1.0299767933205974e-02
      -1.3385381005911270e-02 -1.7818966354100033e-02
      2.9457262948916233e-03 -2.0856333966635752e-02
      2.1546976729027302e-03 2.1267985797109160e-02
      -1.0591996463613562e-03 5.8936190730742343e-03
      7.4686232373573857e-04 4.0869002824119586e-04
      -1.0379428107051374e-02 1.9314457226447750e-02
      -7.4944344007703643e-03 -3.6659204353995446e-03
      -3.8094764896055493e-03 -3.7674457024428752e-02
      1.5011106080825790e-03 -4.8457696898909766e-03
      1.6367465674217367e-02 -2.6628319922887056e-02
      -1.1481352280369062e-02 -2.9858947321304299e-03
      2.4770765998873238e-02 -1.6347875657154533e-02
      -6.7774245780415745e-03 -4.5586070127445928e-03
      1.9718896191531898e-02 -1.6220768086680705e-03
      6.4316731317161577e-03 -1.0871983904579151e-02
      -1.0638030040321033e-04 -2.8355758713946369e-02
      -9.6129448475368810e-03 9.3523100198208576e-03
      1.9838485427348722e-02 2.6411845887354575e-03
      -5.1224821969228220e-03 -5.2830787192227006e-03
      -1.2013501782961905e-02 5.3065443205296166e-03
      -1.6529646028564746e-02 9.0258103158943597e-03
      -5.7070403967279673e-03 7.2348104110152582e-04
      4.9294838423371221e-03 -7.4962193685995148e-03
      -1.9992582305531212e-03 -1.7063938214284348e-02
      -1.0749598280455920e-02 -1.5008584157327994e-03
      1.7756284107867796e-03 1.1192357198106007e-02
      -1.9079749418478897e-02 -1.6156808583649002e-02
      -2.3906398227664933e-03 -2.3666657428583607e-02
      2.6420322125553126e-02 -3.5218493586467397e-04
      -2.6991687633503788e-02 1.7971765134818549e-02
      -1.1455351253222253e-03 3.1834127911001438e-02
      7.0302608323139486e-03 2.8354687064161663e-03
      8.6123653848952878e-03 2.4082987145807982e-04
      -8.1162154887185756e-03 3.9171121217155755e-03
      -2.1692441728494806e-02 8.0817323552233658e-03
      -6.7821133570286143e-03 8.6821975912063764e-03
      -1.5295827223459298e-02 -9.0434291791572207e-03
      -3.0772394235701332e-03 1.0440685297268042e-02
      -3.8993617268013752e-03 -4.2468442229972227e-03
      3.2508562348954966e-03 -3.6327492230730334e-02
      -1.5784405357014632e-03 3.6709147045208626e-03
      -2.5151694716253978e-03 -1.2490847685315493e-03
      8.4348945780134080e-03 -5.3332176285717653e-03
      -1.3365223453935680e-02 -1.2605216992718504e-02
      2.7680540576255561e-03 -3.1890033783115055e-03
      -7.4885740927616183e-03 1.3431219885048052e-03
      -2.2014594188016611e-03 -2.0182007266488691e-02
      6.4403138696738750e-03 3.4687592125197064e-02
      -5.8674952902100517e-03 -4.4084682675800679e-03
      3.3129140593587215e-04 8.1833398412877872e-03
      3.1758464450112482e-02 4.4069768145444310e-03
      -9.4484007390840587e-03 -7.2344041511186548e-03
      -1.5221128550963875e-03 -6.9767510491162612e-03
      2.5257009872494633e-04 -2.4294283662015768e-03
      2.7977991935009402e-03 8.9944246236616111e-03
      1.2060900990651336e-02 -1.5635146833427409e-02
      -2.7262565922239780e-03 1.6298028400612952e-02
      1.5072208301194785e-02 4.9114791572517434e-04
      9.4366716722609021e-03 -1.3603461669288064e-03
      9.3642107551316824e-03 3.7025888266949501e-03
      -5.3151929201977546e-03 -6.1454274570173749e-04
      2.7828436482028618e-04 -1.0010523536020464e-02
      -3.2459486590634412e-02 -5.8846582266195730e-03
      -1.2789745841207399e-02 8.2233107943315339e-03
      4.0560053824727580e-03 -2.2800190920974415e-03
      5.3376574247960000e-04 -1.6138674818535849e-02
      -1.7644050645423275e-02 -8.1392547321793105e-03
      2.0987424758321599e-03 2.3764391134257403e-02
      1.6313481766066770e-02 -3.3861764197706968e-03
      4.5743269866335128e-03 6.3787578643097120e-03
      -1.1656001023564280e-02 -1.7374042220474305e-03
      -4.4766570095087100e-03 -1.2417899769129376e-03
      -3.8539434532460508e-03 -4.4944332429080946e-03
      -1.3676603570548939e-02 -2.0220149711364915e-02
      -1.9575045491127215e-02 -1.4889800718951992e-03
      1.8325616270197828e-03 -1.5865199555274094e-02
      -1.3557979175256240e-02 5.1555302230326281e-03
      2.9562322595535822e-04 -2.5178909328292714e-03
      1.1869802217202095e-02 8.7558073316693873e-03
      -6.4871174309765987e-03 3.8988792913335845e-03
      -3.0904869469656504e-03 5.2615483063199213e-03
      1.9802349331910305e-02 2.0754423778564141e-02
      -3.6699092668600213e-03 7.0203849478658225e-03
      2.5049567330519978e-02 1.1618673931908722e-02
      1.2125141362723630e-02 -1.1100957033832558e-02
      -7.9895951240841721e-03 1.3190395391158032e-02
      -4.0254160983662643e-03 -2.6861822864796565e-03
      -1.1773048939150909e-02 -5.5463721078746319e-03
      -1.5127588818297210e-02 5.6416604220126763e-03
      8.3144202977259510e-03 1.0665659490522863e-02
      3.2281915118649133e-03 -1.9563176377876638e-02
      1.4803538607546653e-03 1.6704757122542387e-03
      1.9521555455571004e-02 2.6531746332171657e-03
      7.9193681923972904e-03 1.1795611277167982e-02
      -1.5635427573944320e-02 7.0871060103509641e-03
      -6.5715479744443746e-03 1.0583149550465153e-02
      -1.2133527709011221e-02 1.9496161772368986e-04
      -6.0136749509826929e-03 -3.6201613166408019e-03
      -2.6493406448759652e-02 1.2661609171186906e-02
      -4.7069487935124232e-03 1.0616675811644074e-02
      -1.2073368483161857e-02 -4.1452738319431078e-03
      4.6612107411162975e-03 -7.5800484401755512e-03
      1.8313489590640997e-02 -5.7865478877020034e-03
      4.3079292583958293e-03 -6.6266968218498205e-03
      4.2976676178159284e-03 1.8981144677740105e-02
      1.9103452621298629e-03 -1.7973794675513423e-03
      9.0946242363463894e-03 1.0164610212590124e-02
      -1.6618094262262652e-02 -9.4733539196386451e-03
      2.7189201852742796e-02 -5.2700781190412917e-03
      5.0733716265617505e-03 -8.5380203585669117e-04
      6.3611148288151176e-04 -3.3913606872770247e-03
      -2.5518579911388249e-03 1.3044163877119734e-02
      -1.2348024106349276e-02 -1.1957318381718207e-02
      -1.0904577576913583e-02 5.5277149248113113e-03
      1.0983680860412692e-02 -1.2730769651237952e-02
      2.7445139850151064e-03 -4.7495253699317390e-03
      -3.4030998856543144e-03 3.6873627248637593e-03
      -2.6860900703663247e-03 -1.3406527869628984e-03
      -1.1957750759315149e-02 -9.8387009662535101e-03
      9.6959684412397662e-03 1.2843101497335042e-02
      -2.1539475273716527e-03 1.2673937519833375e-03
      7.0449794788522294e-03 -7.3222954540510957e-03
      -7.0550811133812544e-04 1.2263753680343853e-02
      5.1307580962635683e-04 3.9482640205328106e-03
      -7.0204692330949432e-03 1.8376625312840573e-02
      -4.9876633189658063e-04 7.6565036702661562e-03
      -7.9883373419866385e-03 -2.8444187473765964e-03
      -2.1238684335379732e-02 -1.1093065352093565e-02
      -3.7827048542585489e-03 2.0239423494920496e-02
      -1.1344201441325663e-02 1.0207687110578831e-02
      9.5341930942538840e-03 -1.7525751889414992e-02
      1.3215341315298249e-03 1.1705848004810258e-02
      7.7259354610842764e-03 -1.0416267200565200e-03
      1.4632072277525751e-03 2.4088980244904360e-02
      -1.6771360276835661e-02 -2.7058666155469289e-03
      -3.5548245429438676e-03 -9.0788641661141197e-03
      -1.2764014862153807e-02 2.6688493844732350e-03
      -9.3002877389766168e-03 -2.8024791790112820e-03
      -1.6456885955079333e-02 -6.2391891058872244e-03
      -6.7854382767613963e-03 -1.0403780793538077e-02
      2.1179391314262372e-03 -5.6613863026131655e-03
      -9.5056531217376887e-03 2.4936142213275907e-03
      -3.3918433761778296e-03 -6.7752205721253555e-04
      7.0648825614212313e-03 4.7348203773814488e-03
      -1.0960963114464680e-02 -1.3988040220403706e-02
      -1.4354464921176559e-02 -7.8071282783824334e-03
      -1.1691353742040465e-02 -1.4999298389896169e-02
      3.1924397107138680e-02 1.3733176254149358e-02
      4.8559317105121534e-03 -1.3887402304836389e-02
      -1.7937165543333413e-03 1.5274696181063609e-02
      -1.4235021527208017e-02 -4.9521250787515165e-03
      -4.0836655898968876e-03 1.2022107754429544e-02
      -1.3322005812500318e-02 1.4987322136635487e-02
      1.8098281244542480e-03 9.1270016799922978e-03
      1.9131543593075184e-02 -2.4021702232585256e-02
      -9.5418906423161735e-04 2.1754748708571028e-05
      -1.5793338072650345e-02 -1.7057525183086258e-02
      -9.7005303047796535e-03 -2.8429320886975266e-03
      -9.2726154806872275e-03 -1.9794810550863736e-02
      -2.2745241851701792e-02 3.9213349769217157e-03
      -1.1445118234456160e-02 -3.2338276792568204e-03
      -7.2355746988415626e-03 5.6309833737520753e-03
      -1.2333045414501144e-02 6.6213139609066626e-03
      1.5922440632131407e-03 3.0216699276421682e-03
      4.6037692211379350e-03 1.1610889342303759e-02
      1.0298013469525507e-02 -7.6767359840911814e-03
      -1.3660699386746307e-02 -4.7880195661444188e-03
      -3.4589284353581710e-03 1.1001688027158512e-02
      -2.4347437182628681e-03 1.1989757660250205e-02
      -7.4828346576824726e-03 -1.6601986140432911e-02
      9.0677431988764306e-03 -1.3249573490982132e-02
      -1.4588481301852398e-02 -4.2062431739194987e-03
      9.3584244514614747e-03 -1.2473945259241592e-02
      3.8474299488516026e-03 -8.1789606279941297e-03
      5.9008671390563044e-04 4.0643356129424178e-03
      7.0133736137779233e-03 1.1612669013339330e-02
      1.8709173083481523e-03 -2.7864051937769572e-04
      -1.3761684511860238e-02 -1.5832449920947067e-02
      -1.0083686816711981e-02 -1.0191080896530565e-02
      3.5294736291303442e-03 -1.7676025220047957e-02
      1.3954439623518534e-02 5.7458271353470402e-03
      1.7916001584309245e-04 -1.2705141159821270e-03
      -8.6136143104802703e-03 4.3629815449353765e-03
      -3.9479414748233646e-03 4.4895788315779820e-03
      -7.8395432027613503e-03 -1.9504469173441349e-03
      9.7991528006242598e-04 5.8822165541685288e-03
      -2.0331238266918465e-02 1.0706137274132954e-03
      2.9327730257635220e-03 9.0223624816680170e-03
      -1.1917629509212501e-02 1.4887749547699572e-02
      -1.4437656930350773e-03 3.6909721604645967e-03
      2.3128226639702425e-02 1.5409788535024669e-02
      -1.2175702336476904e-02 4.9509752894500844e-03
      -4.7680420477430232e-03 7.4158354372762724e-03
      -1.1328518705569309e-02 4.5182316278722994e-03
      2.5605482701029055e-03 -2.0762425802157980e-02
      1.4310105479203271e-02 8.2317722992660894e-03
      -2.7110365687921822e-03 2.7806844438373685e-02
      4.1848876862606030e-03 3.4507284864096897e-02
      -2.1223954020684020e-02 -2.0737890461151342e-03
      -6.7491865619534169e-03 3.0545286925146267e-03
      7.1511989061863023e-04 -1.5940728332188583e-02
      1.2418241392654732e-02 -7.1236834483331445e-03
      -1.0665392000795408e-02 -1.4017097846303049e-02
      1.0847712807915268e-02 -1.6375739859720431e-02
      5.1275080361548901e-03 -1.3255721575290379e-02
      6.8293649274871991e-03 -5.6555338960696481e-03
      -9.8253805576766183e-03 1.0634350737582341e-02
      4.7889083162242713e-03 2.2641325203368329e-02
      3.8026755914262289e-03 -2.5893807623571866e-02
      -3.3513922763360800e-02 -1.2370855835209362e-02
      -5.8894926533473264e-03 -8.0282732385426846e-03
      1.5081145616147597e-02 2.2179353270838763e-02
      -2.1479245502440184e-02 1.0065483396140384e-02
      -4.9862422526453396e-03 1.3235936580697437e-02
      6.0546234885616931e-03 1.4506816325388131e-03
      7.9369558921459134e-03 1.8650463053614185e-02
      -4.1765711707459534e-03 2.6620334786836869e-02
      -1.6375669068022863e-03 8.2183645565150568e-03
      1.1338887304907426e-02 9.0926044089450122e-03
      -6.1440815339797450e-03 -9.3655484032333161e-03
      -2.3148986293691025e-03 -6.3698939927309284e-03
      5.5064982473187691e-03 -5.3552109869403905e-03
      8.8110714516664457e-03 2.2469848539068905e-02
      -9.4531946005264600e-03 -1.8782717995661170e-03
      -5.3369138000923305e-03 1.6015014034279412e-03
      -4.6312615259846209e-04 7.4723456313829980e-03
      -5.8156184887191943e-03 -7.1558705857156808e-03
      2.5746714704654775e-03 -8.3181233997917103e-03
      5.5940471390163041e-03 1.8912686367279401e-03
      1.8826255802912788e-02 -1.2316435878127840e-02
      -1.4512912381898793e-02 6.8499240247317929e-04
      -1.9006116567094366e-03 1.7655622440260206e-02
      -9.1820019471250246e-03 -1.6131008173949576e-02
      -4.8022603108645390e-03 1.3313190079953109e-02
      -1.3701866214942236e-02 -1.5945235857965777e-02
      -6.4036297715931584e-03 -5.7940759652858036e-03
      2.0241627864276798e-02 -1.2954114192339388e-02
      4.9127714474618881e-04 -1.7039547834346080e-02
      -3.0376845667895438e-03 1.4759127623993425e-02
      -2.4414244422200871e-03 -1.1941378362071847e-02
      1.5971408043880080e-02 1.2851693437502337e-02
      4.9240127217803596e-03 -1.3053409000864396e-02
      -2.7211634637753172e-02 -1.9473835364384733e-02
      6.2567746533938734e-03 -2.5368387681089802e-02
      8.9642882099211698e-03 1.9796892456345160e-03
      -7.3482958269864497e-04 -5.7337502517576001e-04
      1.2140587170992792e-02 4.8048711895644827e-03
      -2.5887684726247768e-02 2.0187660055729431e-02
      3.0126317319886299e-03 1.5859702323720037e-02
      -1.1154744479809077e-02 3.0237989240541742e-03
      -6.4688658424760402e-03 -1.5568902382182868e-02
      -9.2741168253813108e-03 2.4671594512354090e-04
      1.2400547711728669e-02 4.7937266091156085e-03
      1.2782415200249443e-04 -3.4970864309493139e-03
      -1.4738186824174049e-02 -1.0215399954053888e-02
      -7.5396682288490181e-03 9.5517742091853573e-03
      -4.7301356800986145e-03 -1.5156269280138064e-02
      8.9169063623723843e-03 2.7161350383051366e-03
      8.6555016523946413e-03 -3.3033315378059536e-02
      1.1569712303779383e-02 -2.2921827525402130e-02
      7.3261721884356444e-03 -3.9676658389930708e-03
      1.4271698484409831e-02 -4.2104505991224003e-03
      9.3820291757861288e-03 2.6035853103209033e-02
      -8.1353112550792313e-03 6.5197739067959668e-03
      1.3683447524954050e-03 4.3218655503980414e-04
      6.6791685359083560e-03 6.2420868669724563e-04
      -8.3009483591829237e-03 1.7192585318032460e-03
      2.6837047071544169e-02 -4.3674379877507372e-03
      -1.7860360966537803e-02 -1.7990470217720878e-02
      9.7187983949091877e-03 1.5102390452904848e-02
      -1.2703568517245870e-02 -3.8826529481659996e-03
      -4.5515030613687600e-03 -2.6518103043338351e-03
      -1.3524839502878642e-02 -2.6902125390577632e-02
      -2.3672233942462526e-02 1.3275896201433393e-02
      -3.4133513821140928e-03 -2.6848578739092637e-03
      1.3644874002356346e-02 -5.1003029529768000e-03
      -5.9802853316865325e-03 1.9987621825310914e-02
      9.1362560381507696e-03 6.8821441368499521e-03
      -7.8732768663716673e-03 -9.1783327374759353e-03
      -6.3902948225116355e-03 -5.7892562896263893e-03
      -6.1190135987333211e-03 -7.2140560431989192e-04
      -1.0398076124828882e-02 -3.0556840756287253e-02
      -8.2156408538319372e-03 1.2430108036095792e-02
      -2.6521438194026760e-03 1.3536274997728248e-02
      3.2955720344079301e-02 5.4552985182031132e-03
      7.6367538129442974e-03 -3.9560958580039662e-02
      -1.3763965698310690e-03 4.2638023008979677e-03
      -6.4337705378635455e-03 -1.6739901544784129e-02
      4.8000022991330571e-03 -2.5016476898142844e-02
      -2.7871626519875028e-03 1.2953435988340974e-02
