<?xml version="1.0"?>
<opencv_storage>
<opencv_ml_ann_mlp>
  <format>3</format>
  <layer_sizes>
    784 128 10</layer_sizes>
  <activation_function>LEAKYRELU</activation_function>
  <f_param1>1.0000000000000000e-02</f_param1>
  <f_param2>0.</f_param2>
  <min_val>0.</min_val>
  <max_val>0.</max_val>
  <min_val1>0.</min_val1>
  <max_val1>0.</max_val1>
  <training_params>
    <train_method>BACKPROP</train_method>
    <dw_scale>1.0000000000000000e-02</dw_scale>
    <moment_scale>0.</moment_scale>
    <term_criteria>
      <epsilon>1.0000000000000000e-03</epsilon></term_criteria></training_params>
  <input_scale>
    1. 0. 1. 0. 1. 0. 1. 0. 1. 0. 1. 0. 1. 0. 1. 0. 1. 0. 1. 0. 1. 0. 1.
    0. 1. 0. 1. 0. 1. 0. 1. 0. 1. 0. 1. 0. 1. 0. 1. 0. 1. 0. 1. 0. 1. 0.
    1. 0. 1. 0. 1. 0. 1. 0. 1. 0. 1. 0. 1. 0. 1. 0. 1. 0. 1. 0. 1. 0. 1.
    0. 1. 0. 1. 0. 1. 0. 1. 0. 1. 0. 1. 0. 1. 0. 1. 0. 1. 0. 1. 0. 1. 0.
    1. 0. 1. 0. 1. 0. 1. 0. 1. 0. 1. 0. 1. 0. 1. 0. 1. 0. 1. 0. 1. 0. 1.
    0. 1. 0. 1. 0. 1. 0. 1. 0. 1. 0. 1. 0. 1. 0. 1. 0. 1. 0. 1. 0. 1. 0.
    1. 0. 1. 0. 1. 0. 1. 0. 1. 0. 1. 0. 1. 0. 1. 0. 1. 0. 1. 0. 1. 0. 1.
    0. 1. 0. 1. 0. 1. 0. 1. 0. 1. 0. 1. 0. 1. 0. 1. 0. 1. 0. 1. 0. 1. 0.
    1. 0. 1. 0. 1. 0. 1. 0. 1. 0. 1. 0. 1. 0. 1. 0. 1. 0. 1. 0. 1. 0. 1.
    0. 1. 0. 1. 0. 1. 0. 1. 0. 1. 0. 1. 0. 1. 0. 1. 0. 1. 0. 1. 0. 1. 0.
    1. 0. 1. 0. 1. 0. 1. 0. 1. 0. 1. 0. 1. 0. 1. 0. 1. 0. 1. 0. 1. 0. 1.
    0. 1. 0. 1. 0. 1. 0. 1. 0. 1. 0. 1. 0. 1. 0. 1. 0. 1. 0. 1. 0. 1. 0.
    1. 0. 1. 0. 1. 0. 1. 0. 1. 0. 1. 0. 1. 0. 1. 0. 1. 0. 1. 0. 1. 0. 1.
    0. 1. 0. 1. 0. 1. 0. 1. 0. 1. 0. 1. 0. 1. 0. 1. 0. 1. 0. 1. 0. 1. 0.
    1. 0. 1. 0. 1. 0. 1. 0. 1. 0. 1. 0. 1. 0. 1. 0. 1. 0. 1. 0. 1. 0. 1.
    0. 1. 0. 1. 0. 1. 0. 1. 0. 1. 0. 1. 0. 1. 0. 1. 0. 1. 0. 1. 0. 1. 0.
    1. 0. 1. 0. 1. 0. 1. 0. 1. 0. 1. 0. 1. 0. 1. 0. 1. 0. 1. 0. 1. 0. 1.
    0. 1. 0. 1. 0. 1. 0. 1. 0. 1. 0. 1. 0. 1. 0. 1. 0. 1. 0. 1. 0. 1. 0.
    1. 0. 1. 0. 1. 0. 1. 0. 1. 0. 1. 0. 1. 0. 1. 0. 1. 0. 1. 0. 1. 0. 1.
    0. 1. 0. 1. 0. 1. 0. 1. 0. 1. 0. 1. 0. 1. 0. 1. 0. 1. 0. 1. 0. 1. 0.
    1. 0. 1. 0. 1. 0. 1. 0. 1. 0. 1. 0. 1. 0. 1. 0. 1. 0. 1. 0. 1. 0. 1.
    0. 1. 0. 1. 0. 1. 0. 1. 0. 1. 0. 1. 0. 1. 0. 1. 0. 1. 0. 1. 0. 1. 0.
    1. 0. 1. 0. 1. 0. 1. 0. 1. 0. 1. 0. 1. 0. 1. 0. 1. 0. 1. 0. 1. 0. 1.
    0. 1. 0. 1. 0. 1. 0. 1. 0. 1. 0. 1. 0. 1. 0. 1. 0. 1. 0. 1. 0. 1. 0.
    1. 0. 1. 0. 1. 0. 1. 0. 1. 0. 1. 0. 1. 0. 1. 0. 1. 0. 1. 0. 1. 0. 1.
    0. 1. 0. 1. 0. 1. 0. 1. 0. 1. 0. 1. 0. 1. 0. 1. 0. 1. 0. 1. 0. 1. 0.
    1. 0. 1. 0. 1. 0. 1. 0. 1. 0. 1. 0. 1. 0. 1. 0. 1. 0. 1. 0. 1. 0. 1.
    0. 1. 0. 1. 0. 1. 0. 1. 0. 1. 0. 1. 0. 1. 0. 1. 0. 1. 0. 1. 0. 1. 0.
    1. 0. 1. 0. 1. 0. 1. 0. 1. 0. 1. 0. 1. 0. 1. 0. 1. 0. 1. 0. 1. 0. 1.
    0. 1. 0. 1. 0. 1. 0. 1. 0. 1. 0. 1. 0. 1. 0. 1. 0. 1. 0. 1. 0. 1. 0.
    1. 0. 1. 0. 1. 0. 1. 0. 1. 0. 1. 0. 1. 0. 1. 0. 1. 0. 1. 0. 1. 0. 1.
    0. 1. 0. 1. 0. 1. 0. 1. 0. 1. 0. 1. 0. 1. 0. 1. 0. 1. 0. 1. 0. 1. 0.
    1. 0. 1. 0. 1. 0. 1. 0. 1. 0. 1. 0. 1. 0. 1. 0. 1. 0. 1. 0. 1. 0. 1.
    0. 1. 0. 1. 0. 1. 0. 1. 0. 1. 0. 1. 0. 1. 0. 1. 0. 1. 0. 1. 0. 1. 0.
    1. 0. 1. 0. 1. 0. 1. 0. 1. 0. 1. 0. 1. 0. 1. 0. 1. 0. 1. 0. 1. 0. 1.
    0. 1. 0. 1. 0. 1. 0. 1. 0. 1. 0. 1. 0. 1. 0. 1. 0. 1. 0. 1. 0. 1. 0.
    1. 0. 1. 0. 1. 0. 1. 0. 1. 0. 1. 0. 1. 0. 1. 0. 1. 0. 1. 0. 1. 0. 1.
    0. 1. 0. 1. 0. 1. 0. 1. 0. 1. 0. 1. 0. 1. 0. 1. 0. 1. 0. 1. 0. 1. 0.
    1. 0. 1. 0. 1. 0. 1. 0. 1. 0. 1. 0. 1. 0. 1. 0. 1. 0. 1. 0. 1. 0. 1.
    0. 1. 0. 1. 0. 1. 0. 1. 0. 1. 0. 1. 0. 1. 0. 1. 0. 1. 0. 1. 0. 1. 0.
    1. 0. 1. 0. 1. 0. 1. 0. 1. 0. 1. 0. 1. 0. 1. 0. 1. 0. 1. 0. 1. 0. 1.
    0. 1. 0. 1. 0. 1. 0. 1. 0. 1. 0. 1. 0. 1. 0. 1. 0. 1. 0. 1. 0. 1. 0.
    1. 0. 1. 0. 1. 0. 1. 0. 1. 0. 1. 0. 1. 0. 1. 0. 1. 0. 1. 0. 1. 0. 1.
    0. 1. 0. 1. 0. 1. 0. 1. 0. 1. 0. 1. 0. 1. 0. 1. 0. 1. 0. 1. 0. 1. 0.
    1. 0. 1. 0. 1. 0. 1. 0. 1. 0. 1. 0. 1. 0. 1. 0. 1. 0. 1. 0. 1. 0. 1.
    0. 1. 0. 1. 0. 1. 0. 1. 0. 1. 0. 1. 0. 1. 0. 1. 0. 1. 0. 1. 0. 1. 0.
    1. 0. 1. 0. 1. 0. 1. 0. 1. 0. 1. 0. 1. 0. 1. 0. 1. 0. 1. 0. 1. 0. 1.
    0. 1. 0. 1. 0. 1. 0. 1. 0. 1. 0. 1. 0. 1. 0. 1. 0. 1. 0. 1. 0. 1. 0.
    1. 0. 1. 0. 1. 0. 1. 0. 1. 0. 1. 0. 1. 0. 1. 0. 1. 0. 1. 0. 1. 0. 1.
    0. 1. 0. 1. 0. 1. 0. 1. 0. 1. 0. 1. 0. 1. 0. 1. 0. 1. 0. 1. 0. 1. 0.
    1. 0. 1. 0. 1. 0. 1. 0. 1. 0. 1. 0. 1. 0. 1. 0. 1. 0. 1. 0. 1. 0. 1.
    0. 1. 0. 1. 0. 1. 0. 1. 0. 1. 0. 1. 0. 1. 0. 1. 0. 1. 0. 1. 0. 1. 0.
    1. 0. 1. 0. 1. 0. 1. 0. 1. 0. 1. 0. 1. 0. 1. 0. 1. 0. 1. 0. 1. 0. 1.
    0. 1. 0. 1. 0. 1. 0. 1. 0. 1. 0. 1. 0. 1. 0. 1. 0. 1. 0. 1. 0. 1. 0.
    1. 0. 1. 0. 1. 0. 1. 0. 1. 0. 1. 0. 1. 0. 1. 0. 1. 0. 1. 0. 1. 0. 1.
    0. 1. 0. 1. 0. 1. 0. 1. 0. 1. 0. 1. 0. 1. 0. 1. 0. 1. 0. 1. 0. 1. 0.
    1. 0. 1. 0. 1. 0. 1. 0. 1. 0. 1. 0. 1. 0. 1. 0. 1. 0. 1. 0. 1. 0. 1.
    0. 1. 0. 1. 0. 1. 0. 1. 0. 1. 0. 1. 0. 1. 0. 1. 0. 1. 0. 1. 0. 1. 0.
    1. 0. 1. 0. 1. 0. 1. 0. 1. 0. 1. 0. 1. 0. 1. 0. 1. 0. 1. 0. 1. 0. 1.
    0. 1. 0. 1. 0. 1. 0. 1. 0. 1. 0. 1. 0. 1. 0. 1. 0. 1. 0. 1. 0. 1. 0.
    1. 0. 1. 0. 1. 0. 1. 0. 1. 0. 1. 0. 1. 0. 1. 0. 1. 0. 1. 0. 1. 0. 1.
    0. 1. 0. 1. 0. 1. 0. 1. 0. 1. 0. 1. 0. 1. 0. 1. 0. 1. 0. 1. 0. 1. 0.
    1. 0. 1. 0. 1. 0. 1. 0. 1. 0. 1. 0. 1. 0. 1. 0. 1. 0. 1. 0. 1. 0. 1.
    0. 1. 0. 1. 0. 1. 0. 1. 0. 1. 0. 1. 0. 1. 0. 1. 0. 1. 0. 1. 0. 1. 0.
    1. 0. 1. 0. 1. 0. 1. 0. 1. 0. 1. 0. 1. 0. 1. 0. 1. 0. 1. 0. 1. 0. 1.
    0. 1. 0. 1. 0. 1. 0. 1. 0. 1. 0. 1. 0. 1. 0. 1. 0. 1. 0. 1. 0. 1. 0.
    1. 0. 1. 0. 1. 0. 1. 0. 1. 0. 1. 0. 1. 0. 1. 0. 1. 0. 1. 0. 1. 0. 1.
    0. 1. 0. 1. 0. 1. 0. 1. 0. 1. 0. 1. 0. 1. 0. 1. 0. 1. 0. 1. 0. 1. 0.
    1. 0. 1. 0.</input_scale>
  <output_scale>
    1. 0. 1. 0. 1. 0. 1. 0. 1. 0. 1. 0. 1. 0. 1. 0. 1. 0. 1. 0.</output_scale>
  <inv_output_scale>
    1. 0. 1. 0. 1. 0. 1. 0. 1. 0. 1. 0. 1. 0. 1. 0. 1. 0. 1. 0.</inv_output_scale>
  <weights>
    <_>
      -1.8712138250674085e-02 1.3411113499759519e-03
      1.0372904833628733e-03 -1.5414542014267646e-03
      -1.0519108484625671e-01 -1.0002913174731350e-01
      1.0199858695439695e-01 -1.9791290834218427e-02
      -6.1192019881731383e-02 9.8425898945658619e-02
      -2.9364488808006087e-02 5.2140379599361977e-03
      -1.2911912942637918e-03 1.3285381808012451e-02
      8.8909783476184293e-02 1.2629503811038192e-03
      8.2492416829914002e-04 -3.6869219606038839e-02
      4.2415177061709585e-04 -9.0231143712745251e-02
      6.9800775538973790e-04 -4.9718117513741507e-02
      7.7752088907524011e-02 -2.7710186728638647e-02
      4.8913849195186545e-05 -1.2763893298505058e-02
      -6.6739151730898897e-04 1.8700050208733114e-03
      2.0820563585216686e-03 7.9436604581689467e-04
      -1.4196737311865648e-03 8.4140859892952016e-02
      -5.0802950011429922e-03 -6.6240642094935284e-02
      -4.8823326010478223e-03 -4.3036959630018794e-02
      3.0111551249382912e-03 1.5041219037323517e-01
      -3.1186230336339511e-02 -6.5980089629865736e-04
      3.2422726004042231e-04 -6.5521482173918724e-05
      -3.4442397278366066e-01 8.6429374542636031e-04
      -3.5303441389326125e-04 -1.6096660608127425e-03
      -1.0332349324924342e-03 -1.9327841124949928e-03
      5.9898190097656644e-03 2.4367931162676687e-03
      -5.7474523014291262e-02 1.8720551650670048e-02
      -3.0719539667315728e-02 -6.7648510299259754e-03
      -1.8719623102691887e-01 1.7230589494818128e-03
      1.8938788637673069e-03 2.9393213895807601e-04
      2.1081227671572076e-03 1.1931944746844647e-01
      2.1863815546917065e-02 5.1568417003311717e-02
      8.7842068083030980e-02 2.8771370084029101e-02
      -1.5743277974168510e-01 -3.3396477900191672e-02
      -2.0446014324543575e-03 3.4876584249132338e-03
      4.3006445265849632e-04 -3.1906404622148517e-04
      1.7818631933629567e-01 7.5229086608269630e-02
      1.7589121726122141e-03 6.7541305233333356e-04
      -2.7825724850249070e-03 1.2747706129820876e-02
      4.6574496327221215e-02 9.1327633574821133e-04
      -1.0912233870685212e-03 -3.3236314812827750e-01
      -1.6648055791489941e-04 2.4029805465780506e-02
      -2.1121545960838959e-02 2.1138459105692902e-03
      -2.8602908915013956e-04 -2.6487877481738095e-03
      1.9336804664543746e-03 -5.0870551708588035e-02
      -1.9871782739125602e-03 -1.4882354683998116e-03
      3.1567183998058137e-03 -2.3556735887183640e-03
      -1.1481395094958021e-02 2.0687937904912295e-03
      -2.7245264086622843e-03 -7.8052937485349196e-04
      -3.5832299443496283e-03 4.2153794049484047e-04
      -7.7181016251397249e-04 -2.1965241439711371e-03
      -2.2463240229282982e-03 -2.6552203419857267e-02
      -3.3459453363195758e-03 1.6731573955981746e-03
      1.6911273415580641e-03 4.4177980566517304e-02
      -3.4890269990895041e-02 -1.0660185538009983e-03
      -9.0060927127706525e-02 -9.1633182188059995e-03
      2.2914856479811069e-03 -4.1797651907074978e-03
      -1.3395572941218685e-03 1.0392777008370721e-01
      6.8271937861455398e-02 -1.3784634673578609e-03
      -3.9582929849225706e-04 -3.5111287170235032e-02
      -3.0957167379848896e-02 7.8567733184738323e-02
      -1.2662976813422683e-01 7.7329077228822860e-02
      2.3796443908839070e-02 2.0309269003315197e-02
      1.7605963853763037e-03 1.9298516303520596e-03
      4.9077427719721985e-04 3.9776722654839627e-02
      -1.8783584170214210e-02 -1.1897289026355125e-03
      3.6408123282746937e-04 9.3754312006122441e-04
      6.6736605503245295e-03 1.0343874500813266e-01
      2.2459987700417974e-01 -9.7598769679247861e-03
      -1.9815874155015147e-02 4.9465329221341538e-02
      8.8555642473428106e-02 2.2641310704776762e-03
      -4.8964595820886873e-04 3.5926258579778215e-03
      3.4893526504063486e-02 1.4926180787424082e-03
      8.5841272693215100e-04 3.6662600083317010e-02
      -1.9438458503525306e-03 9.5150382889599316e-02
      -6.6655325211361711e-05 -7.0315781226063148e-02
      8.3720826354086869e-02 -1.7237693194663624e-02
      -8.7062532216410592e-04 -9.8246747315463984e-03
      4.8175331642115585e-04 1.0383000832896053e-03
      2.7088669697725534e-03 2.1500844158519957e-03
      1.1186377357225298e-03 -2.1730620006821830e-02
      5.7479572888335315e-03 -3.8070821278774071e-02
      -3.7796273998757751e-03 3.1606366573504713e-02
      1.2767515387151812e-03 6.9175588639919135e-03
      7.7116676489768126e-03 1.3855807982644604e-03
      1.1839540265674050e-03 -2.5105954042610613e-03
      -2.1129524150549919e-01 8.6945739908346909e-04
      5.5768264630203282e-04 -2.1453276905603097e-03
      1.3655830824006500e-03 1.1548760249437283e-03
      -4.3757300396509775e-02 3.3090790722687248e-04
      -8.7988001583232639e-02 5.7570716212804560e-02
      -4.5821304703117752e-02 2.9792998683377765e-02
      -1.1476311040865479e-01 3.5353120976114078e-04
      1.9181047406755432e-03 2.9639136088862564e-04
      8.5063925303248964e-04 2.1797459086110221e-02
      4.9145739297505243e-02 1.3428978464077465e-01
      1.0560929211975197e-01 -3.0095099438992197e-02
      -1.8022871063480259e-01 -8.7017982525858018e-02
      -1.1050668222813617e-03 1.6383535844757000e-03
      1.3404407521417660e-03 -1.6945358018565488e-04
      5.5504318815448886e-02 -3.2686664949728170e-03
      -1.4586508320584960e-03 -2.4608077654016854e-03
      9.4260764761246467e-04 1.9874222140968439e-04
      6.9553833753600774e-02 -2.7814470337347427e-03
      -4.1095790876250847e-05 -8.7602072159818578e-02
      8.9607946177190797e-04 -4.9649680608451610e-02
      8.7827531005231455e-02 -3.5866924862696020e-02
      -1.9000225524043713e-03 -2.9473618535446716e-04
      1.8216147378617056e-03 5.4532621674024707e-02
      -1.6754715531092838e-03 5.5871617345843404e-04
      2.7775250947269334e-04 -2.2989498170721463e-03
      -1.2987649502119209e-02 2.2472337511324262e-03
      -2.4445629720313273e-03 -1.7983709073781497e-03
      1.8655403011208470e-03 -3.1996287357503296e-02
      1.0409732234674802e-02 2.3290234896126884e-03
      1.8189495652572143e-03 -5.2133189981657717e-02
      -3.2394629931435791e-02 -2.3917473046116083e-04
      -1.1941675593039958e-03 6.1838297014394562e-02
      6.3513931357444695e-02 6.2232444353374559e-04
      -1.4914725611530115e-02 -4.6574549062925935e-02
      -2.6368132714620555e-03 2.4612091288962236e-04
      -1.6235525193589962e-03 1.0829851462967315e-02
      1.2206400382385735e-01 -9.4513476097247192e-04
      -9.2580943063942948e-04 -1.5084649541562659e-01
      -5.2331428144188522e-02 -5.3988072729897030e-02
      -6.8690783841082667e-02 3.8378861361754342e-02
      9.0391775499025689e-02 1.7645364355929932e-01
      -3.2445031113577352e-03 1.5954879139225711e-03
      2.2963815681694491e-03 7.5086479904147477e-02
      -1.5128826185022900e-02 -1.7994055089261610e-03
      1.7761945016058895e-03 3.9390234391741962e-04
      -4.7707312940541126e-02 -1.8375120010080084e-02
      1.1730455463755226e-02 1.5976942639734575e-02
      2.5599137081469651e-02 5.7269064763285304e-02
      2.9914758791791458e-02 -2.8793333245627636e-04
      -7.4578093011523400e-04 1.4212175143741771e-02
      7.9203858005470709e-02 -8.9147080576561927e-04
      -6.7302526565843433e-04 -3.0234376753731061e-02
      2.9638499637830301e-03 2.7883969905058058e-02
      1.3947136091340333e-03 -7.8018691446036667e-02
      8.6904000509548714e-03 -6.2114288025955358e-03
      -1.0536570956358085e-03 -1.1870253773806681e-02
      1.5707166802116492e-04 -2.6646295908450798e-03
      -6.6109761017814632e-04 -4.6201916800513545e-04
      5.0000523915280019e-04 1.1889743104259541e-01
      -5.4009310467432868e-02 8.6127295517761923e-02
      -3.6532998899072742e-03 9.4283852777717683e-02
      2.7529559595646917e-03 1.0452261633013046e-01
      1.8161143600457470e-02 2.9904481896734008e-03
      2.1225867216152425e-03 -2.7593201338108569e-03
      -2.4362398343036396e-01 -3.1351330871661051e-03
      -3.3118407735631815e-05 2.0438642660124112e-03
      -1.5824258150446276e-03 2.0273966608679297e-03
      -5.6507676686008118e-02 1.7133749484102277e-03
      -5.9437017249195305e-02 -6.4541754608831964e-02
      9.5487456298877210e-03 1.0658589191187137e-01
      5.6571901404802720e-02 -2.1898691394781960e-03
      -1.5352969194614935e-03 -2.8698786657994743e-03
      -2.7284049554342433e-03 -1.6705867859847578e-02
      -1.6709143683346625e-02 4.0507277370986458e-02
      -6.1585833072741701e-02 1.5533014980801145e-02
      -6.8893511163357943e-02 -1.5035884414497059e-02
      -1.0595501787682927e-03 2.7365442582463539e-04
      2.4257198352172476e-03 1.5216914490511497e-04
      1.0273740620982012e-01 -1.0225459912323813e-01
      -1.1116947678292571e-03 -2.8318724112586053e-03
      1.5235633100103459e-03 -2.4122726352588272e-02
      8.9562469758521140e-02 4.2872024261937370e-04
      1.3410902368649834e-03 -1.7776921565046680e-01
      2.0849599352977563e-03 5.2891730103687593e-04
      2.0106278796687099e-01 7.2414076011642001e-02
      3.7039940213640506e-04 4.2804000733681050e-04
      7.7684266698773604e-05 -3.6318682603599203e-02
      -4.3140352944224594e-03 -1.9336718254755719e-03
      -2.8520975817739877e-05 -2.1794435584104655e-03
      1.1232544968346197e-02 1.2107923191811585e-03
      -2.2023940164930022e-03 7.5375186971743629e-04
      8.6553460241816955e-04 -1.8884000509657564e-02
      -2.4358538691963649e-02 2.3622291880045676e-03
      4.4173801629331176e-04 -3.1281635914851051e-02
      -8.2375256920992190e-03 9.6130323745862952e-04
      -2.1873280111733978e-05 -2.9048037362989793e-02
      1.5671546135001220e-02 3.4318318385969950e-03
      -1.1392646337203602e-01 7.0634279025084887e-03
      1.4490325579972455e-03 -4.2879937853911258e-03
      -9.2501565081934195e-04 -3.7837074035193742e-02
      1.6273794207444164e-02 -3.9771961973476926e-03
      -3.4290076228211588e-03 9.5032057200090697e-02
      8.5916528764595525e-03 2.7819435123509290e-01
      -6.1426715128373728e-02 4.6872737973161910e-02
      1.4965450558464066e-01 1.0450599861895349e-01
      -2.1383836106950811e-03 7.7924195682890123e-04
      1.2504421463408056e-03 -1.1480848543681174e-01
      3.5477463212695584e-02 -3.5438000290433981e-03
      3.3229325450335670e-04 -5.3307849589696648e-04
      -6.3114340726325574e-02 2.3095401047406788e-02
      3.5117939566089794e-02 -3.8073654680555305e-02
      -4.0214479236764751e-02 3.2337134050698581e-02
      2.5015746907178327e-03 -2.3860552489373215e-03
      -3.9900574084358216e-03 2.6010237484847612e-03
      9.0032020731176249e-02 -3.6401317244479461e-03
      3.4829647872002727e-03 -3.0671128630813050e-02
      4.2191937525551948e-03 -7.4396026143066799e-02
      1.8124882214752400e-03 -1.2185115757350788e-01
      -8.6609665015977028e-02 -2.1353693016679556e-03
      1.9480979415514583e-03 -8.3892795632300714e-03
      -4.7911897852641887e-05 -2.7996743047404220e-03
      -8.2315873711286277e-04 -1.2009327798074912e-03
      1.9466322297442345e-03 1.1151945636744591e-01
      -6.0949686977032978e-02 7.4663775194884582e-02
      6.2702378076567861e-06 -5.7339110373208782e-02
      3.6176625990813061e-03 2.7839990666906924e-02
      -6.4692412317313264e-02 1.3391236889441953e-03
      2.3284952768342407e-03 2.2107403329954729e-03
      -2.3647349149540722e-02 -3.3069291684881342e-03
      4.1040818923882942e-03 5.9932328492895469e-04
      1.3945780448676413e-03 2.6741300386760522e-03
      -3.7169311600843344e-02 3.0062534086904312e-04
      -5.9043096630426180e-02 -1.3381239715906695e-01
      -9.3771114938872857e-02 1.3914728369461027e-01
      -6.2761396441858547e-02 -1.0601001513197957e-03
      -2.1840389560334973e-03 -1.4767879099564164e-03
      9.1904276958356247e-04 2.2482123102947019e-02
      1.3380100995681378e-02 -5.7477421786511038e-02
      -1.0367097100023945e-01 1.0801150468977656e-01
      1.7492199211490703e-01 4.5323777782823246e-03
      -6.4078975394345824e-04 6.2125873339304819e-04
      2.0003762431824437e-03 3.2170396521513781e-03
      -2.1546638691308521e-02 -1.6794468402563843e-02
      -2.5084258143711286e-03 -2.5564764216174912e-03
      9.0990652580136212e-04 -2.7930218668761994e-03
      1.2524689938655709e-02 1.7609710065138689e-03
      -2.9435512730493136e-03 -1.2862325769549451e-01
      -1.1609933159320322e-03 -7.4594989799840916e-02
      1.5446909446656951e-01 3.2880513703889639e-04
      3.1085190348180392e-03 1.2548043221166903e-03
      8.1627568877310830e-04 -3.9254057115070858e-02
      -1.6114898583538277e-03 -2.6591513215860228e-03
      1.3840366672987570e-03 -2.2388089498919742e-03
      -8.3367403704226906e-04 -4.1365007121608480e-05
      -2.7085956881680805e-03 -1.0922531303654589e-03
      9.3827737580572253e-04 -3.6843681235125082e-02
      -9.2212981424257018e-02 1.1807264851257542e-03
      -3.3922593546539454e-03 -2.4849269514170217e-02
      -1.1539858683931979e-02 1.1577474520434121e-04
      1.8914792033925616e-03 -1.4072586349804258e-02
      7.5748406139661120e-02 2.9787766781785353e-03
      8.4893245365512821e-03 5.4108736028536504e-02
      2.5714062142764833e-03 -6.8874029992568799e-04
      -2.4683260515288110e-03 -2.8738120498602474e-02
      -4.8154367064070093e-02 -2.9570148083608132e-03
      -2.6268384608723970e-04 1.0016817078184680e-01
      3.7089287023346622e-02 2.1325950073090766e-01
      -5.8505429590437509e-02 1.6367150469082138e-02
      1.1128302582794691e-01 2.9409219752202839e-02
      -3.3634614179545433e-03 -4.1500238243118149e-04
      -1.8209087045049797e-03 -3.2514366962328019e-02
      1.1266376825006268e-02 -8.2571346616203026e-04
      -8.2057838128224653e-04 2.4203516316278024e-03
      9.9297589144564519e-03 -7.4419793240693255e-02
      -3.3579846617082389e-02 -9.3978997471230036e-02
      -1.3464360256130367e-01 -3.3487510374357099e-02
      1.3682271763456452e-02 9.7182839002629012e-04
      -2.5894803559843639e-03 -6.1362833697431195e-02
      7.7987222006952505e-03 -2.2677221158123920e-03
      2.7104380927709401e-03 -6.9711533728737760e-03
      1.4571176906028015e-03 -7.0211809927610350e-02
      -3.7326278142379081e-03 -7.8464707828386562e-02
      5.9124794763256050e-02 -1.4507635718998279e-02
      -6.9080254452682011e-05 -9.4879654487753408e-03
      1.5695468848797975e-03 1.1946691354497939e-03
      1.5465369798713009e-03 1.7002208989132178e-03
      1.2373566802987730e-03 1.2755255617384137e-01
      8.2635992339947246e-03 -1.0196185467660270e-02
      -1.0143563933306088e-04 -2.3036223407256411e-02
      2.8099099464033452e-03 -3.0397569272904414e-02
      -9.0496318859940569e-02 8.9337634116793264e-04
      3.3490610507727423e-03 2.0670586079268144e-03
      -9.7431713388809182e-03 -2.9995627916547625e-03
      -1.1265414527835845e-03 -5.2517360553907893e-04
      1.5364846323163231e-03 -1.3286270155371867e-03
      -1.7538871283488921e-02 -8.5856291283142655e-04
      -6.8923633909897974e-02 2.4094038573988483e-02
      -5.9145229239961905e-02 5.6821103837264977e-02
      4.5077450018768367e-02 2.7996976095886195e-03
      -5.2659051943341974e-04 2.2602614566144333e-03
      -1.6371113611315122e-03 -2.3113686767015796e-02
      6.6120867594008301e-03 -1.9084239087319061e-02
      1.6828658945025037e-02 1.4202488580544338e-02
      -2.9698702790206619e-02 6.3812787392801690e-02
      7.4192872149584320e-04 5.2632802084058951e-04
      1.2659648151416530e-03 1.2834013996286494e-03
      1.2446855982836903e-01 2.5998978329770519e-02
      2.7819007615373877e-03 -9.9956283862121515e-05
      2.9316976058841103e-03 -7.5072932023908503e-04
      -7.0050231983182581e-02 1.1154210384676277e-04
      1.7521701448028899e-03 -1.4787999934316570e-01
      2.9434302554219830e-03 -9.0228090565224864e-02
      -4.2152401060531995e-02 -3.2942179125968994e-02
      1.2286356800926333e-03 -3.5793091837260817e-04
      4.9046953088985399e-04 -5.3765180182982937e-02
      -1.3000137130393748e-03 -1.3538861712402482e-03
      -6.8051401722609025e-04 8.4490221857269480e-05
      -2.7532801538391002e-03 1.6157995441960320e-03
      -2.6568461210830992e-04 -1.7002220127176617e-03
      -2.2220985821492390e-03 6.4200105765115395e-02
      -2.1416877352489548e-03 2.5735395919539070e-03
      -1.3736075964050612e-03 -4.3908445534229278e-03
      -4.7091901620988710e-02 -1.8799915413402661e-04
      2.6826796565053703e-03 5.0073053699741514e-02
      7.5742495146003896e-02 1.3236324446233676e-03
      1.5956455162400355e-02 -7.0749644167600934e-02
      -4.8030514649108932e-04 -8.3088276987473625e-04
      -1.8205379020215619e-03 5.7138323610139416e-02
      5.1475034009457507e-02 -2.3933096470959334e-03
      -2.0531445466351449e-03 2.8655870577563518e-02
      -6.2208345862289294e-02 5.7421195764115120e-02
      -1.2843469850395248e-01 -1.7897439264897640e-02
      9.6091732337376876e-02 2.4176064423776216e-02
      1.1269984677887849e-03 -2.0833961157229798e-03
      8.9166510409606817e-04 -5.5097261315453172e-02
      -7.1444687218504502e-03 -9.7453738329052349e-04
      -1.8856650049161447e-03 2.1408319751068500e-03
      8.1406599323138332e-02 -1.7217356042472813e-02
      8.8306739214097912e-03 -1.0563970881625123e-01
      -1.1645568371347532e-01 5.7682026930888398e-02
      5.3685650529391470e-02 -1.2652022291572615e-03
      -2.4325567494153902e-03 4.3176750872929943e-02
      -6.6190696751197648e-03 -1.8554281425908496e-03
      5.8513307961681439e-04 -2.8625312040839259e-02
      8.2096710566315770e-05 9.4489788285588030e-04
      -2.4428822133779940e-03 -2.1564009182492828e-02
      1.2042983686199057e-01 -8.7470850907332646e-03
      -4.2607935638489615e-04 -5.9418492722922312e-03
      -1.9818484874317149e-04 -2.3981354335418357e-03
      2.7149511307100801e-03 2.1634013803577372e-03
      2.7351071112267952e-03 1.7579761293762285e-02
      7.1486007645822584e-03 -1.6685306183780158e-02
      -3.1902754521812458e-03 6.2147964059334981e-02
      1.9096518855610241e-03 -4.7091167020692264e-02
      -5.8949413965539155e-02 -3.6496650367411694e-04
      2.1217955137509351e-03 1.4215011230370651e-03
      4.5369641883076683e-02 -2.0598227708933810e-03
      1.2163915293113483e-03 -1.8128640156812156e-03
      -2.8754348490897449e-04 -1.4579030271981159e-03
      -2.7239222116291952e-02 1.8943599089555701e-03
      -7.7002476464899924e-02 1.6002839796287856e-02
      -1.1716672843280120e-01 2.2933278090765400e-02
      3.7975013866952220e-02 -2.4900805651843320e-03
      1.6002021144226554e-03 8.7358968419835566e-04
      8.9645852248404316e-04 -8.6256443292847693e-02
      4.9479515808254146e-02 3.7271189283949180e-02
      5.1089274557912748e-02 5.8292900938314478e-03
      7.9427650918702643e-04 3.5272589428964433e-03
      -4.8335387204814724e-04 5.9638058556505877e-04
      8.1607753081961104e-04 -4.1000452828690728e-04
      7.2247401525865576e-02 1.8711487608723449e-03
      -1.3569633618145990e-03 -1.9605796175320915e-03
      2.0424462243688059e-03 -2.0040136525325797e-02
      -6.1838824981871918e-02 -1.0945112661853609e-03
      8.8512749956396841e-04 -7.0214577147210841e-02
      2.3459595790554658e-03 7.9121773288469040e-03
      8.8056041496437559e-02 -8.2168592279756661e-03
      -1.7437509683669217e-03 2.3571230502273392e-03
      3.6145239855922404e-04 -4.2227129276372441e-02
      -4.6815033417584587e-04 1.3499525240341212e-03
      1.2492786420354733e-03 -1.6671338704387666e-04
      -7.6692756836549553e-03 -1.0391965117510422e-03
      -1.8616659982860519e-03 -2.0178337829079573e-03
      -1.0411413556812900e-03 -1.6144181642789895e-02
      -2.8072837298818470e-02 -8.0183164858127021e-04
      1.9900780216118843e-03 1.3274950863830818e-02
      -4.0065049039108271e-02 -4.6268867716249193e-05
      -1.3871719449388040e-04 8.2211927455200645e-02
      6.7258006750970808e-02 2.1272509178747571e-04
      1.6520623737198306e-01 -8.1556629217894555e-02
      -1.7994859974581588e-03 7.7392795467012962e-04
      -2.0499508909031902e-03 -4.2560974956702781e-02
      8.9649768999320485e-03 -4.1196882202749812e-03
      -2.3283526874710641e-03 5.2139280374230768e-02
      -6.6002791784448272e-03 7.3550242507410390e-03
      -6.3897530837983177e-02 -6.0622938536533409e-02
      9.4343924863138126e-02 8.2219306477427617e-02
      -2.2523536109974474e-03 1.6535776823983761e-03
      2.2834559620422399e-03 1.0990306706212301e-01
      -1.1337105810923495e-02 -5.2608601899337875e-04
      -3.4090027973068858e-03 -2.3198238254472448e-03
      1.4012572478642569e-02 7.3469843684720468e-02
      6.4255241603094593e-02 2.3356984335199980e-02
      3.7141016033309542e-02 9.4337338797320647e-02
      7.8799701739006120e-02 8.7713016708428656e-04
      -1.5628210971337503e-03 -2.1930600167394614e-02
      7.8653904908242644e-02 -2.4854997452937954e-03
      -2.7411629143790812e-04 2.8907856956921864e-02
      3.7037412110148688e-03 -4.7657074018595452e-02
      -1.8732425209124404e-03 -1.2210555520874293e-01
      3.2563998664062170e-02 2.1145493432798593e-03
      1.6536209840781011e-03 -9.4251434325122192e-03
      2.1000682908095089e-03 2.0146170789667580e-04
      1.5085094165302373e-03 -1.2261424162911302e-03
      -1.2860862043261737e-03 4.5233655191399769e-02
      5.4263826941691198e-02 1.1032816477585286e-02
      -3.8750150385626226e-03 -8.8226734506494549e-03
      1.6233494210318646e-04 2.0684842027805964e-02
      -1.3033871820279155e-01 -2.6821341500107366e-03
      9.2715013626839789e-04 -5.4128337893825050e-04
      -8.2951716964610553e-02 1.7244365843127418e-03
      2.4461770535542417e-03 -7.9595483946237188e-04
      -5.0203381068176904e-04 3.0398341947644272e-03
      -6.1301682376576433e-02 2.4136497151664802e-03
      -7.4389165365254195e-02 -8.9469939611050445e-02
      -6.1821456784649155e-02 3.3108726136480846e-02
      -1.3941323051082588e-01 -7.0254691694228411e-04
      -1.6262547799587058e-03 9.6907372314670353e-04
      1.7757274855864534e-03 -1.2713444916860684e-02
      5.9773034592332545e-03 1.6546222172330993e-02
      -6.1541812926442972e-02 -1.9058684061458116e-02
      1.1791596499111691e-01 1.8207298009488761e-02
      -9.4757584213975461e-04 1.7396889893613831e-03
      1.3607685569820110e-04 8.4302935701836129e-04
      -6.5316403658960904e-03 -3.3768922129823804e-02
      -1.1784342640012335e-03 -5.1343862353092152e-04
      1.3755258469233640e-03 -1.0905060756984337e-02
      8.2487586177668933e-03 -2.0497736605622962e-03
      9.7678478784939148e-04 -1.1628456083825987e-01
      3.2248259531982097e-04 -4.3513341668521860e-02
      1.3352944018596641e-01 3.6992191774768160e-02
      4.6558484108993816e-04 -9.7966115393424529e-04
      1.0615220390653001e-03 -6.0675565706141271e-02
      1.4968610091490406e-03 1.0080711409467635e-03
      -1.1360064408567571e-04 1.7515559856899788e-03
      -3.8829736632566593e-03 -6.4312255156437359e-04
      -2.6451338576843125e-03 -7.4604288131121946e-04
      9.7475612035380636e-04 -3.3784377195923136e-02
      -3.9860162277207969e-02 -2.0064442573150551e-03
      -2.2026757486766513e-03 -7.2010661650991889e-02
      -4.2669552159366230e-03 -2.7772367786701234e-03
      1.1821444374153680e-03 3.8136042781342909e-02
      1.2536629413513603e-01 2.7436455029217770e-03
      2.1845308480822914e-02 -5.4176335990129172e-03
      5.7246025377653451e-04 9.5528064076852505e-05
      -5.8252185869148127e-05 -2.1217667697564276e-03
      2.2077587832734870e-02 -3.3708394547901296e-03
      -1.3239816083256855e-03 8.1440961404950302e-02
      1.6000308330115443e-02 1.8196645144050689e-02
      -6.1292015994803217e-02 -1.2849079702209344e-02
      1.4392147531036578e-01 -4.5764045146959066e-02
      -9.7239726395058747e-04 1.1276614704110724e-03
      1.7663792571952718e-03 1.3282262645672088e-01
      3.0261364489826484e-03 6.3790050876383724e-05
      -2.1524064444283101e-03 -2.0722491789279618e-03
      -3.8737670498122270e-03 4.7015832469144800e-02
      4.0325980549096030e-02 4.8066879321115058e-02
      2.2073060988074912e-02 4.4181630391008087e-03
      4.6847666858777781e-02 2.2108474744506255e-04
      -4.2945694096897444e-04 -2.5387464831680355e-02
      9.8641560611627155e-02 1.5592179880546057e-03
      2.8176633584379813e-03 4.7947737344329930e-02
      -1.2436572353494285e-03 -4.6674330641273416e-02
      -3.6681897931347424e-03 -3.0564978208567101e-02
      2.3781014025456714e-03 1.9208833718938048e-03
      -2.8016866610991770e-03 -1.5134919361040639e-02
      -2.6120768192335886e-03 -1.5692168791202276e-03
      -2.0199043364505288e-03 -1.1012630361403608e-03
      -3.4205930664971400e-04 8.8448294679593489e-02
      1.6180573311361912e-02 9.2863457951266035e-02
      -4.0284713925391753e-03 5.8613495269721977e-03
      2.3907670781678973e-03 1.0746668387133654e-01
      -1.1841062170799203e-01 -1.9898095531243162e-03
      -2.6926235375322044e-03 1.8991885015134033e-03
      -4.4683841367462167e-02 -2.1664983419620604e-03
      1.1132087407132716e-03 -3.6011278164109316e-04
      -5.0332912120630796e-04 1.8470229283675922e-03
      -7.0926637543674620e-02 1.7213380748969593e-03
      -7.7146244268946243e-02 -1.6363260994962911e-01
      1.3238962932924841e-02 3.2678444730637933e-02
      -1.1591402391833833e-01 -2.9988000529880252e-03
      1.1073010473624560e-03 1.4424771910971049e-03
      9.1068854879632869e-04 8.3234353225572863e-02
      -2.6050519407632773e-03 -4.6199033976192926e-02
      -1.4161411318808348e-01 1.7271156295164739e-02
      8.9473438409075665e-02 3.0522918282668940e-02
      -1.6281175285823510e-03 -1.0439909200886321e-03
      2.8269880404711389e-03 6.2148414920246370e-04
      4.0275140187545795e-04 1.0501968261867001e-02
      -1.3062033587687059e-03 -4.6514562418860036e-04
      -1.4560096504018006e-03 -2.8275785364222070e-02
      -2.0400821010239660e-03 -7.2734435762450444e-04
      1.2545819305010265e-03 4.4985561848747017e-02
      3.7690070696407367e-05 1.9972030895161107e-02
      1.3961056121289464e-01 2.4451337765451553e-02
      -2.9508931118880585e-04 -2.8272842683202629e-03
      9.2512809350338971e-05 -2.5708426588439571e-02
      -4.0828554752499824e-03 -1.7404586758455567e-03
      2.7397188724877035e-03 -2.1967103598527597e-03
      1.2907090448008131e-03 5.8206373571788111e-04
      -2.2857909160149165e-03 -2.0710606666786291e-04
      -1.0981007699194911e-04 -2.3298368923784726e-02
      -7.4863683788126217e-02 1.0647276979838169e-03
      9.0923037907230829e-04 8.8787820638669863e-03
      3.1748959626410875e-02 -1.1616691525488437e-03
      1.5207615415416397e-03 2.3859838482078267e-02
      4.7555636862492423e-02 3.3100552362521261e-03
      -5.5023709649017569e-03 3.6167258643011832e-02
      -7.9370505511745695e-04 -3.7583751008202177e-04
      -1.9076780131598420e-03 -3.0039816696707432e-02
      -3.2634572554515189e-03 -1.4990345378287253e-03
      1.5268777380471771e-04 9.6590412249383417e-02
      3.4906018990804560e-02 7.8087422104653109e-02
      -5.9116597576895302e-02 -3.2253736740209461e-02
      1.7252877775876710e-01 -6.7789212024110812e-02
      6.5987180104784310e-04 1.5026607722525018e-03
      -2.4965222879834736e-03 8.0154230101320820e-02
      -5.1005388610663978e-03 -1.1417796968488843e-03
      1.6984539067480247e-03 9.6721978621837606e-04
      4.7997464613938168e-02 -6.6939084082077688e-02
      -2.5765777381022766e-02 -1.1582863443826714e-01
      -1.6108689321486508e-01 9.7474545057002510e-02
      2.8568409694699457e-02 -9.1456977355256028e-04
      -1.1329696554411245e-03 7.3558294337426416e-02
      -2.2060008242850988e-02 1.2014904399572153e-03
      -2.6745476723421106e-03 6.0449343203158090e-02
      -5.3629844233900770e-04 2.1150744312786667e-02
      -2.2654147275296553e-03 3.5666512157004567e-02
      5.0282083187759225e-03 -6.0825170195519355e-03
      -3.0804386676079837e-04 -1.1482168344909820e-02
      1.8943994221725071e-05 -6.1244001961706037e-04
      4.8787348289296265e-04 2.0339184923689481e-03
      7.5252618236988189e-04 5.3897494353495168e-02
      5.1775017587714599e-02 -7.1662212872684067e-02
      -6.7871886748989635e-04 3.9052114654150337e-02
      3.7789899260073223e-04 9.7599534345152991e-02
      1.2338445223114664e-03 -3.7343382988719457e-03
      1.0013175083316277e-03 -1.0370226146563105e-03
      -9.2189056757694371e-02 -3.9935061452332185e-04
      -5.7651884399227118e-04 5.9152679779830505e-04
      -2.5123810804430157e-03 1.5173812298648779e-03
      -6.4538893137763884e-02 2.1256954334455554e-03
      -1.0236396148279454e-01 -9.1885290619023480e-02
      2.7432069183967859e-03 -4.0980602792726915e-03
      3.8280251904498290e-02 -2.2050161767427005e-03
      5.2609804114086124e-04 2.7442147036943966e-03
      1.2317683601993307e-03 3.0461864194502548e-02
      7.2361693536286201e-02 -2.2501147260639721e-02
      6.5558265123870059e-04 3.2361256159380611e-02
      -8.5059778606592737e-02 4.4328391929078177e-02
      1.8263472970798508e-03 -8.7842904236086841e-04
      2.8471643243941397e-03 1.4354034686377402e-03
      2.8193527995842571e-02 2.7851989999087865e-02
      2.5963556390094242e-03 -9.3919019340667643e-04
      1.7101581213222103e-03 -2.4705587195083213e-03
      -9.1189062464668208e-02 2.3924622752078723e-03
      -9.2924829438389446e-04 -9.6884786769887515e-02
      9.5703729495861669e-05 -2.8707844709403314e-02
      4.0612291055598425e-03 -1.6294386148587230e-02
      -1.4601586393965368e-03 -1.4383055266747730e-03
      2.6670110609950497e-03 -7.8609947225313254e-02
      -2.1824809984786731e-03 1.0737467678513062e-03
      -3.3750066637179782e-06 -1.3597680816305230e-03
      -1.8954999614383427e-03 8.9588472795476028e-04
      1.5914024962352304e-03 2.5199977750136045e-03
      -7.0704159425229046e-05 4.0124518842733173e-02
      3.5084480462379886e-03 2.9646418376809143e-03
      5.2043335133589990e-05 1.2574033270120761e-02
      -7.6545040040388326e-02 1.0965479212256110e-03
      -1.3169192728695430e-04 -9.0726536683498754e-03
      4.9785184349588979e-02 -1.0245819793532960e-03
      -1.6099945460562502e-02 -3.1301940897863610e-02
      2.6016145247438780e-03 -2.5628927283424829e-04
      -1.5750859989891448e-03 5.5684479554089929e-02
      1.4192284464189358e-02 3.2891996995788235e-04
      -1.1506344158438162e-03 8.4329350927548175e-02
      -1.6054684809428937e-02 3.8300389686751278e-02
      -8.4730992564657284e-02 1.5949908197442724e-02
      7.2954982798413712e-02 2.1905807122497591e-02
      1.9942700077332852e-03 -1.5274223634632008e-03
      1.6118399913430130e-03 3.0651062257179500e-02
      -1.5368109441863877e-02 3.7771526017349655e-04
      -1.6863182841565598e-03 -1.2926373784856219e-03
      -1.3372215926542350e-02 1.0424108132621832e-02
      -1.2024275691397917e-02 -4.0783406076586697e-02
      2.0611187128065499e-02 1.5154596692960711e-02
      1.2110910091161574e-02 -2.3185079413359511e-03
      4.7237271673242182e-04 -4.3006364395453557e-02
      5.9759958871544692e-02 -6.3477603186437863e-04
      1.0183540706959389e-03 3.0116066163541216e-02
      2.3940704665825672e-03 -8.6660599962567808e-02
      1.8763161257223909e-03 -4.0661877521166116e-02
      -2.8049235560579828e-02 -7.5469066215780416e-03
      -1.4223139448018495e-03 -1.4369646941123191e-02
      1.2977931843827495e-03 -1.9422759470791894e-03
      -4.7382353851875238e-04 -7.8278980785930017e-04
      -6.7867663097195754e-04 6.4244731488546439e-02
      7.3599902895826116e-02 -8.0745725579442540e-02
      1.1665101530338544e-04 5.9853070606634071e-02
      3.8541543138218941e-03 1.4423247737526035e-01
      -2.5363564554535284e-02 8.5814245777574439e-04
      -2.5936791304843014e-04 7.2647239567969911e-04
      -1.2735879397475725e-01 -2.7814982378701150e-03
      -1.3093004828096901e-04 1.7831360851104318e-03
      -1.5301073665685537e-03 9.2628327281830752e-04
      -4.9082837582965708e-02 -9.4409261079256724e-04
      3.0328011321885999e-02 -6.8607729797749165e-02
      -2.9939056629147708e-02 -3.9899462414853266e-02
      1.0673771059107832e-02 1.1528887059059653e-03
      -9.4626990573897396e-04 -7.3426312904412399e-04
      1.8789649876463580e-03 -1.5274658444119308e-03
      5.7507800520656426e-02 -3.1016020493287923e-02
      -7.6857842369308565e-02 4.4868145986377589e-02
      1.5093374681944782e-01 7.9139013947640613e-02
      1.6160244638238515e-03 -6.3189702329820654e-04
      -5.8000465672036479e-04 1.0760401333447509e-03
      -3.9993571846370028e-02 7.1088350572662135e-02
      1.0748140584932219e-03 -1.8086376754758279e-03
      1.7947177575580156e-03 -8.9093482494189968e-03
      -2.2273485678374179e-02 -1.4889078673252951e-04
      1.8687933651613602e-03 -9.4080344297644090e-03
      -8.0882306026868194e-04 5.0830646942079158e-02
      -6.5096801365474828e-03 -8.8291125948202459e-02
      1.1673161128678046e-03 8.7515019278106053e-04
      4.0091158308707391e-03 -3.0426604736770457e-02
      -1.7730536878164361e-03 -1.8044124357869359e-03
      3.8794413652115970e-03 1.7501092415424216e-03
      -1.0175259217101692e-02 -1.7179829788290550e-03
      -2.9341846897652257e-03 -1.3642155766483359e-03
      1.4848864538887958e-03 4.3877015895331495e-02
      -6.0415165732809889e-03 1.6950389340000150e-03
      2.4050686144405319e-04 -4.0248467676747078e-02
      -1.1850316766899622e-02 3.1302931563621165e-04
      -3.4622492832529135e-03 3.3471196142554192e-02
      1.8954002460910991e-02 1.2156572577926375e-03
      8.7219287989061728e-02 -3.3154822322720587e-02
      8.6509844708101470e-04 2.4369213865451013e-04
      2.0888957249307919e-03 3.9301329921710053e-03
      -7.2689993399180169e-02 -4.4326910964752812e-05
      -9.0477761851990200e-06 5.1819005880809316e-02
      1.0604126892521508e-02 -7.4420999349512268e-02
      -5.5628118071232753e-02 3.7580384334718608e-02
      1.3076785103362795e-01 -5.8479404863056045e-03
      -2.7875749803488684e-06 -5.8140846017817112e-04
      -3.1017579778179695e-03 1.2274694950542145e-01
      -1.6543993541701239e-02 1.6825401063853191e-03
      6.9252964958599025e-04 -4.7461680191111067e-04
      7.9258408273146699e-03 1.0926537084213374e-02
      -1.9912300511452392e-03 -6.7289143106348613e-04
      -6.5368711609935681e-02 6.5826184839104795e-02
      1.5731668544931153e-02 1.7407468327539819e-03
      2.5740688324597926e-03 3.6742693092145000e-02
      -1.5482622499967916e-02 2.0265440805326573e-03
      -1.4713135415775776e-03 7.9785864416876989e-02
      -1.6487462444757951e-03 7.4558239779438026e-02
      -4.4481623458381706e-04 5.5034166299751386e-02
      6.7991896062051735e-02 -1.1007610888542690e-02
      -2.1349473427217766e-03 -9.5501761127036473e-03
      -1.5215079715140117e-03 6.8054967728506410e-04
      2.0612912841274942e-04 2.6781542853229678e-03
      1.4962902713256468e-03 7.0634559151499215e-02
      8.8666010447351201e-02 8.4891218344160316e-03
      -9.1307157940257095e-04 1.3043657949212198e-01
      -1.8354899201779590e-03 6.6754762295662346e-03
      -1.0079474948170082e-02 -2.6355084057853306e-03
      -1.4815714754978463e-03 -3.3495261700973477e-04
      -1.1303763911258628e-01 -2.7653788421673252e-03
      -2.0619813353874154e-03 1.8253626917730727e-03
      1.6755532928947861e-03 -5.5436545799981128e-04
      -3.4239292008060529e-02 -7.9589818242755073e-05
      -1.4912768211032018e-02 1.3865895799725135e-02
      8.9171347265785197e-02 7.9941308184325030e-02
      -3.2588068094789448e-03 5.1811802863198865e-05
      -1.2996617642728630e-03 -2.1562857522074881e-03
      -1.0251729018194670e-03 -2.2898645472466100e-02
      6.7096894377893401e-02 5.3772432663347608e-02
      3.1420490764845085e-02 -3.7887616960743206e-02
      -5.0163004900063424e-02 -1.0266417964595908e-02
      2.7849606349720467e-03 3.3804517838247525e-03
      2.2436537381274060e-03 1.7376397498510741e-03
      -8.8334545959664348e-02 5.3646997105786598e-03
      2.6010878318452890e-03 -5.1144982037644611e-04
      -3.4429325249267089e-04 -5.9876954830231244e-03
      -4.6898607094906369e-02 2.1503473334173635e-03
      -2.4100384284918073e-03 4.8651398885981779e-02
      -1.0721093133198118e-03 -9.2234372814021604e-04
      -1.6184374769970745e-02 -7.3676517382018358e-02
      -6.3455238328415412e-04 1.1624832981289219e-03
      -2.4649373174486038e-03 -3.3112511194802727e-02
      -2.4737328662465777e-03 1.0524914243469579e-04
      -9.0726943988924787e-05 -2.7056040487781841e-03
      -8.0829566192877605e-03 6.2462100185943742e-04
      -1.8604678698025668e-03 1.8265006807089315e-03
      -1.3040089192569444e-03 2.6788872255352644e-02
      1.0301704030746915e-01 1.3204770453187956e-03
      -1.3734254724477991e-03 -2.4874385252931546e-02
      -1.5007998246555158e-02 -1.1698019884532160e-03
      -3.7635283547113392e-03 1.6059988027155751e-02
      1.8865218386870052e-03 -3.8584584195444220e-04
      -3.1214188094522161e-02 -1.4214314599637906e-02
      2.2928987833607159e-03 -8.1880765837412622e-04
      1.8575143286256885e-03 5.4713612163997949e-04
      -1.0820044323340147e-02 -3.2371795742152049e-04
      -3.1079851545363930e-03 -4.7174632128757960e-04
      -5.4177656392470540e-02 -4.1706269163032016e-02
      -4.2676664611320893e-02 1.1089821585136892e-02
      5.5611644076980792e-02 8.9535173763112152e-02
      -1.8895988999793859e-03 1.3230495504522723e-03
      -1.3819492094214510e-03 2.7934542230846457e-03
      -1.5699114520197011e-02 -4.3981889753736696e-05
      -2.6480106153966513e-03 -4.7365114196321620e-04
      -4.2545235551471730e-02 -3.2966997414326082e-03
      -6.3782616401811040e-03 2.4379521179070964e-02
      6.0783767840329088e-03 6.7361667124490765e-02
      1.2901606769646452e-02 -2.7425739799353446e-03
      1.1581793198616370e-03 -2.5679293568388526e-02
      4.0613220486660107e-02 1.4712963421547353e-03
      -9.4027015551297651e-04 5.5005107369057574e-02
      -5.2388071662078670e-05 2.3872681001719919e-02
      9.9173977801100214e-04 2.8139111643317356e-02
      1.5882629863120681e-03 -4.1306740856745568e-03
      -1.2846450392568526e-03 -7.6758731771374858e-03
      -2.1072293826851851e-03 -6.6260256584638264e-04
      3.6674316175710694e-04 7.9718312756373163e-04
      1.7554682050220012e-04 5.6477268022924507e-02
      3.5031650568378231e-02 6.4375076172509371e-02
      -1.0178266996684574e-03 1.6829319575098468e-02
      -1.9774569431310583e-03 -2.2777787621417814e-02
      -8.8005300760781904e-02 1.2465239245760328e-04
      9.9582936799397508e-04 -2.1135810052361646e-03
      -7.9784976031687965e-02 -1.8490038531148822e-03
      -2.0056156643500638e-03 4.8794465080316616e-04
      4.5722876862375515e-04 2.3371360731719096e-03
      -3.0251564517091087e-02 -6.5071058568720607e-04
      -1.3430294258696487e-02 1.1048103163995682e-02
      8.0636029773770865e-02 6.2398020037601705e-02
      -4.7025520771316241e-02 2.0903595154877844e-03
      -7.7964615492822460e-04 2.0287869417190225e-03
      1.9141155415723573e-04 -3.5325446488523773e-02
      3.7322985122173316e-02 -3.2158853810326571e-02
      -3.2341975363494639e-02 -1.0394137698986413e-02
      6.0028872619507220e-02 -1.9290982328005347e-02
      -8.0444404637616785e-04 -5.3973310569895895e-04
      -1.2256435971070784e-03 7.7712721733707538e-04
      -6.7784763309054974e-02 -6.5264440286101769e-03
      -1.1200718158607915e-03 2.2713222732872297e-03
      4.6250777988658296e-04 9.1354719921584952e-03
      -5.1795749387318978e-02 -2.1314091890013921e-03
      2.0670084387085608e-03 4.4272063647095829e-02
      -5.2055223880035652e-04 1.7877613157436082e-02
      -2.8288279926402468e-02 -4.4423011107355123e-02
      -2.2328876773878794e-05 -2.7703518882449246e-03
      1.0214083458595356e-03 4.1693848536806043e-02
      1.2258596622086852e-03 -1.6558460970976063e-03
      1.7180062222108010e-03 -2.1519818501741744e-03
      -1.5391001446190926e-02 -1.8563826300947899e-03
      1.3802152438618660e-03 -2.2437576971809088e-03
      2.0109363492417701e-03 2.3925040486665419e-03
      8.8567854816154271e-02 7.9987388130872391e-04
      1.3132175623316162e-03 -1.0130497593846394e-02
      2.1044682033104613e-03 8.7920233633017919e-05
      1.2911317877370462e-03 2.3027102716195923e-02
      8.7671492265096074e-02 7.5937994731914340e-04
      6.1370885011393532e-02 4.6788954604031659e-03
      -7.7811137929383110e-04 -2.3929729804052021e-03
      2.4437813782209545e-03 -5.4308892622444711e-02
      2.2980695467610560e-02 2.2545669696950139e-04
      -2.8829507124857257e-04 -3.8038282585606049e-02
      -2.0060441141364939e-02 -2.9990272931372228e-02
      -4.0098561909137229e-02 -1.1911027275679111e-02
      1.4360125336724773e-02 3.8605749084559667e-02
      1.2712348424475590e-03 5.9171879418082969e-04
      1.4985467026763619e-03 -3.7814297461543731e-02
      -2.7158494775196058e-02 -1.4557046783650258e-03
      -2.3486208397255140e-03 -8.3346346600435956e-04
      -3.5139849380687607e-02 -3.1474292122733759e-04
      4.7388853385899793e-02 -1.5144218539288596e-02
      1.9227671257780906e-02 1.5635077678248571e-01
      9.2084954847667126e-04 -1.5127631456709142e-03
      -1.4643203625112576e-03 -7.6397740497403804e-02
      1.6391964738928101e-02 5.8239878079128365e-04
      1.4521137219295520e-03 -7.0189172361312599e-03
      2.5835968996539816e-03 -2.5591380163193917e-02
      7.7241874954792761e-04 8.0116956027741867e-02
      -8.4166487162196837e-02 -5.7890351113205757e-03
      -1.7856498566857872e-03 -1.5697935976380827e-02
      -6.4049239997290971e-05 -8.8063098380987154e-05
      9.9832737923225131e-04 -1.5817177348165076e-03
      -2.2569865744944317e-04 7.2261498372384403e-04
      3.6004210619882175e-02 7.4442566830320370e-02
      -2.5567913514021592e-03 -7.5507257852883425e-02
      -2.4399105738688700e-03 -3.2921694960837439e-02
      -1.1962836254246016e-01 -4.2860867506332927e-04
      -8.4524705759414032e-04 7.2036502123603479e-05
      3.8529418570229956e-02 -6.4100404017074404e-04
      1.2923814882207700e-04 -1.2007287823578379e-03
      -3.7661172657533468e-04 2.1893726922559984e-03
      -3.0020800107764211e-02 2.9707355535007712e-03
      -4.3231339930756466e-02 -1.5727719054575653e-01
      7.8970250890621596e-02 2.0114295866679500e-02
      -1.1592805883749241e-01 -3.3850987203985831e-04
      3.0853304784221134e-03 -3.0154288786995321e-03
      1.1288025731847045e-03 -4.5640416743105150e-02
      1.0788015204409501e-02 -8.4095122510743373e-02
      -3.3955177786023930e-02 3.9307750936662757e-02
      -7.0570965315708530e-03 4.5917251902157230e-03
      -1.1689239584896374e-03 1.4869921936996853e-03
      2.7556087850348883e-03 9.2141576536996790e-04
      -1.2886775504522735e-01 1.7349662811485870e-02
      -1.5109036881454305e-03 1.4727679916799886e-03
      -8.6897063647757881e-04 1.3852400957804899e-02
      -5.7127161564189399e-02 9.1569340346168157e-04
      1.5131348092051941e-03 -2.1608514331193450e-02
      -6.7449558389259850e-05 3.3263272550831933e-03
      2.1042801122334451e-02 -5.9847743015883645e-03
      -1.1763308972356982e-03 -8.2483203495982351e-04
      -1.1573966461437433e-03 8.6278344878038385e-02
      3.4449043710579560e-04 -2.4088722817037448e-03
      -1.1049452357752715e-03 -1.1420375595993243e-04
      -1.3747205007820847e-02 -1.4902036106996077e-03
      -3.0834810813942424e-04 1.5943408047129288e-03
      -1.1777685339034233e-03 -2.3790867516203983e-02
      3.5601943373783210e-02 1.2708235331785390e-03
      -2.2621235885494340e-03 8.6749905340980618e-04
      -1.7353562390123117e-02 8.3293319312591468e-04
      -2.7101686437055946e-04 -5.1015158712382928e-02
      1.0977499653615566e-01 2.8296069417841968e-03
      1.1932641544997098e-01 4.5371650185777580e-02
      2.4284464081462832e-03 -7.2827560183237367e-04
      -1.5110955555990792e-03 -3.0370149770081487e-02
      -4.1497846168129737e-02 -1.7934774375094071e-03
      -9.6090567658991361e-04 1.5370098883698478e-02
      4.7489234178422733e-02 8.8200720536352806e-02
      -4.0444363163312574e-03 -2.8878941645866019e-02
      -1.8225818875170236e-02 -1.9352371353016133e-04
      -2.3924421018469812e-03 -1.1776270055333681e-03
      1.9948667809538551e-03 -2.6288792404768759e-02
      -2.9350897552196331e-02 -1.7748682930816262e-05
      -1.5494268995987076e-03 -3.5983615192648247e-03
      -4.9627108910992805e-02 -7.0542775661200263e-02
      4.5802837812835964e-02 -1.3093546738946145e-02
      -2.0586502059571431e-02 -2.5853109809277828e-02
      -2.1170518665514903e-02 2.9461479382977861e-04
      1.9891367483574982e-03 5.0972844869544134e-02
      -4.4080138966029900e-02 -1.0432070154102442e-03
      1.4090816965421180e-03 3.5429085407263541e-02
      -1.6879300749622116e-03 -7.0020897137101468e-02
      -5.8059348685232084e-04 1.5117611274483747e-01
      -2.6699014427051668e-02 -8.3884034898815719e-03
      -3.1126499313287948e-03 -1.9247440219278662e-02
      -3.2082791123117672e-03 -8.7454872515847510e-04
      -2.3156277679387575e-03 1.3907903072800122e-03
      7.4173205872344748e-04 8.9146151263052503e-02
      2.4442217915886581e-02 5.7215026806162805e-02
      -8.0000833177440304e-04 -2.0060258523631323e-02
      -7.4206581893841597e-04 -1.3541445420849962e-01
      -1.0254882827576614e-01 -2.1642467584243263e-03
      3.4025575158129198e-03 9.5768666543169945e-04
      1.6073592669457382e-01 -1.9781415849431166e-03
      2.6407172330370917e-03 -2.3444076591426816e-03
      1.6025577953886262e-03 -5.9160787517733790e-04
      -3.7847495953784734e-02 -2.2004414773218006e-03
      -1.2707772041355389e-02 -2.0791460751855817e-01
      7.1380305230541147e-02 5.8070261271200498e-02
      -2.0787700593974695e-01 -2.3094286541473458e-03
      1.1780942679222087e-03 1.3530889204956356e-04
      -2.0453252179335074e-03 -8.6175051366670599e-02
      1.0866516468992643e-02 -7.4063154599474101e-02
      -9.0876403712694509e-02 1.0013387329711571e-01
      -7.9233777434659924e-02 -1.1993125808980093e-03
      1.6239695327278106e-04 3.7074453570644108e-03
      3.0836998433899235e-03 -7.7142564555339845e-04
      -9.3757563516415177e-02 -6.6731206842305085e-03
      1.1658708636315416e-03 1.8124003858534618e-03
      -7.8053810771395950e-04 -1.4439886859967528e-02
      -1.2619295559377061e-01 5.7020589844633063e-04
      -1.1862775490960100e-04 -3.5410215006440801e-02
      -2.8207306869958821e-03 3.0963984127185904e-02
      7.9808772810375916e-03 6.0023154417468111e-02
      1.8714840691100491e-03 -2.4233325369740107e-03
      1.1483102405663880e-03 4.0002922840087649e-02
      1.3183366040541786e-04 1.8743457474612135e-03
      1.5943525932613091e-03 -1.5950491613099310e-03
      -4.2148173578146955e-03 -1.9464359328572854e-03
      -2.2281308215971129e-03 -2.7421592715041413e-03
      2.1156028917204642e-03 -3.2742708577947950e-03
      -1.7746050326982038e-03 2.1435473642286238e-03
      -9.4120003236417764e-04 4.2638973460607618e-02
      -2.0005072102887125e-02 -1.5614513855834499e-03
      -3.1436047821997622e-04 -9.0437988069387396e-02
      2.4445414699660800e-02 4.4934083037588389e-04
      2.9525575470574602e-02 1.0616555916466686e-01
      -1.4033640551506066e-03 -8.9925663442605983e-04
      -8.9583403424466600e-04 -1.0762055539770292e-01
      -1.2734798412964085e-01 1.6415952666143409e-03
      -2.9461558342723580e-03 7.5005746082782987e-02
      1.8222450741477377e-02 2.0937448784818069e-01
      4.2091478656576170e-02 -2.7793346464296941e-02
      -1.0766266893074615e-01 -3.2790758964190092e-02
      -9.0609008504995028e-04 1.3650890144325512e-03
      -9.6511783089944510e-04 -1.1610260662993392e-01
      -2.1046956207861484e-02 1.2182497620224261e-03
      5.6485632134407665e-04 -1.7258807370113640e-03
      3.7614654971058026e-03 -2.1038361324489240e-02
      7.9533238018478364e-02 -8.6832974376478050e-02
      -2.7393733990550253e-02 -6.2874576124596973e-02
      3.2397824696782145e-02 -1.0272191335923765e-03
      1.3649586116490495e-05 1.4140932630730296e-01
      -7.9025293478141759e-02 -2.1579404888674245e-03
      -1.2773604467132557e-03 -3.6900229703318039e-03
      -1.6551728116526567e-03 5.2222511747985936e-02
      1.2779433798885012e-03 2.8693557734115999e-02
      6.3026300403222707e-03 -1.9134551304956376e-02
      -1.2465212457909137e-03 -1.0053094992416745e-02
      -1.9982870227201310e-03 -2.5462902062205243e-03
      1.9455761080057407e-03 -4.7433617663502714e-04
      -5.9440439765379594e-04 -4.7147361621208500e-02
      3.9589400477316088e-03 -2.1521230651146670e-02
      1.8376771127683138e-03 -1.3093016369701026e-02
      1.3552025954598290e-03 -1.5661136280386087e-01
      -1.0433398480046564e-01 -4.6222266568855146e-04
      -1.1549248872131897e-04 -2.9693295842324213e-03
      2.4468152495107889e-01 -3.5718659992804822e-04
      2.0989829065056580e-03 1.2173195591086202e-03
      4.6939411040167639e-04 -6.2233638048701822e-04
      -2.6136488809286755e-02 -1.7194694556268138e-03
      -4.2414684741688517e-02 -6.1413333295447736e-02
      -1.6614116768219445e-02 -5.2235944321704017e-02
      -1.2493616931377351e-01 4.8033127781351505e-05
      -8.8511919013383161e-04 -1.9607082245870046e-03
      1.9462355753125720e-03 -2.2961917977220393e-02
      1.1704102643334344e-01 7.3560206242994808e-02
      4.7327254123038912e-02 7.4215588329082149e-02
      -8.5760103648724884e-02 3.5747554950728830e-02
      -9.8509414152558785e-04 2.7961793877843391e-03
      -1.4341652783106278e-03 -2.3912699163829566e-03
      -1.3942412580075184e-01 1.3783489392468894e-03
      -5.4207757474517156e-04 9.0805132646030692e-04
      -9.1725032302049153e-04 -8.8614385248531949e-03
      -8.9477603072386919e-02 6.0818971319956069e-04
      -1.1506137073007043e-03 4.5228354907413400e-02
      -2.1631483646570890e-03 8.3172714717915264e-02
      7.7495869036760118e-02 5.4214007727178132e-02
      3.2971985339824571e-03 -1.2336222494444716e-03
      -1.3571622904152974e-03 2.4197218266965772e-02
      -4.4950712787485288e-04 -1.2746350156666224e-03
      2.3663079647614528e-03 -1.7019628803721782e-03
      5.5333337070827705e-03 -7.6093268024259736e-04
      -1.3193395841883183e-03 1.3352413794975062e-03
      2.4149995020798696e-03 -3.1837679094413165e-02
      -7.0291310092730583e-02 2.7894012623753679e-04
      3.7606954251552711e-04 1.8899411931825372e-02
      -7.1152350731618824e-02 -2.4522204251126900e-03
      -2.7184184064512631e-03 -4.2836991948589911e-03
      5.7156075612332371e-03 -1.0136914559948642e-03
      2.3608490257454311e-02 -2.2750901018716071e-03
      -1.3680942388270428e-03 -6.3448675782973231e-04
      2.5238209473844265e-03 -5.8150683876143860e-02
      -3.8982393608647282e-02 -1.3556372033146562e-03
      -3.2830665633925654e-04 2.6378741947463173e-03
      1.0273523120694145e-02 9.1882870841140912e-02
      1.0164327047416552e-01 -1.0564203090976804e-02
      -1.1694574376423118e-02 4.4555075739945896e-02
      -1.6492713118176981e-03 -8.2507979621388708e-04
      1.3246994948034343e-03 1.0332705588196312e-02
      -1.6105521664729634e-02 1.0282654210665599e-03
      4.0789988857790730e-04 1.8877053054658490e-03
      -4.4040775526127673e-02 6.9542175025520653e-02
      1.3674521007628077e-01 -5.0402305777086515e-02
      2.0348055923103077e-02 4.8150242760288606e-02
      1.8743074674561076e-02 -8.7592581457312027e-04
      2.4656492916068874e-03 4.9326424803471061e-02
      -5.7092473901177630e-02 6.4199030785162705e-04
      1.0290144059972577e-03 -1.5184832554643587e-02
      -1.7756946770841485e-03 6.0016904318272751e-02
      4.0920276079617780e-04 7.8921677236634499e-02
      -3.1825800708971265e-02 -1.7650335186472629e-02
      -1.6086345420352128e-04 -4.0334764725507783e-03
      1.3491854783378274e-03 -2.2570146249108587e-04
      4.0147708714168737e-07 -2.3384280947691591e-03
      1.5072074239789518e-03 -7.5157866454273636e-02
      -1.6830888116262193e-02 -1.1715584672792831e-02
      1.3489386462668851e-03 -2.1750874168038312e-02
      -2.6683098041798071e-04 -1.2358224358529946e-01
      -1.6985980799508851e-01 -3.6208008225605687e-03
      1.5060891817245219e-03 9.0534465634809456e-04
      6.7999405633387064e-02 -4.4456318378631610e-03
      -1.4813299285515501e-04 -6.8669102777304104e-04
      -5.0977113026350919e-04 1.5952832497972565e-03
      -3.7558007668565874e-02 1.5814025414636064e-03
      -1.7888055539580061e-02 -2.5782699444578817e-02
      -2.2416981484206421e-02 -2.3338075087562787e-02
      -1.5278452824800470e-01 7.3707001186224690e-04
      -1.0850721403092916e-03 2.3418109040369110e-03
      -8.7596267449566276e-04 1.1146564517226634e-01
      6.6619377404675884e-02 1.6723420349386269e-02
      5.1961579335663859e-02 -1.1449015980723962e-02
      -4.5049126233798385e-02 3.9911792393684066e-02
      5.1671965438485979e-04 7.7637587494107548e-04
      1.0164957316134771e-03 1.6805451883658467e-03
      -8.1941055886449163e-02 -2.4552404638924406e-02
      1.4690001539373828e-04 -1.2826769061733403e-03
      1.5700119755060612e-03 1.2770862952257680e-02
      -1.1780356982412399e-01 9.9068404542586481e-04
      -1.8692260005213641e-03 2.8968516896433528e-02
      -2.0670867545582059e-03 5.1660824962038644e-02
      3.4564145883127222e-02 3.5163276855914950e-02
      2.7100174645828972e-03 -9.3994580785656948e-04
      1.0811228316637306e-03 3.2249762966913127e-02
      9.0968377039407644e-04 -9.9647022339205502e-04
      1.7789354668945945e-03 8.8448509326649214e-04
      6.0575620141127265e-03 -1.8378076926627654e-03
      -2.9257500138382330e-03 1.0382559873567219e-03
      7.6844471163374994e-04 -2.0750068195846362e-03
      -4.4520639570083849e-03 1.8084704394680572e-03
      4.7283487728252949e-04 2.3259299753094321e-04
      -8.1511771878784139e-02 -1.1231598262717276e-03
      1.2174871998691316e-03 -2.3451367291590385e-02
      1.8275917351979823e-01 -2.0343683998122991e-03
      8.9837992642356437e-02 -1.3012281041070486e-02
      2.1344150707505501e-03 -1.4091851675830265e-04
      1.4044606108649603e-03 8.6581382229070539e-02
      7.5328467051644518e-02 -1.4463952701458892e-03
      -3.2800155264989862e-03 7.2660422869419108e-02
      7.9204400340982875e-03 -4.0809235109481340e-02
      1.7566339718402043e-02 2.4399435195820364e-02
      -7.2527893349992129e-02 5.9473614288307164e-02
      -2.2534215460743379e-03 -1.4122424755824334e-03
      1.4603966650634629e-03 1.2546636429235640e-02
      -9.3673438625743594e-03 -1.7609799150647076e-03
      -3.9892634141645074e-04 -2.5108037849663630e-03
      -7.0683040881292930e-02 3.2178578614292366e-02
      1.1556210402484395e-01 8.9374948486412767e-02
      4.8144709033666848e-02 6.7807958854324710e-02
      3.2780429386704828e-02 -2.7864091540110800e-03
      4.7084722099150134e-04 3.5558858897470186e-03
      2.5160031695427510e-02 -1.5415859798229318e-03
      1.4275593206791249e-03 3.8786849842703607e-02
      7.9114852525549132e-04 -1.5152424670354225e-01
      1.6056186628823764e-03 9.8578491037970520e-02
      -2.1608551642101828e-01 -1.1542900260212423e-02
      -4.1206340048726463e-03 -1.7182264527982613e-03
      1.0213582296762188e-03 8.5440846603087423e-04
      -2.0577848118387382e-03 1.0909494589312874e-03
      -3.6911971852451788e-04 1.6451185989461417e-01
      -4.5783781336394394e-02 2.8894181485722694e-03
      1.6770793636526282e-04 -8.9156299047463278e-02
      -1.5462536288650912e-04 -1.3774887055177654e-01
      -1.3919379629220191e-01 8.6410369277468372e-04
      -1.7980649789203563e-03 2.3243649377397680e-03
      5.0368177519083443e-02 -4.2356845963713455e-03
      1.4709732819528205e-03 -6.1026577887723997e-05
      1.4912955675387798e-03 1.2484656590161364e-03
      -1.9871735825226226e-02 1.1452821885832305e-03
      -1.6623105859339828e-02 -2.6851806388352167e-01
      6.2420783587183344e-02 -2.4195427495130432e-02
      -2.3373525250046320e-01 -7.8194596905406457e-04
      1.1342875779318754e-03 -2.3417147267165931e-03
      -2.1497733417045173e-03 1.1849265132653326e-01
      -3.8081735748293696e-02 -2.9833027399113254e-01
      -1.8436162598792175e-01 -5.8241977227000627e-02
      3.4181619329159481e-02 -2.9220438464742297e-03
      2.1533782545240846e-03 8.9027986557809456e-04
      1.3158857894554070e-03 5.4819695538837554e-04
      2.0948689899173756e-02 -1.0781567863833301e-01
      1.1258076626863792e-03 -8.2325251199268383e-04
      9.2893376915415622e-04 -3.4744911046751146e-03
      -6.4532311018844560e-02 -7.5157309542745864e-04
      -3.4410542233583525e-03 -3.4084318669493303e-02
      -1.0091690571082757e-03 6.3192032362410472e-02
      -3.8593460623459336e-02 1.1821871104988031e-01
      2.0666874697426703e-03 -5.4039534721352471e-03
      2.8819864425770926e-03 -2.6704874456897964e-02
      -5.9278596254258434e-04 8.8594076707076432e-04
      -7.8594170060026591e-04 -1.8588225822317910e-03
      7.9872736109981995e-03 2.8194113889585997e-03
      -6.3342929775162939e-05 -1.9588385252859771e-03
      1.5385792880953416e-03 2.9522596304420969e-02
      -7.0739435658649499e-02 -1.9895299482285684e-03
      3.4591319372718522e-04 -5.9696696403694930e-03
      8.2119918437825568e-02 1.5986876706320079e-04
      -1.2207731273081572e-03 -1.1058190424991281e-01
      -2.7503943406736356e-02 4.3567788735574577e-03
      7.3038743596545525e-02 7.9919201175710552e-02
      2.2361294630389049e-03 -3.5390287344308833e-03
      1.5571294421446698e-03 3.9202706651098873e-02
      5.3445651279276252e-02 -3.1962373341769953e-03
      -3.6730046227637274e-03 2.6787113808034113e-01
      2.2982554438603652e-02 6.8941765454171106e-02
      3.4949719373950798e-02 7.1645346684111239e-02
      -5.8903820168709084e-02 -1.1323348748927563e-01
      -4.4044698430309535e-04 1.4612613259911871e-03
      -7.1134951626807114e-05 -3.5556799934790863e-02
      -4.3171265437602236e-03 1.3700988297802839e-03
      -6.3954021999779599e-04 -1.1318007486849429e-03
      -2.0933878148826721e-02 4.3428523336040657e-02
      2.2257244353720260e-02 -3.5619119747583271e-02
      1.1038487315268622e-02 -1.0183758994912577e-02
      -9.4230886476860832e-03 -5.9017791028762230e-04
      8.5720638706045021e-04 9.2203417173278249e-02
      -2.6012341275769298e-02 -1.9327727047146227e-03
      1.9539223747282431e-03 -7.7515360751327270e-02
      -8.0033964556807465e-04 4.7035491789754573e-02
      -1.1933544423064131e-03 7.8952262511027507e-02
      5.6777529369589769e-02 -1.0073572480880522e-02
      4.9291132881688936e-04 1.3313627268509140e-02
      -2.7309140272967613e-03 -1.7988082516889514e-03
      1.8499321519680743e-03 7.7081795463503867e-05
      2.8324996139156523e-03 -2.6383135766014729e-03
      -7.3917149166373652e-02 2.2064612170070771e-03
      5.1039396413892998e-04 -2.0454925104977564e-02
      -2.1678400073054147e-04 -1.0529267378544828e-01
      -3.7930057905232260e-02 -2.6025358890976874e-03
      -1.0221929887672084e-03 2.8900827814609805e-04
      1.0100735412755130e-01 -4.1581332922172048e-04
      3.0041508647452904e-04 -1.7066884861545444e-03
      -1.3253296088539656e-03 2.8013940199066913e-03
      -2.6533075723489938e-02 -1.0389020785498370e-03
      -4.4426607806889874e-02 -1.7623767694899168e-02
      1.8030763425521993e-03 5.2296992719950537e-02
      8.4640729869472311e-02 6.4321252196936757e-04
      2.0006397746006790e-03 3.3569682866690860e-04
      -6.2837085320643720e-04 -5.7561979523817045e-02
      9.0206624931554336e-03 -2.1066773518243927e-02
      1.9469563381373386e-02 1.7194970690855668e-02
      5.1962724690146053e-02 5.5690720671118573e-03
      6.8462641473335392e-04 6.6535481043566123e-04
      2.5844802478958281e-03 -6.6085155603674687e-04
      -3.6805598283063258e-03 1.7693304712709228e-02
      -9.5345400124686617e-04 -1.9115092767579057e-03
      2.1797568625200507e-03 -2.8713466882935817e-05
      -1.1380212602324406e-01 -8.0422878513596420e-04
      1.1750895372839884e-03 6.4170868148789532e-03
      1.0107318188221160e-03 5.9985776142953293e-02
      -3.6611781701638762e-03 -3.9179331194261147e-02
      1.7709178971705578e-03 -2.9943159393589205e-03
      1.6158900653340811e-03 2.1337283532960671e-02
      1.0997354567282682e-03 1.0803998532760211e-03
      3.5140521553423461e-04 2.8812734461251797e-05
      1.0067756297446221e-02 -3.0083807888129301e-03
      6.4235905498431344e-04 2.1207844442828008e-03
      2.4710937213087469e-04 -7.2902687234819791e-03
      -2.7462025132485770e-02 1.3978950697569098e-03
      -3.3161937664255613e-03 -7.6330556030319080e-03
      -3.9417693022346094e-02 -2.1206869488179358e-03
      -1.9148545368014485e-03 2.6480072237572077e-02
      7.2777351000887031e-02 -9.3404057638239236e-04
      1.3264801095322087e-01 6.1016323703635435e-04
      6.7438922811188415e-06 8.9940192732045488e-04
      -1.8287852793382115e-03 -6.8528868224857459e-02
      -3.4814523203038690e-02 -1.6958499528610610e-03
      -1.1579535076297028e-03 -4.9487247293793172e-03
      1.3577296815162523e-03 4.9368495599355765e-02
      6.0865863884720914e-02 2.1300982067821602e-02
      -7.3108637301381285e-02 -1.7651014841376000e-02
      2.2670679126262526e-03 -1.9907910062541610e-04
      -1.6849721372518773e-04 -2.4094592586333608e-02
      -2.7441480237472095e-02 -8.0321747935061753e-04
      -1.3321698063557550e-04 1.7709302997593738e-03
      -9.6740553325743189e-02 1.0252427998323813e-01
      1.0622108508711512e-02 -1.5956775033581769e-02
      5.7160860690103996e-02 2.2993507272175723e-02
      4.3418105879143168e-03 9.3715710166515913e-04
      -2.4802792112305896e-03 -1.3290819810042091e-02
      -2.9083034020745586e-02 -1.1230766866558578e-03
      3.1226549789889683e-05 -7.8917807634447404e-02
      4.8187550101013631e-04 -7.9615933551589260e-02
      1.8505567782715960e-03 3.6672933877819204e-02
      3.8402656443492646e-02 -1.9948915684472854e-02
      -7.9357807064749379e-04 -1.3414001490887575e-02
      2.1501296188965955e-04 1.5246560734688552e-03
      -1.8079622496078023e-03 2.8217018713393074e-03
      1.0094629202990638e-03 5.1557456118515657e-02
      -5.0501105905141321e-02 -2.0526877317300352e-03
      -1.1785503501218625e-03 2.5921779366462555e-03
      5.9562910823883453e-04 -1.3195883732854666e-01
      2.4094340890388703e-02 -1.3821971307935589e-03
      -9.6724424581342682e-04 -1.9666827939489296e-03
      1.1907909837668310e-01 -3.2367623967399905e-03
      1.9327951304028707e-03 1.9894998556524127e-03
      -1.6454070195743183e-03 7.3812637052455134e-04
      5.0438234871255115e-02 -8.2147182641551224e-04
      -4.3036583391934780e-02 -8.3231397593671139e-02
      -9.7491469815994172e-02 1.4161853727503528e-02
      5.6282418888632502e-02 -1.5558983558515960e-03
      2.7415162201499077e-04 2.7283415424823082e-03
      8.6876483466004014e-04 -1.4087645855878067e-01
      6.9081461576137454e-03 -8.8544283147976729e-02
      -6.5087532890217820e-02 7.3023395554266790e-02
      1.3216172806466558e-01 -2.0467198167730450e-02
      -2.8851331037313801e-03 3.2890056942671293e-03
      1.7490199017989518e-03 -1.2650068353065001e-03
      -3.2607869033480681e-02 7.4370316065548600e-02
      -1.1485121723565626e-03 -1.8943618831236127e-03
      1.1633065920766473e-04 -6.9746053672851459e-03
      -6.4191555198368139e-02 1.4782387493968224e-03
      3.1926438511886030e-06 3.9620376043979257e-02
      -9.2355879129628620e-04 1.0024381566252198e-01
      -3.4868054962206352e-02 -8.4416449202484575e-02
      5.8167353899524253e-04 -2.3891664831368477e-03
      5.6190114722615516e-04 1.3859624523417644e-01
      1.0823098256241179e-03 -2.7636174331665988e-03
      3.0021380856729432e-03 -1.5901885029587920e-03
      1.1899873439347338e-03 1.7011852311122598e-03
      -4.0927616948337826e-04 2.4730550212162345e-03
      -1.2095217105481345e-03 1.6633106967077670e-02
      -3.8104930303698860e-02 -2.4491063318506801e-03
      -3.3903511995306830e-03 -1.1588881737052519e-02
      1.6425819042827732e-02 -2.8758572524523744e-03
      -1.1097376001846335e-03 7.8489899898097168e-02
      6.6519174381449910e-03 3.4205091996567746e-03
      8.5165507306054947e-02 1.4624514625270394e-02
      6.0353940778506661e-04 1.5916036421701459e-03
      -3.6546366193441863e-03 -1.6077433087864335e-01
      -6.0122735924895906e-02 2.3938381521375987e-03
      -3.2990641675355223e-03 -9.2156081489743830e-02
      -4.9763326476502429e-04 1.7076504702287273e-02
      5.1363114754218495e-02 -2.4197201586934509e-03
      -1.1293126312842920e-01 -5.1553051746289345e-02
      -6.5058012120392840e-04 1.0814453543552104e-03
      1.2206066453128878e-04 8.3506611943226602e-02
      -2.9713704322779366e-02 7.4228732199635786e-04
      -1.9160250467124120e-03 -1.7092015977119609e-03
      -6.2448210743373325e-02 1.0831735167168971e-01
      -4.5495146612786440e-02 -1.5076524492824973e-02
      1.0957879924213767e-02 -6.1241589038454683e-02
      3.0884320693097281e-02 1.6470285131374542e-03
      -2.0200209166550106e-03 5.5256848569702338e-03
      -2.2031497978158922e-02 1.1283875260778705e-03
      1.4251041697054247e-04 -3.8473774814754128e-02
      2.7020122606114063e-03 -2.7712711038506352e-03
      -9.8036785679785229e-04 6.4511974715694614e-02
      9.5963087331178434e-02 -1.8185369383535609e-02
      -1.1913854436050022e-03 -1.2690201768856445e-02
      6.2605982717536357e-04 -2.2332955063527569e-04
      9.2384117547107138e-04 -2.2334535581476269e-03
      -1.0952234545414828e-03 5.2770905584725303e-02
      -4.2378069412791805e-02 2.0042983562325666e-02
      -1.9332949001548399e-03 6.0443744562483463e-02
      6.9430515402966542e-04 -1.5232599050607756e-01
      4.2036112384497469e-02 -1.5802324266055141e-03
      2.9164096941872901e-03 1.5394695325231936e-03
      1.8249911521058637e-01 -5.2708212136308994e-04
      -1.6811719118010641e-03 -7.5291866841073593e-04
      5.8356587239685297e-04 9.2717441162251939e-04
      5.3892806644099192e-02 1.3321296908043194e-03
      -9.1432549005105807e-02 -4.5290107359971625e-02
      -8.5625716597322057e-02 1.5750028302430944e-02
      2.9046504859547278e-02 1.0153450612171088e-03
      2.1457311438019982e-03 7.8969154737405800e-04
      -1.3197419400740569e-03 -9.5871523939034670e-02
      3.9604837537079988e-02 -4.6421898979478751e-02
      -2.3893970412389127e-02 7.0365448286235033e-02
      9.7081050555984066e-02 5.4075067735428015e-02
      -8.1807882786900943e-04 7.8604232724481082e-04
      2.7100328913742745e-03 2.6592855235586638e-03
      6.0599860093839920e-02 9.8964125450932874e-02
      1.3388373844804864e-03 -1.7573328837416885e-03
      3.5675025925509843e-04 -7.1829242856015661e-03
      -8.5551285417401285e-02 2.4909760521119690e-03
      -2.4154080327477056e-03 6.5848149704543155e-02
      1.3595927279801468e-03 7.5342446455092527e-02
      -4.4641261294440501e-02 -9.9237935508006220e-02
      -6.5913008159456288e-04 -1.8419315311189572e-03
      2.2179433414075897e-03 1.5486249516161735e-01
      -1.7830005973086150e-03 -1.0835360791702390e-04
      2.3471707042245936e-03 -4.3600194613668841e-04
      8.0058013523433315e-03 -3.4695309812451985e-04
      -1.6497914664230541e-03 9.3115035606326779e-04
      -4.3897360610266534e-04 -1.1498329416838779e-02
      -4.6473104790610398e-02 -1.5976193409054978e-03
      -3.4186602132075264e-04 3.6251325720617271e-03
      3.7565577238785827e-03 3.7255317531231905e-04
      2.3643295972656277e-03 7.3602107343406373e-02
      -1.6917902485966644e-02 -4.4409394071712215e-04
      4.6525739068020246e-02 3.1233061962019637e-02
      -7.7500506191363649e-04 -1.9961046280402698e-03
      -1.8086151347604525e-03 -2.6939173839628006e-02
      -3.6787401775129631e-02 -1.7172046086576995e-03
      1.9586152844236422e-04 -1.5277557486669063e-01
      -1.3346588449789634e-03 -4.0780913551812202e-02
      4.4886070999411630e-02 -2.5132778504524278e-02
      -4.0910679394493464e-02 -5.2348331753102453e-02
      -1.1691626513284869e-03 -2.0943348929124872e-03
      1.4993972476435844e-03 8.8820011882109043e-02
      -3.2253414826507718e-02 -1.0005144718542771e-03
      -1.7989481585385073e-03 1.3154321646361156e-03
      -4.1193569963546554e-02 9.5380795266797658e-02
      2.8007853346261710e-03 -6.0960159941594996e-02
      -2.9883646966670379e-02 -4.8775091405739324e-02
      7.3463636341013883e-02 -2.1370358027904663e-03
      1.1741207122422995e-03 1.3983993970842460e-02
      -2.1158815811571072e-02 1.0389252995239694e-03
      9.5581365770473759e-04 -5.3465404942503458e-02
      5.9272472003921411e-04 6.5659283848489153e-02
      -2.2626597243044521e-03 4.0684833315583731e-03
      6.8504593738677941e-02 -4.2585680752694503e-03
      2.2041653886562072e-03 -1.3013403668269190e-02
      5.9376841391638906e-04 1.4584273900867121e-03
      -3.1510973637823898e-04 8.6662980557338204e-04
      2.6986613189118906e-03 8.7574396771229973e-04
      -6.4292130617951887e-02 -2.6476825540167132e-02
      -1.7038857261844195e-03 -1.1373966792002114e-02
      9.9390002732065727e-04 -8.1375578481369851e-02
      4.9033532011214950e-02 -2.6266788246992407e-03
      4.9258360129863675e-04 -1.4964413055345604e-03
      6.3959642722973442e-02 -3.5795980417694714e-03
      2.4540402486331421e-03 1.1251546806725619e-03
      -2.5431998836721180e-03 6.7495412200901440e-04
      -3.9282697276764042e-03 9.0626568778401861e-04
      -9.3431676684579121e-02 1.2111830689911704e-01
      -5.2104618237560837e-03 -8.3336305445633599e-02
      -3.4760009428524030e-02 -2.4438457521632350e-03
      6.2442218762866826e-04 -1.1518910251739653e-03
      1.0722313350184367e-03 6.0365049022564315e-02
      2.8056473100327772e-02 5.9080413268501678e-02
      1.5616653282724488e-01 1.5916231370538953e-02
      2.4618269682712704e-02 7.1171478400428326e-02
      1.3566741398853934e-03 1.5589018688014153e-03
      -1.0273836360783696e-03 5.4345971201528781e-04
      1.3547039210753434e-01 1.1838690617186323e-01
      2.4760106749334367e-04 9.4440344385829001e-05
      1.4370349661504385e-03 2.1734142991913798e-03
      -1.1159190121823648e-01 -2.0599344733043565e-03
      2.9267204775414282e-04 1.2148582202212467e-01
      2.6978799651776481e-03 -4.9644418060533378e-03
      -2.0126618492541746e-02 -5.9086428827121236e-02
      -6.6100082983287496e-04 -5.1316898881177111e-04
      -1.9736952606205253e-03 4.6684390406376029e-02
      -1.9672001460226884e-03 -2.4005418858971848e-04
      -3.5270560001469009e-04 -1.9281855377337224e-03
      2.6524137357114608e-02 -1.5784659812715081e-03
      8.2404372943764657e-04 1.3107176344651144e-03
      8.7903440137358574e-04 -8.8998555879049486e-03
      1.6061697770545325e-02 -9.7421704174853354e-04
      -2.4347668900241578e-03 -6.6610427262236462e-03
      -7.3832778354463141e-02 1.6293793756443019e-03
      5.4439126953157650e-04 5.8264673532711683e-02
      4.0315252646097227e-02 -1.3668374940371234e-03
      5.3088264308402064e-02 -1.8128767803017302e-02
      -2.4040775442117769e-03 -1.6777540651702985e-03
      1.7721974150563344e-03 3.3467702877647873e-02
      8.2259856882696464e-02 -2.5025005995717494e-03
      -1.2160086078558199e-03 -4.0924312902566026e-02
      2.3868435772442517e-02 -4.3940995617602820e-02
      4.3405699914112389e-02 7.0539248967149151e-02
      6.0379851156946156e-02 4.0709564525133045e-02
      -2.6918417703258443e-03 -9.6405315693837677e-04
      4.3250555878740515e-04 6.6324387006531829e-02
      -2.0347598262096540e-02 1.0165291730256892e-03
      4.5123505611348270e-04 -3.0945404137420747e-03
      -8.2449496243256776e-03 1.4344239276257878e-02
      4.9122706557893817e-02 -2.1597082248470994e-02
      3.0599578696865284e-03 7.2827116168972431e-02
      7.8974842184032834e-02 1.6771624823278420e-04
      -1.5399806970406871e-03 -5.1771466811780121e-03
      3.0706344307001358e-02 2.7227298280196871e-04
      -5.6202444176098603e-04 -6.1131095677796961e-02
      -1.9122069393964390e-03 2.8303496550154919e-02
      1.1918675324677852e-03 -6.0332003284224889e-02
      -2.0890161439705460e-02 7.7386052542556989e-03
      2.6127433772741524e-04 -1.5391520905661137e-02
      2.2819860088590781e-03 -4.4751622706346998e-04
      8.5611193564699977e-04 6.7150713695812692e-04
      1.3108651148837245e-03 3.7154737830592345e-02
      -4.8629400038565529e-02 1.2824039849757000e-02
      -3.2222549499606994e-03 -5.1779992885580522e-02
      -8.7678633610094639e-04 -1.0501286606433692e-01
      1.1073252450778661e-02 -3.3893780170162072e-03
      -1.8828404407300351e-03 4.4778761887559205e-04
      1.2918225968920660e-01 -1.5672973672452132e-03
      -7.6107422373998925e-04 3.4931062420706246e-03
      -2.6035207660592479e-03 -1.9387556089040951e-04
      -3.0021124115118480e-02 2.5752983886261046e-03
      -7.8581434642006315e-02 -3.9048850436811743e-02
      4.2599446203208262e-02 -1.2244930599009032e-01
      -8.2879106743140432e-02 -1.8352361699706331e-03
      -1.9403797472841277e-03 -1.5546537351819407e-03
      1.2047693665204911e-03 5.9579811108575673e-02
      2.2039769816387309e-02 3.0653681579473003e-02
      1.0956567029393838e-01 2.3553887036293464e-02
      9.7142978153825665e-02 7.8540320211430037e-02
      -5.6958388691823007e-04 2.3458887990400086e-03
      1.0094167931259130e-03 -9.1890855087150517e-04
      5.3145876985517641e-02 8.6997851040659546e-02
      1.4392937268896137e-04 1.3443351207261356e-03
      2.9392999654813453e-03 -3.1624175134663235e-03
      -5.4517299360734219e-02 2.0547175515787121e-03
      5.1640569851923860e-04 1.2990730392406438e-01
      -9.0067479549221872e-04 -7.1120979325329375e-03
      -3.6789857966490751e-02 -8.4757252397371120e-03
      -1.3986597849309941e-03 2.8780427632803048e-03
      7.2589713306751749e-04 -7.6778925243225797e-03
      -1.2524731149122198e-03 1.1334783596174396e-03
      2.8457860150883966e-04 -2.4977966510624826e-03
      2.3351628311666296e-02 1.5361268090861488e-03
      1.2967726029768881e-03 -1.4128743828737810e-03
      -2.0760359811596283e-03 -2.6070961400009453e-02
      -4.8577417756567966e-02 6.8847401741863250e-06
      -7.6633594665433125e-04 1.7121866558226957e-02
      1.3825430840892987e-02 -6.8890917240932990e-04
      -1.8618069990099723e-03 7.3998754643367054e-02
      7.0690271078831940e-02 -1.4801549324254689e-03
      1.3710506551664250e-01 -2.0863550504640650e-02
      1.7278340933680118e-03 -2.8219079285770401e-03
      -5.7873076647324148e-05 -1.8156813397574387e-02
      -1.2493976854946883e-02 -3.2495700739968948e-03
      -3.2790884334162875e-03 3.5129460659280312e-02
      4.6770459336691474e-02 -1.0209547849249485e-01
      9.8422264013844171e-02 5.2259546862926554e-02
      1.4638925055200983e-01 4.2970481081502879e-02
      -4.2612431819588808e-03 4.1224443991954348e-04
      -1.5114356822365832e-03 1.4374687412215673e-01
      -1.8642805494228878e-02 -2.8417553364832602e-03
      -2.7674247224789045e-03 -2.5996631850105333e-03
      -1.2058340032126807e-02 -3.0877684920499714e-02
      -1.5689427416005364e-02 7.5990652110274531e-02
      2.4750538720550139e-02 1.6291528257170427e-02
      -1.5973677851058151e-03 -3.2496290141784804e-03
      -2.4935144922604200e-03 3.5852482858680583e-02
      -2.2660142764833108e-02 9.7612653343043666e-04
      -2.0918118419380920e-03 -7.1646486324901226e-02
      1.6941886910516145e-03 2.8408353836510823e-02
      -1.9413230274538864e-03 3.2241065600871130e-02
      1.8875484935796841e-02 -3.8534723507762346e-04
      -5.9703397007301721e-04 -2.0872175363381516e-02
      1.9181718494134493e-03 2.2211848477999720e-04
      -3.4342550914312161e-03 5.8496027828475842e-05
      -1.2387966714649356e-03 1.1293307969619171e-01
      -3.7985083289629615e-02 8.6696891750735861e-02
      -1.4282722963185014e-03 9.5189493115630186e-02
      1.8962114420213278e-03 -8.2760723040309250e-02
      -5.8900650931988895e-02 -1.1217297827856773e-03
      2.2338881917759578e-03 1.6648596193719280e-03
      1.1404054914405369e-01 -5.0642788887007785e-04
      5.1115878849220691e-04 -1.6155420787340191e-03
      -2.2819142984903105e-03 -4.9911656045872545e-05
      -8.7551613736451539e-03 2.1334833610686961e-04
      -4.1396512752550671e-02 -1.8313102031703839e-02
      4.7219353247988892e-02 -8.3811834982218558e-02
      3.0377132924736198e-02 1.5831259940112111e-03
      -9.2585440794097542e-04 1.1086662520738806e-03
      5.1536877276598108e-04 4.3707368481810338e-02
      -1.9484880054563773e-02 -3.3848169108378306e-03
      -3.1335888452965867e-03 1.1888775991225752e-02
      2.6892319289581225e-02 8.6560717834677642e-02
      4.1594286633481875e-04 -1.3834332458052283e-03
      9.6524534192560468e-04 -1.3927332607821402e-03
      7.4388340964952462e-02 4.3337513144142130e-02
      -1.6128466748263201e-03 -3.0835745160503344e-03
      -1.7101424447232307e-03 -5.0999926292803067e-02
      -5.0706470347041288e-02 2.0048297225916723e-03
      -1.1865509885591373e-03 -4.4814777810185773e-02
      -1.2042292273470668e-03 5.1130938981082848e-02
      1.4226800361731705e-02 3.4816670924548418e-02
      -4.9807179083584635e-04 2.3867272682872617e-03
      1.4652338660125258e-03 -3.9840618962192591e-02
      -2.4748431591869006e-03 1.7380830951028905e-03
      3.0776727030679255e-03 -8.3876333917951820e-04
      2.2535890049797815e-02 -6.3805403143845643e-04
      4.5842750333933318e-05 -7.3335645586335553e-04
      -8.0754525815473924e-04 -4.7911636384204655e-02
      -9.0531600677063104e-03 -3.1107243920560756e-03
      -9.6926087362912813e-04 1.3460464552915337e-03
      1.4336110846022871e-02 -1.7176110687434232e-03
      -3.1936109985473463e-03 1.3068002486021243e-02
      1.8283387601097659e-02 4.7992016909600033e-04
      6.6540856709407625e-02 5.6698509604158669e-02
      -2.2741683557028539e-03 -1.6452163877657719e-03
      1.8579082674669489e-03 2.3626917204870614e-02
      -8.1738880565663224e-02 1.8289618992908620e-05
      -7.1288420916130308e-04 1.9453501683162455e-01
      3.3276403008128765e-02 -6.6889209927403145e-02
      8.5761344083966240e-02 -1.5706402420510999e-02
      2.4387235703623604e-02 8.8592019903762712e-02
      -3.7702700378583719e-03 1.8445735875336233e-03
      -7.4759717419375319e-04 8.0341961931447867e-02
      -1.8620579504777791e-02 -7.4180001341003820e-04
      -2.3659024599903683e-03 -1.1864048036907308e-03
      -4.9247899726570149e-02 9.5845270518585147e-03
      8.6110211007586493e-02 1.8297773704675804e-02
      2.1198233417165414e-02 -2.6015679536498970e-02
      1.4619008707431396e-03 -1.5587008622006751e-03
      1.8482530777813762e-04 4.0855706607387222e-02
      -6.4313625754346085e-02 5.2287942948297694e-05
      -7.4152909709406716e-04 -5.3862377028079403e-02
      -3.1180371587598565e-03 8.5057408943465501e-02
      -2.2335092882624034e-03 5.3396408927864306e-02
      5.4047648185704018e-02 -8.5826056132499821e-03
      9.5855704784258500e-04 -2.4816556350510496e-02
      2.5315324689747625e-04 3.4967491738611311e-04
      -3.3146535365900266e-04 -2.1658094588216884e-03
      8.5835917529373325e-04 -1.2278866215233114e-02
      -2.2817473827846022e-02 5.8024014551427139e-02
      -4.9305789997001960e-04 9.0920326009544181e-02
      -1.1927218336828452e-04 -1.1561348018221471e-01
      -3.6510089008583838e-02 -3.5113447824209935e-03
      1.5506484467140342e-03 9.7841036146786181e-04
      9.0997828964585872e-02 -1.1512250685500353e-03
      2.0778327817165747e-03 2.6513673481839244e-03
      4.9148443009301528e-04 -1.1001725960815714e-03
      9.3537237239775806e-03 -1.0838435431476093e-03
      -2.9825576193213071e-04 2.6725200584443571e-02
      5.2186411273244533e-02 -5.6569500816403648e-02
      -1.3063067185082973e-02 -2.5412709105965569e-03
      1.2327115860071823e-03 -1.1438822197690616e-03
      -7.8752882467401117e-04 -4.9887681742127850e-03
      4.2607009135561376e-02 -5.4468454532150372e-02
      1.4392724880712028e-02 1.8548752454878442e-02
      -1.7867589550168761e-01 4.1912963363737406e-02
      1.5510779966941930e-03 1.7129022202700636e-03
      3.1121799622467897e-03 -2.0234637162775525e-03
      8.4894420426358308e-02 5.2969878818218852e-02
      2.8244425112610673e-03 -2.6071865088583254e-04
      -5.6549652718156844e-04 -4.1898217835021935e-02
      -3.9366982154252654e-02 -1.4597421567714200e-03
      -2.6397730527801299e-03 9.3043688228291024e-02
      -1.1604469298700682e-03 4.9336547853922275e-02
      4.5977600358293638e-02 2.5955999770761087e-02
      -8.2839000054943704e-04 -1.7279423081527781e-03
      -1.3347953723309589e-04 8.0953187553553893e-02
      -8.9085530798752228e-04 8.4998034428720298e-04
      -1.6245678913882468e-03 -5.5790264465299181e-05
      3.6110695044537282e-02 -1.9264048041416175e-03
      -5.9942662488009257e-04 2.0742841282151920e-03
      -4.4106497476689667e-04 -8.1619658486306285e-02
      1.7582793280834071e-02 2.7527041507800104e-04
      -1.7601729956670805e-04 1.7287975592137347e-02
      -3.5404655364786083e-02 -7.3843866714494520e-04
      1.4787568899252300e-03 2.8474466320498611e-02
      9.7304512560154169e-02 1.1494100751639611e-04
      8.3082919047944140e-02 1.4449692318251774e-02
      -2.6521524007271785e-03 -2.2783223913359517e-03
      5.9816188706073253e-04 5.1266580491633906e-02
      2.4564695518414299e-02 -2.7413156445684019e-03
      -1.9890254981699382e-03 9.0317511193719946e-02
      -9.9408219545343932e-03 -1.6071973788611996e-01
      9.6400674543859921e-02 -3.3370657626444672e-02
      4.4334548167331705e-02 1.0942728945863105e-01
      3.0389006828755364e-04 1.8116743226047629e-03
      -2.5024245020216929e-04 4.0302001738491001e-02
      -5.1001774164782486e-03 6.7419254959354927e-04
      2.8874995039378220e-03 -3.1108370929832426e-03
      3.8163572222405684e-02 -1.2965718730686179e-01
      1.0277725720655274e-01 -2.8769160883678445e-02
      -1.1401436815868096e-01 -1.6615304490271144e-02
      -2.6165547253529948e-02 1.3195631415331458e-03
      1.9208748991348980e-03 1.0640819335431508e-01
      -4.0997579495878952e-03 -3.9711012681459859e-04
      8.2419254596692191e-04 -6.4762584576060975e-02
      9.6374584094476414e-04 7.3751485957553084e-02
      7.5507499869410062e-04 1.3721795712521198e-01
      1.0275357896701483e-01 -1.6586638025521291e-02
      -1.8393209167461440e-03 -1.2772744418122465e-02
      8.9649935576291678e-04 7.3867871781731860e-04
      5.7446413962215727e-04 -9.3478037446623142e-04
      1.1718229971633856e-03 6.5177544743591040e-02
      4.7691798025518727e-02 7.1118528486550439e-02
      -5.2850719490879744e-04 1.4360886010916207e-02
      1.3617754925762966e-03 -6.3921186623900547e-03
      -4.6371169619276738e-02 9.2238921784736376e-04
      8.8177925697481921e-04 1.4982948274834879e-04
      7.7516464301607578e-04 2.3791888260690688e-04
      -1.3361402277160637e-03 6.1778934361507920e-04
      6.0689755340577040e-05 1.3976534076063022e-04
      -4.2479676817100687e-02 -1.7339797606286801e-03
      6.5579534132606254e-02 1.1281939769389760e-02
      3.9116785750276502e-02 -2.7104724161423219e-02
      -3.2126313949445366e-02 1.0067908974742885e-03
      -1.0046152595624572e-03 4.5871675985408852e-04
      -6.0699472005657385e-04 5.2640980058250922e-02
      1.5655445186935853e-02 5.6243496158418525e-02
      6.3579974956384538e-02 4.1061937610510066e-02
      -1.1694465017567605e-01 1.4584682231760751e-02
      -5.6214519478714801e-04 -6.3495633511828568e-05
      2.9372261072077017e-03 -1.0347024498471747e-03
      5.4552574010916989e-02 7.1489381773670313e-02
      -3.3946424897536467e-04 2.8699680654685408e-03
      1.6812953296961113e-03 -1.2520988722626608e-02
      -1.2698158622007419e-01 6.2908603800476096e-04
      1.1275979129987052e-03 -5.2865492184016080e-02
      -2.2397564985827722e-03 -1.2365561531560725e-02
      3.1349641822820976e-02 7.7440374038780383e-03
      -2.0077818592086323e-03 -2.6871272918913124e-03
      -6.9557108097478447e-04 5.2400232319437072e-02
      2.1206467452072205e-04 1.5171554988610315e-03
      -1.0183755216877060e-03 -1.4016030522784799e-03
      2.7191604775210033e-02 1.0237968323259031e-03
      -8.1925936738197250e-05 -1.3584961904412977e-04
      -1.5600992974982967e-03 -2.3472218868965868e-02
      -2.6544367712245075e-02 2.6550187804409117e-04
      3.5110916945409491e-04 1.2748930773947037e-02
      -5.8171824995147656e-02 -1.1235665807364647e-03
      -1.6768354622819031e-03 -8.6246535350101503e-03
      4.3091199162348159e-02 2.9806526194090712e-03
      -7.4511648899735008e-02 5.9684478840066738e-02
      -1.7278184377599334e-03 -3.1132282172279986e-03
      -4.2610597842535666e-04 -6.4449429024632951e-02
      -1.1175256451122901e-02 -7.5983232837760701e-04
      4.9909749043739544e-04 -4.6788795320089990e-02
      3.1281627663596150e-03 -1.6627183951023797e-01
      1.1225057932437986e-01 -3.3020649419019533e-02
      -9.5767101132637658e-02 1.2491866534407380e-01
      1.4434340010972906e-03 7.5866122569486752e-04
      1.0932073900628107e-03 -1.1798741153960747e-01
      -1.7410358177868363e-02 1.6656605849776839e-03
      -1.3591905046704750e-03 -3.2314602315023306e-03
      1.6438794959422083e-02 -3.5565968341444168e-02
      6.2660558287539372e-02 7.0146610025275002e-02
      1.4484062533432582e-02 -1.4802550465008127e-01
      1.6216775538062941e-02 -2.1363972013328861e-03
      -8.3178330074599202e-04 6.6719661284781517e-02
      1.9209144560221911e-02 3.2664312362925142e-04
      -1.7275381077456206e-03 6.2083455529992025e-02
      5.3051261908113316e-04 4.9611353304247707e-02
      -1.5187826083835352e-03 9.8266876341438575e-02
      1.1965023270554369e-02 -1.5002045737923608e-02
      1.8599943402816291e-03 2.2032208824746338e-02
      1.2922105024531091e-03 2.6704716442317328e-03
      -4.3854797771456996e-04 -2.1030049749299587e-03
      1.2382729761268628e-03 9.3131846207185801e-02
      3.7780555293554938e-02 1.1019748577390043e-01
      -1.2901152820178181e-03 5.0459249175349385e-02
      -1.2237673866030160e-03 3.2868164175382880e-02
      -4.7304250126298464e-02 -3.1919582925280535e-04
      1.4030673494576651e-03 3.2659620798196603e-03
      1.9503763560415166e-01 1.6628835129027389e-03
      -1.6932007618901512e-03 1.7081077887189471e-03
      -9.0396084893972590e-04 -1.9742388923860467e-03
      -3.1984714302076125e-02 2.3280637421363736e-03
      6.8562322411663865e-02 1.7876579053992748e-02
      -2.1411560679578251e-02 -1.0877285195528970e-01
      -8.9636230147370002e-02 -2.8232524703990245e-03
      -3.8108425459212288e-03 3.1826953049907719e-03
      1.1943575919792324e-03 2.3634111833957472e-02
      5.2870328534523670e-02 9.9265093433852244e-02
      6.4272632598881219e-02 2.6289672000393380e-02
      1.1755439177694693e-01 4.5951611941679342e-02
      -1.5837888485653571e-03 1.2028546157272663e-04
      7.8456063145934034e-04 -2.9555312237629572e-04
      2.8572883259718945e-02 4.6690876751147074e-02
      -3.3249063564273626e-04 1.2953335886295957e-04
      3.4584602124145155e-04 -3.2208554170096194e-03
      1.1755298044052622e-02 -8.4264019611545414e-04
      1.8170402042969012e-04 3.5177982305767658e-01
      -3.0781195959147915e-04 3.1294260795011235e-02
      8.5398741559550725e-02 -2.6745996180203669e-02
      9.4421082915210799e-04 2.7791778272844747e-03
      -6.4161288997524341e-04 1.1597868226367768e-01
      -4.6647410834072407e-04 -2.7456140096275925e-03
      2.7791243026720555e-04 -5.8825067110824733e-04
      2.2218113123744416e-03 -1.2505090411186193e-03
      -1.3471322301394705e-04 -4.8893300761157781e-04
      -4.7590518906698602e-04 -3.7196613727395716e-02
      -8.0639296503781363e-02 9.9808581903748465e-04
      -1.8657654909082729e-03 1.0042048417157359e-02
      6.0407031403909982e-02 -1.5497510755571760e-03
      -6.7086573822773776e-05 1.0759816584899533e-01
      -5.1351917677055749e-02 -9.9924992348146492e-04
      -1.1197493615175190e-01 3.6612100183727889e-02
      -1.5544118810509083e-03 -3.2855002159779983e-03
      1.3066088041544482e-03 -1.2148789478795179e-01
      -1.4853629341548706e-02 -1.7613156533648631e-03
      1.8411309598633430e-04 -1.2311381328857110e-01
      4.0964503668543956e-02 -1.3593988237409063e-01
      2.6462473496904926e-01 -8.2818517988813584e-03
      -7.5859530262836023e-03 2.6258194766616547e-02
      1.2359848259852633e-03 1.8363536047249595e-03
      -2.6529966700755314e-03 -9.2396063139501980e-02
      -2.0797618927584589e-02 6.4759752187125452e-04
      2.6008736001382721e-03 -1.3863633050935914e-04
      -7.7394494631803312e-02 5.5211844728205735e-02
      9.9717046098682476e-03 -8.1916724480271583e-02
      -6.8222258786999571e-02 -1.9108364540913042e-01
      8.0166060617018406e-03 1.4699646366973995e-03
      1.7062700284423168e-04 8.0244364261384357e-02
      -4.0036859114144653e-02 -2.6002894610165318e-03
      -5.5968842935599750e-04 -3.1926751397601663e-02
      1.0739604497907304e-03 2.1508100111204422e-03
      -3.8943786964346816e-03 4.1646753037139078e-02
      9.6713634606982804e-02 -1.1138226101849939e-02
      8.1948265535510835e-04 9.7503349294553667e-05
      2.6916224901163306e-03 2.5427814393023902e-04
      8.5190048686183118e-04 -1.8886605440017387e-03
      3.3097678442950001e-03 4.9636333446344515e-02
      4.4794195817859317e-02 -8.0670736913051974e-02
      -5.2055087886169046e-03 2.0975265765148177e-02
      -6.7648891871962874e-04 -2.8659032387779889e-02
      -6.8549353701139321e-02 -2.0410195753431198e-03
      2.2560320682056970e-04 -8.0804655445421126e-04
      8.7096652389476018e-02 -2.6821198916267205e-03
      -1.4467138958038437e-03 -2.0072586643871720e-04
      2.3761503975330018e-03 -1.9626325798685531e-03
      -2.9635258666923483e-02 1.2689609575554072e-04
      3.6752834686914974e-02 -3.6553043351996897e-02
      -3.9064790103038542e-03 2.2498357022397606e-03
      3.7311680598902608e-02 -3.2214041402503404e-04
      -1.8609056128314740e-04 3.0541229765988494e-03
      -6.0328947571461084e-04 -6.5413563682699405e-02
      6.0929759211334845e-02 1.5468492844022219e-01
      6.4521307648947007e-02 2.5929229673437894e-02
      -1.5663953357217528e-01 3.4394438721097272e-03
      -2.4325656285699763e-03 -9.5092199726606213e-04
      1.2050952952406481e-03 -2.2902080934330962e-05
      9.8886600724052646e-03 2.6152393593318064e-02
      1.3019221269269918e-03 -1.5588355768876927e-04
      -1.1450318112167812e-03 -3.9335941603139525e-03
      -9.1414744054748004e-02 -4.6613294542493573e-04
      -9.8703604083401428e-04 2.4587737611564536e-01
      3.2082189427778390e-03 9.5134550728452977e-02
      -2.3196952324657565e-02 -1.3810220410716093e-02
      1.3478618813811054e-03 -1.6778688719158656e-03
      -1.5693262448138769e-03 1.1201790284077633e-01
      1.6423703569511602e-04 -4.8584495833917270e-04
      1.8385421935726404e-03 2.8998418394447773e-04
      4.4968831221265250e-04 4.5925794098229845e-04
      1.4077216657919643e-03 1.2824927791980608e-03
      -2.5051972650802766e-05 7.2714352654401682e-02
      -2.0198959973609796e-02 -1.4039441744350186e-03
      -3.8505639815417472e-04 2.6472005275537166e-02
      -3.2217652924726024e-02 -1.8126914355529454e-03
      1.4993593986128619e-03 4.0448166171593143e-02
      -6.5390318009209497e-02 6.1219622914600845e-04
      -3.6705519973403399e-02 -1.7825360368457735e-02
      -1.4350893708725216e-03 2.7604557537723139e-03
      -1.5037620718161286e-03 4.9096306289527936e-02
      5.5816772711119256e-03 -3.2747380454831794e-04
      -3.1061748526284615e-03 2.8454424396858427e-02
      -3.5917360997920589e-02 -1.0193319164150555e-01
      1.1577842419551611e-01 3.6616807795401565e-02
      1.0590733332686914e-01 3.9126825543910624e-03
      1.6043114630668112e-03 7.3434569240647641e-04
      -2.7230174621921390e-03 -1.0324001014986875e-01
      -2.3054858069476342e-02 -1.7204524453873782e-03
      2.4449591148097733e-03 1.0275684086054121e-03
      -1.2305828552676076e-01 -9.9080487231860082e-02
      4.0671131853292297e-02 -9.8845243603595048e-02
      -1.0087515239214895e-01 -1.7108055156270157e-02
      1.5080968623004138e-03 1.5158093326587650e-03
      1.1234944965328277e-03 -1.0530853895222909e-01
      -1.6031384020343181e-02 1.0152244699788496e-03
      1.5914795493989292e-03 -1.5190670717958503e-02
      3.1167244567306628e-03 -2.0022896481701261e-02
      -7.0308973408233794e-04 1.1212550037627035e-01
      2.1765738686621378e-01 6.3696001014152174e-04
      2.4354836348340026e-03 -1.6647441744326613e-02
      7.9432030945353685e-04 -2.6339972822013089e-04
      2.0890876474923738e-03 -1.6999412890913376e-03
      1.4900604244646194e-03 -1.5788156783491152e-02
      7.8197599127348721e-02 -4.4344895464381834e-02
      -1.0916303558329667e-03 8.0342956222178921e-02
      -2.7851093465516216e-03 -1.2185923963025852e-01
      -7.8669974470845602e-02 6.3609574172209438e-04
      5.6889992239815622e-04 2.4849507573117668e-03
      1.5906137782376251e-01 3.3854504440069589e-04
      -1.4736279895693801e-03 1.2989539500197476e-03
      2.4635116197311165e-03 1.1172517101439299e-03
      -4.6820322729166017e-02 -1.0041853741473074e-03
      5.6939917092551764e-02 -1.9589533108881986e-02
      4.9970723709911818e-02 -6.3765406772498937e-02
      7.4939720903373155e-02 -1.9358828273178775e-03
      -4.2820437570459077e-04 1.5332634581847746e-03
      -1.7364901125881177e-03 3.3646604653711498e-02
      9.1587188995923639e-03 1.6737818221183007e-01
      3.1068241696070944e-02 -1.1117256769946668e-02
      -1.4734321868828247e-02 -1.1961240962901366e-01
      1.2060885079498401e-03 8.4088961083637458e-04
      1.0920398519923397e-03 -9.6580071133166680e-04
      6.6482829537211335e-03 1.0516485342103889e-01
      2.4478345269336575e-04 2.5225835895619918e-03
      1.9558932146479927e-03 -1.5415204508139614e-02
      -1.2060500377136690e-01 -8.0781786388192884e-04
      -2.2822202698761631e-04 3.4229751239981709e-01
      -1.7906872948246450e-03 6.2769139595990290e-03
      3.4837993326112690e-02 -4.9052677842659799e-02
      1.8835417298129200e-03 -2.3651911852408387e-03
      -1.1024135672721365e-04 5.9715921280547195e-02
      2.8978427915675397e-03 -6.1211531037105719e-04
      5.6554136995830306e-04 -1.5328252721156638e-03
      4.8840401922970586e-03 -1.9587522993857096e-03
      -1.8935414447925367e-03 3.2664104705049292e-04
