<?xml version="1.0"?>
<opencv_storage>
<opencv_ml_ann_mlp>
  <format>3</format>
  <layer_sizes>
    784 87 9</layer_sizes>
  <activation_function>LEAKYRELU</activation_function>
  <f_param1>1.0000000000000000e-02</f_param1>
  <f_param2>0.</f_param2>
  <min_val>0.</min_val>
  <max_val>0.</max_val>
  <min_val1>0.</min_val1>
  <max_val1>0.</max_val1>
  <training_params>
    <train_method>BACKPROP</train_method>
    <dw_scale>1.0000000000000000e-02</dw_scale>
    <moment_scale>0.</moment_scale>
    <term_criteria>
      <epsilon>1.0000000000000000e-03</epsilon></term_criteria></training_params>
  <input_scale>
    1. 0. 1. 0. 1. 0. 1. 0. 1. 0. 1. 0. 1. 0. 1. 0. 1. 0. 1. 0. 1. 0. 1.
    0. 1. 0. 1. 0. 1. 0. 1. 0. 1. 0. 1. 0. 1. 0. 1. 0. 1. 0. 1. 0. 1. 0.
    1. 0. 1. 0. 1. 0. 1. 0. 1. 0. 1. 0. 1. 0. 1. 0. 1. 0. 1. 0. 1. 0. 1.
    0. 1. 0. 1. 0. 1. 0. 1. 0. 1. 0. 1. 0. 1. 0. 1. 0. 1. 0. 1. 0. 1. 0.
    1. 0. 1. 0. 1. 0. 1. 0. 1. 0. 1. 0. 1. 0. 1. 0. 1. 0. 1. 0. 1. 0. 1.
    0. 1. 0. 1. 0. 1. 0. 1. 0. 1. 0. 1. 0. 1. 0. 1. 0. 1. 0. 1. 0. 1. 0.
    1. 0. 1. 0. 1. 0. 1. 0. 1. 0. 1. 0. 1. 0. 1. 0. 1. 0. 1. 0. 1. 0. 1.
    0. 1. 0. 1. 0. 1. 0. 1. 0. 1. 0. 1. 0. 1. 0. 1. 0. 1. 0. 1. 0. 1. 0.
    1. 0. 1. 0. 1. 0. 1. 0. 1. 0. 1. 0. 1. 0. 1. 0. 1. 0. 1. 0. 1. 0. 1.
    0. 1. 0. 1. 0. 1. 0. 1. 0. 1. 0. 1. 0. 1. 0. 1. 0. 1. 0. 1. 0. 1. 0.
    1. 0. 1. 0. 1. 0. 1. 0. 1. 0. 1. 0. 1. 0. 1. 0. 1. 0. 1. 0. 1. 0. 1.
    0. 1. 0. 1. 0. 1. 0. 1. 0. 1. 0. 1. 0. 1. 0. 1. 0. 1. 0. 1. 0. 1. 0.
    1. 0. 1. 0. 1. 0. 1. 0. 1. 0. 1. 0. 1. 0. 1. 0. 1. 0. 1. 0. 1. 0. 1.
    0. 1. 0. 1. 0. 1. 0. 1. 0. 1. 0. 1. 0. 1. 0. 1. 0. 1. 0. 1. 0. 1. 0.
    1. 0. 1. 0. 1. 0. 1. 0. 1. 0. 1. 0. 1. 0. 1. 0. 1. 0. 1. 0. 1. 0. 1.
    0. 1. 0. 1. 0. 1. 0. 1. 0. 1. 0. 1. 0. 1. 0. 1. 0. 1. 0. 1. 0. 1. 0.
    1. 0. 1. 0. 1. 0. 1. 0. 1. 0. 1. 0. 1. 0. 1. 0. 1. 0. 1. 0. 1. 0. 1.
    0. 1. 0. 1. 0. 1. 0. 1. 0. 1. 0. 1. 0. 1. 0. 1. 0. 1. 0. 1. 0. 1. 0.
    1. 0. 1. 0. 1. 0. 1. 0. 1. 0. 1. 0. 1. 0. 1. 0. 1. 0. 1. 0. 1. 0. 1.
    0. 1. 0. 1. 0. 1. 0. 1. 0. 1. 0. 1. 0. 1. 0. 1. 0. 1. 0. 1. 0. 1. 0.
    1. 0. 1. 0. 1. 0. 1. 0. 1. 0. 1. 0. 1. 0. 1. 0. 1. 0. 1. 0. 1. 0. 1.
    0. 1. 0. 1. 0. 1. 0. 1. 0. 1. 0. 1. 0. 1. 0. 1. 0. 1. 0. 1. 0. 1. 0.
    1. 0. 1. 0. 1. 0. 1. 0. 1. 0. 1. 0. 1. 0. 1. 0. 1. 0. 1. 0. 1. 0. 1.
    0. 1. 0. 1. 0. 1. 0. 1. 0. 1. 0. 1. 0. 1. 0. 1. 0. 1. 0. 1. 0. 1. 0.
    1. 0. 1. 0. 1. 0. 1. 0. 1. 0. 1. 0. 1. 0. 1. 0. 1. 0. 1. 0. 1. 0. 1.
    0. 1. 0. 1. 0. 1. 0. 1. 0. 1. 0. 1. 0. 1. 0. 1. 0. 1. 0. 1. 0. 1. 0.
    1. 0. 1. 0. 1. 0. 1. 0. 1. 0. 1. 0. 1. 0. 1. 0. 1. 0. 1. 0. 1. 0. 1.
    0. 1. 0. 1. 0. 1. 0. 1. 0. 1. 0. 1. 0. 1. 0. 1. 0. 1. 0. 1. 0. 1. 0.
    1. 0. 1. 0. 1. 0. 1. 0. 1. 0. 1. 0. 1. 0. 1. 0. 1. 0. 1. 0. 1. 0. 1.
    0. 1. 0. 1. 0. 1. 0. 1. 0. 1. 0. 1. 0. 1. 0. 1. 0. 1. 0. 1. 0. 1. 0.
    1. 0. 1. 0. 1. 0. 1. 0. 1. 0. 1. 0. 1. 0. 1. 0. 1. 0. 1. 0. 1. 0. 1.
    0. 1. 0. 1. 0. 1. 0. 1. 0. 1. 0. 1. 0. 1. 0. 1. 0. 1. 0. 1. 0. 1. 0.
    1. 0. 1. 0. 1. 0. 1. 0. 1. 0. 1. 0. 1. 0. 1. 0. 1. 0. 1. 0. 1. 0. 1.
    0. 1. 0. 1. 0. 1. 0. 1. 0. 1. 0. 1. 0. 1. 0. 1. 0. 1. 0. 1. 0. 1. 0.
    1. 0. 1. 0. 1. 0. 1. 0. 1. 0. 1. 0. 1. 0. 1. 0. 1. 0. 1. 0. 1. 0. 1.
    0. 1. 0. 1. 0. 1. 0. 1. 0. 1. 0. 1. 0. 1. 0. 1. 0. 1. 0. 1. 0. 1. 0.
    1. 0. 1. 0. 1. 0. 1. 0. 1. 0. 1. 0. 1. 0. 1. 0. 1. 0. 1. 0. 1. 0. 1.
    0. 1. 0. 1. 0. 1. 0. 1. 0. 1. 0. 1. 0. 1. 0. 1. 0. 1. 0. 1. 0. 1. 0.
    1. 0. 1. 0. 1. 0. 1. 0. 1. 0. 1. 0. 1. 0. 1. 0. 1. 0. 1. 0. 1. 0. 1.
    0. 1. 0. 1. 0. 1. 0. 1. 0. 1. 0. 1. 0. 1. 0. 1. 0. 1. 0. 1. 0. 1. 0.
    1. 0. 1. 0. 1. 0. 1. 0. 1. 0. 1. 0. 1. 0. 1. 0. 1. 0. 1. 0. 1. 0. 1.
    0. 1. 0. 1. 0. 1. 0. 1. 0. 1. 0. 1. 0. 1. 0. 1. 0. 1. 0. 1. 0. 1. 0.
    1. 0. 1. 0. 1. 0. 1. 0. 1. 0. 1. 0. 1. 0. 1. 0. 1. 0. 1. 0. 1. 0. 1.
    0. 1. 0. 1. 0. 1. 0. 1. 0. 1. 0. 1. 0. 1. 0. 1. 0. 1. 0. 1. 0. 1. 0.
    1. 0. 1. 0. 1. 0. 1. 0. 1. 0. 1. 0. 1. 0. 1. 0. 1. 0. 1. 0. 1. 0. 1.
    0. 1. 0. 1. 0. 1. 0. 1. 0. 1. 0. 1. 0. 1. 0. 1. 0. 1. 0. 1. 0. 1. 0.
    1. 0. 1. 0. 1. 0. 1. 0. 1. 0. 1. 0. 1. 0. 1. 0. 1. 0. 1. 0. 1. 0. 1.
    0. 1. 0. 1. 0. 1. 0. 1. 0. 1. 0. 1. 0. 1. 0. 1. 0. 1. 0. 1. 0. 1. 0.
    1. 0. 1. 0. 1. 0. 1. 0. 1. 0. 1. 0. 1. 0. 1. 0. 1. 0. 1. 0. 1. 0. 1.
    0. 1. 0. 1. 0. 1. 0. 1. 0. 1. 0. 1. 0. 1. 0. 1. 0. 1. 0. 1. 0. 1. 0.
    1. 0. 1. 0. 1. 0. 1. 0. 1. 0. 1. 0. 1. 0. 1. 0. 1. 0. 1. 0. 1. 0. 1.
    0. 1. 0. 1. 0. 1. 0. 1. 0. 1. 0. 1. 0. 1. 0. 1. 0. 1. 0. 1. 0. 1. 0.
    1. 0. 1. 0. 1. 0. 1. 0. 1. 0. 1. 0. 1. 0. 1. 0. 1. 0. 1. 0. 1. 0. 1.
    0. 1. 0. 1. 0. 1. 0. 1. 0. 1. 0. 1. 0. 1. 0. 1. 0. 1. 0. 1. 0. 1. 0.
    1. 0. 1. 0. 1. 0. 1. 0. 1. 0. 1. 0. 1. 0. 1. 0. 1. 0. 1. 0. 1. 0. 1.
    0. 1. 0. 1. 0. 1. 0. 1. 0. 1. 0. 1. 0. 1. 0. 1. 0. 1. 0. 1. 0. 1. 0.
    1. 0. 1. 0. 1. 0. 1. 0. 1. 0. 1. 0. 1. 0. 1. 0. 1. 0. 1. 0. 1. 0. 1.
    0. 1. 0. 1. 0. 1. 0. 1. 0. 1. 0. 1. 0. 1. 0. 1. 0. 1. 0. 1. 0. 1. 0.
    1. 0. 1. 0. 1. 0. 1. 0. 1. 0. 1. 0. 1. 0. 1. 0. 1. 0. 1. 0. 1. 0. 1.
    0. 1. 0. 1. 0. 1. 0. 1. 0. 1. 0. 1. 0. 1. 0. 1. 0. 1. 0. 1. 0. 1. 0.
    1. 0. 1. 0. 1. 0. 1. 0. 1. 0. 1. 0. 1. 0. 1. 0. 1. 0. 1. 0. 1. 0. 1.
    0. 1. 0. 1. 0. 1. 0. 1. 0. 1. 0. 1. 0. 1. 0. 1. 0. 1. 0. 1. 0. 1. 0.
    1. 0. 1. 0. 1. 0. 1. 0. 1. 0. 1. 0. 1. 0. 1. 0. 1. 0. 1. 0. 1. 0. 1.
    0. 1. 0. 1. 0. 1. 0. 1. 0. 1. 0. 1. 0. 1. 0. 1. 0. 1. 0. 1. 0. 1. 0.
    1. 0. 1. 0. 1. 0. 1. 0. 1. 0. 1. 0. 1. 0. 1. 0. 1. 0. 1. 0. 1. 0. 1.
    0. 1. 0. 1. 0. 1. 0. 1. 0. 1. 0. 1. 0. 1. 0. 1. 0. 1. 0. 1. 0. 1. 0.
    1. 0. 1. 0. 1. 0. 1. 0. 1. 0. 1. 0. 1. 0. 1. 0. 1. 0. 1. 0. 1. 0. 1.
    0. 1. 0. 1. 0. 1. 0. 1. 0. 1. 0. 1. 0. 1. 0. 1. 0. 1. 0. 1. 0. 1. 0.
    1. 0. 1. 0.</input_scale>
  <output_scale>
    1. 0. 1. 0. 1. 0. 1. 0. 1. 0. 1. 0. 1. 0. 1. 0. 1. 0.</output_scale>
  <inv_output_scale>
    1. 0. 1. 0. 1. 0. 1. 0. 1. 0. 1. 0. 1. 0. 1. 0. 1. 0.</inv_output_scale>
  <weights>
    <_>
      -2.5235749144635823e-03 1.2286477213596170e-03
      -9.2166500774058270e-04 3.1293002709699383e-02
      -1.6861383478777099e-03 1.3370790647205028e-02
      1.7497894014276467e-05 -3.4714086661120783e-03
      9.6138443220513694e-04 1.0059178444369119e-03
      -8.7382768052522972e-02 6.4387385013830783e-04
      -1.7692106951921735e-02 -2.3249430241550893e-03
      -3.8902248970570767e-04 4.0768806484000955e-02
      1.5014824411541201e-03 1.3220513017296988e-02
      1.2608800537201344e-02 6.3665273969402980e-04
      1.6014503813893809e-03 -1.1909208125488731e-03
      -2.5039887015283792e-03 5.0482993600548927e-02
      -3.3247706417877193e-02 1.5417854629847846e-03
      -1.0879212668431103e-03 1.8263640329066254e-03
      -7.1483400358093849e-02 -5.2658087374154148e-04
      -9.4950426768126614e-04 -1.1831611345120353e-03
      6.0845172667976710e-03 -5.1379865602159472e-02
      6.0025788047411354e-03 -8.1072927204560996e-02
      2.0747229180410292e-03 -8.5106665684865478e-03
      -2.7371053530164027e-02 -8.1735806869468798e-04
      -7.0365617433944969e-02 6.2690881884086835e-02
      -2.3949500213057747e-03 5.1085912773113355e-02
      -5.6412082564715274e-04 -1.4996968790431710e-03
      2.1964197975484330e-02 4.8325653426547193e-05
      6.2760326228941329e-02 2.6388077970157815e-02
      2.8281722902292344e-02 2.9275156819070725e-02
      -3.1732428059186828e-04 1.7304566987198115e-02
      -1.0953781549913782e-03 1.0683962046793664e-03
      1.5363788469298654e-03 -9.3312263173078377e-04
      -2.2238820908066824e-03 -3.0833805503554159e-02
      6.1158961446236747e-02 -1.5705704398979170e-02
      -4.0277112106770470e-04 1.5901852568895457e-03
      4.7297143128028879e-02 -1.8269561093575083e-03
      -1.5389510923402975e-03 3.1896131393376846e-03
      -8.9656036398445924e-04 5.9878701095683129e-04
      -2.7800615979326889e-03 -7.8007703713706258e-02
      1.2209962751385656e-03 -1.2667580732375194e-01
      -2.3667859026307325e-03 -3.7524687409638741e-02
      -1.9347568518453815e-03 3.7496992576541092e-02
      -3.9136489512835319e-02 -1.2665583270386326e-03
      2.9328632616481786e-02 6.3146153575148890e-04
      7.4555283925561750e-04 -3.1706862593308786e-03
      -1.3999043457595665e-04 4.6908399628818945e-03
      1.5684295425970557e-03 4.7157616110604059e-04
      -1.2338078313422073e-03 -2.1408262613965313e-04
      5.8746328161160604e-03 -2.3054102431773896e-03
      -1.3192343270308042e-02 1.8765863441565233e-02
      1.8733123643507948e-03 -3.9495244508238231e-04
      1.3251474253875119e-03 -7.7502684872894467e-02
      -4.8682913011718838e-04 6.2645721848531540e-03
      7.3408093258695635e-04 1.0050219827298335e-03
      5.4603330526271927e-02 1.7036246424705964e-03
      3.5144053929294303e-03 5.4164781516047589e-03
      3.1461153143480785e-04 1.2482263663108068e-03
      -1.2039335932081572e-03 -3.0722539493833746e-04
      6.8247355663957924e-03 -2.1607440108787672e-02
      -2.4925875889756531e-03 -1.1146345109426736e-03
      1.1858663978036204e-03 -6.5749635791782848e-02
      1.3328754086932868e-03 6.2428677250147896e-04
      -1.0254719617191262e-03 -1.3633459331235357e-02
      -4.2164736758645995e-02 4.0571453193539199e-02
      -4.7894222878392623e-02 8.3077211550680716e-04
      -4.1333060640659494e-03 -1.9939738188094747e-02
      1.1410940599926075e-03 -3.3390239124356819e-02
      2.9807652747376744e-02 -2.4995650140881233e-04
      2.7378459035051806e-02 4.0172331660251530e-04
      -2.5727936001073135e-03 2.1624441227437220e-02
      1.5445425127182894e-03 4.8273897915024247e-02
      6.1028522271544408e-04 2.6449731232138569e-02
      3.9612208415974140e-02 1.3900813199446904e-03
      6.3663353337293886e-03 -9.7977672410759671e-04
      3.3884062833335472e-04 1.1120003359951646e-03
      -7.5043283386033461e-04 1.8124383768404813e-02
      -2.2608584815888070e-02 6.9007936545310913e-02
      1.1842816362337624e-02 -1.1919138592304149e-03
      3.8538705931043878e-04 6.9429086845991528e-02
      -2.9124313846011857e-02 -1.2723095417629170e-03
      1.5251518639670277e-03 2.7390897066317886e-04
      1.0809017908090810e-03 -4.3295067730978148e-04
      -5.9267541078649941e-02 -2.0733970505511330e-03
      -1.0189696530472694e-01 6.8962119885996372e-04
      -4.7384603138694144e-02 2.5874975140383061e-04
      3.1204399351842119e-02 -2.1217126490835746e-02
      -9.4729598394503148e-04 2.4569323678357499e-02
      -1.4270683967179325e-03 1.8828064706651680e-04
      4.4964286577457956e-03 -1.8131918692235831e-03
      1.6259001796971713e-02 2.3335713962774111e-03
      -1.3224408908745189e-03 -5.5082614928539592e-05
      1.4403778711283913e-03 3.2230331475422676e-03
      8.4742069048487076e-04 7.3234770789385078e-03
      6.1925453463501298e-03 5.8463766538334938e-03
      1.1068275964175290e-03 -2.1973420066356349e-03
      -7.6359403179152560e-02 -7.7232082732479380e-04
      -2.9398959867521024e-04 -1.3764705174079616e-03
      -2.7918452457975588e-03 5.8574305722723784e-02
      -1.5325437096517724e-03 1.3406829378248979e-02
      -1.3821194863415903e-03 -8.8471838370407290e-04
      1.5088757580060915e-03 1.2241224422277652e-04
      1.1796165859723529e-04 -5.1079831952142883e-03
      -1.8517717943626694e-02 -1.3729031227702698e-03
      5.6072129428417323e-04 -1.9485894331355287e-03
      -4.8732761351889434e-02 -5.5702963098177183e-04
      -9.1020686809672611e-04 1.6494219492944076e-04
      -2.0468569719362912e-02 -2.1384938402813462e-03
      2.3531474336154684e-02 -4.0262599390813850e-02
      -7.3465418913932137e-05 4.9725708575696238e-04
      -2.3724907325263046e-02 2.1689514801054078e-03
      -3.6306821798717921e-02 1.9970888437474462e-02
      -1.6302696788990227e-03 1.4215397590427505e-02
      -1.8932745964381776e-03 1.5239986347964471e-03
      3.5864860384049194e-02 1.0479174909488688e-03
      3.3123829364170007e-02 1.2802737944191204e-02
      1.6666236452253368e-02 1.0112584545393525e-02
      2.3674204441906082e-03 2.5461049418457497e-02
      -7.0506226782028570e-04 -2.4364090221302235e-03
      -1.2918945716323504e-03 -3.1829592134192627e-03
      -1.3850205602056744e-03 -1.0359394187754839e-02
      3.9226952004714905e-02 1.2336729478086750e-02
      1.8191201660427690e-03 1.4271011399107707e-03
      3.0778682064405049e-02 -4.4308698775515866e-03
      -1.3275213689734001e-03 -5.7127906673696193e-04
      2.7103160428263310e-03 -1.6255762234519504e-03
      2.1062336829818503e-04 -2.8930661469205241e-02
      -5.2640839692462329e-04 -9.4806438565353535e-02
      -3.1302617431623890e-04 -3.5049082817919262e-02
      -9.7488760435246604e-05 4.8688732014995330e-02
      5.8602357981372196e-03 1.0232631454460783e-03
      8.3797336530237812e-03 -1.1640454319597710e-03
      -1.8386549795878292e-03 5.8730573688780046e-03
      1.5876883978855233e-04 1.6575967995593414e-02
      -1.3188022780401918e-03 -2.7887707925817800e-03
      -1.7250008436942665e-03 -7.4739620234271062e-04
      2.4220474803221193e-02 -1.9025070220778822e-03
      2.2584471015617523e-02 -1.1622415021891182e-02
      -6.6537892782060999e-03 1.3587146563159070e-03
      1.0405778862196020e-03 -4.9785134304599389e-02
      -2.6711925674141935e-03 -2.4158981961008481e-02
      1.6734256851568135e-03 3.8401470904314962e-04
      2.5265726075989783e-02 2.2866844636456351e-03
      1.5436003518964133e-03 -1.5634403145206616e-02
      1.7942351671582650e-03 2.1043092648692437e-03
      -4.6018785047757755e-04 1.5996455996373292e-03
      3.3290463093912176e-02 -2.0398361405219684e-02
      1.2710609453149726e-03 3.8001131351683736e-04
      -1.9791506655741594e-03 -2.3366682612809164e-02
      -7.7687623123913214e-04 -3.4341171742991182e-04
      -1.9752773824558527e-03 -6.2472004885502953e-03
      3.8981707007432774e-02 2.5108049710406609e-02
      -3.9598320529414525e-02 8.4354087378440891e-04
      -9.7835547996010293e-03 -2.7228379552380950e-02
      1.5965551560382068e-03 -4.6762677527585721e-02
      3.6780149276907252e-02 -6.1838156136575403e-05
      3.7164197893408024e-02 1.3040261561630155e-03
      -4.4260187009044670e-05 3.5963005607857562e-02
      1.6448658602977507e-03 2.5521645237394253e-02
      1.5068692086849548e-02 3.4910183972638911e-02
      2.3398692772453194e-02 2.5600028374130608e-03
      2.8366137077422846e-02 -4.6350251299407747e-04
      -7.6650551636470946e-04 -2.0638094694589390e-03
      -2.9906031991865306e-03 9.5440761507894246e-03
      1.2567829910299850e-02 5.4827771990891165e-02
      1.7938618777280434e-02 1.8582245823572101e-03
      1.1984916946482791e-03 7.0241871813577833e-03
      -1.1190996985920637e-03 -1.7455317451153616e-03
      -9.9615531003591738e-04 2.1521437595801215e-03
      1.0257301866834043e-03 -5.3941548713799998e-04
      -1.6016942019192126e-02 -2.1489448743825601e-03
      -7.3155416401007145e-02 -1.3290041495216175e-03
      -1.3276182712311879e-02 -8.8068885886849067e-04
      1.6369277234914215e-02 1.2206668395703059e-02
      1.4431121059058378e-03 1.9065762995091121e-02
      -1.9768955858609121e-03 -9.0393473524025356e-04
      3.5458562316629597e-03 2.3918418130926666e-03
      3.1013981968661827e-02 -1.1501239869746809e-03
      -2.4414536785959651e-03 2.2640196094648278e-04
      -2.1800305752239530e-03 1.0691077816796690e-02
      -2.8188906387571571e-03 -3.9008228343892239e-03
      9.5053413848670294e-03 -7.6023795741133569e-03
      -1.6325783868482345e-04 -2.0615949410534582e-03
      -4.9008736090109070e-02 -3.7790211028025422e-04
      -2.9322667754274070e-02 -2.7208015768343100e-03
      1.1235575203664585e-03 3.5473532989327421e-02
      1.7552264285123670e-03 -2.0725163594615084e-02
      -3.7638076934677210e-02 -2.4469626366370521e-03
      -2.7475180424609328e-03 6.9910686190576259e-04
      1.5927516306258839e-03 1.7254983977364729e-02
      -1.5886334028995565e-02 1.7223133966800328e-03
      1.4277834872745412e-03 2.1057622946426454e-04
      -1.1702263379447034e-02 9.0876362931660538e-04
      -2.3737469869244095e-04 -1.2264014376818315e-03
      -4.9372098049058630e-03 1.9879241587705484e-02
      3.3073432813461742e-02 -2.3730308090484164e-02
      1.0342917875174661e-03 -1.8019973907823662e-02
      -1.1012859018744658e-02 1.3629903640595604e-03
      -3.9081431308965665e-02 1.0626115831362911e-02
      8.1159681151884815e-04 1.6513561257147643e-02
      -2.6321780166291197e-03 -2.3016510929887226e-04
      4.7438374164532851e-02 -1.6344344178834238e-03
      2.4491705392867574e-02 -8.0415075523748557e-03
      1.4264479458424604e-02 2.2469432960333418e-02
      -1.2299628428350847e-03 3.2995793287561866e-02
      1.5989932337040342e-04 2.0991925714752935e-03
      -8.4150609046413586e-04 3.6615611287533963e-04
      2.1210566977866434e-02 4.8069419874453628e-03
      6.7195380524884066e-02 3.7427228934493052e-02
      7.1494109517183056e-04 2.4532745081035437e-04
      3.3279989358100157e-02 -2.8452102463373197e-02
      -4.2218525606084359e-04 -3.5930297500468965e-04
      5.3974111717575732e-04 3.3982101050234256e-04
      1.4004752300952725e-03 -3.5119941357565528e-02
      1.9696795401141502e-03 -5.5330457149252069e-02
      1.3690729311779436e-03 -1.8037284027718634e-02
      -2.7097344647298227e-05 1.0392657436713797e-02
      1.0928653490004509e-02 -8.1312041336793436e-04
      1.8756574660630281e-02 1.0663570015425592e-03
      -1.8512524555984664e-03 8.7160955675457466e-03
      1.2814236575965641e-03 3.6004074085585265e-02
      -1.6122637744982841e-03 -1.7475213225522923e-03
      1.5146209764104132e-04 -2.2283478426395262e-03
      1.5358579689062939e-02 2.2612735077115337e-04
      -1.0970041887978137e-02 5.3832874906272537e-03
      -7.6813798893243541e-03 -1.8346280247996674e-03
      -2.0482137272944114e-03 -4.9967948197299474e-02
      -1.5125794289630133e-03 -3.5126519815038906e-02
      -2.0138761635407117e-03 6.3460727179264463e-04
      3.7718501440791280e-02 3.7303800942568757e-04
      -6.0291189837434521e-03 -4.3443527712260468e-02
      1.3521286432783993e-03 -1.8555444394988238e-03
      1.2817025186084646e-03 2.0194295535802161e-03
      1.8662560796790323e-02 -6.6361418016027407e-03
      7.0722799696491757e-05 -1.7747059337302478e-04
      -2.8048325871686702e-03 -8.5935787653889009e-03
      1.6513110370474026e-03 1.8182262829345079e-03
      -5.8811848207862777e-04 8.9175039106902533e-04
      1.9870789354206584e-02 1.4699741493242260e-02
      -8.5306270747230115e-03 5.7784147586702574e-04
      -2.2308637996297141e-02 -5.8980151557800975e-03
      1.0205633019883121e-03 -4.2710703108172147e-02
      -7.7719825134076369e-03 -2.2775615014927410e-03
      5.1910194161483552e-03 -4.9057958155422773e-04
      -1.8755112653269569e-03 4.7497735182760632e-02
      -1.9158344026872166e-03 1.0668457405495959e-02
      -1.0186536302930326e-02 9.5004293057656362e-03
      8.8099210400493129e-03 -1.4986631087898189e-03
      4.0351374573829861e-02 1.3475006911821885e-03
      -2.3477207164607512e-03 9.8482368952213287e-04
      -6.3400739871781334e-04 1.0879534034696299e-02
      1.2895523360077227e-02 4.3479671827711959e-02
      3.2896826154095289e-02 2.2057663956672065e-03
      1.0676420329934347e-03 4.2404929650227248e-02
      -2.2601561640947957e-02 -1.5796840924149978e-03
      -2.4742735614833352e-04 -2.4236166328819696e-04
      -5.8269659305419143e-04 1.6095743379309633e-03
      -3.4461269375479935e-02 -2.2668590358740489e-03
      -6.4479332082844260e-02 1.3101571457929605e-03
      -2.5591051569666907e-02 2.0332149694655510e-03
      2.2621188926987130e-02 7.9099722841884847e-03
      7.5496026489602791e-04 1.0178921893156100e-02
      -1.4659491799096639e-04 -2.2053468170438483e-03
      1.3942681920800679e-02 -1.9342129917959516e-03
      2.4667617768284720e-02 -1.0653491132217505e-03
      1.8726654775957615e-03 6.5551308281984976e-04
      -2.8415971675325607e-03 1.5106648469808963e-02
      -2.8537727859565313e-03 -6.7195535985973970e-03
      5.0962704072820501e-04 -1.0939147062988123e-02
      5.1765059500844099e-04 -2.8912519685261713e-05
      -4.0891736474742202e-02 1.7950793643283364e-03
      -1.8943586523536136e-02 3.9675059588480457e-04
      -3.6463997511320930e-04 3.1859827887686681e-02
      -9.7359684155274488e-04 2.7446474631307758e-02
      -2.1285865909784100e-02 4.9548148166796949e-04
      -7.0370363409282173e-04 -1.4080003589108832e-03
      -1.4036762322864231e-03 2.3367878953777683e-02
      1.1282420053495947e-02 -1.5575248321439666e-03
      2.1724926711092448e-03 1.8290231705020117e-04
      -1.5175675527295648e-02 -8.5319636409435804e-04
      -2.4182595531891376e-03 1.6082756553863408e-03
      8.2020835372509232e-03 2.9737210527276868e-02
      3.5950298508716492e-03 7.6972450330040050e-03
      -1.5363360884246128e-03 -1.6469704356524287e-02
      -5.9023509345964001e-03 -2.5777651995651523e-03
      -3.0449115616705130e-02 -1.3993296611644192e-02
      1.7553548897880416e-03 7.9938401694813720e-03
      1.0587265864579370e-03 -1.2066371664814360e-03
      3.9010250127376758e-02 2.2925180457577525e-03
      5.2560896510096440e-03 -4.0509183902008280e-03
      1.7028019989853597e-02 1.0980600073818061e-02
      -2.4500999281401163e-03 2.2247431790808278e-02
      -2.7349976448773328e-04 -2.3267233022544482e-04
      -1.3809030456171992e-03 2.8130250470664072e-04
      1.0889861812785331e-02 3.3743375104570789e-02
      2.8268843312141665e-02 9.9137913278693236e-03
      5.1869843556061259e-04 -2.5765613450007335e-03
      4.2532841465564582e-02 -1.8663509901405333e-03
      -1.4229170719485950e-03 1.0543861680688325e-03
      1.5535683679704574e-04 -4.6397871697757798e-04
      -1.6057059055701406e-03 -2.0741899857311570e-02
      -8.8607926812177816e-04 -6.4856488000806164e-02
      4.2401964822122001e-04 -3.9321742407975133e-02
      -6.1551718467572165e-04 3.2495029034454129e-02
      1.1975305956705488e-02 4.0870849020505567e-04
      1.0584074233369401e-02 1.4442915101871179e-03
      1.8236733056290167e-03 2.6434840961970393e-02
      -1.3349304029059914e-04 6.9903469630707635e-03
      1.1514232268195757e-04 -1.6624250591402217e-03
      1.3482052973859350e-03 -2.2000988367071308e-03
      2.0365022704231728e-02 1.1352667234284836e-03
      2.9332309953340682e-02 4.9619138167336834e-03
      -3.4762544994042933e-03 1.3508934930809150e-03
      -1.6483101626661597e-03 -3.9352479203286779e-02
      8.7510555817152543e-04 -8.9311686745949404e-03
      -1.3523774114759348e-03 1.3371867786231839e-03
      4.4137537709363767e-02 2.3650234721255283e-03
      2.0413979741649189e-02 -2.1603038520294875e-02
      -1.2219362021914687e-03 -2.4303398222809964e-03
      -1.5908354934350659e-03 -2.3476649002140667e-03
      2.4803968188357808e-02 1.8545941369946397e-04
      -9.5489872399776748e-04 -2.6456379332409222e-03
      -1.0520178011886783e-03 -2.2359819530699626e-02
      -9.9018471875727794e-04 -2.4146591127997760e-03
      -4.2586019000320091e-04 2.4286304721136032e-03
      4.5045110331624810e-02 7.5068880713348776e-04
      1.1696126301598350e-02 1.9881404259330129e-04
      -1.4571353034422987e-02 3.8078937245197982e-04
      -1.5455328384192443e-03 -2.7467784255515115e-02
      2.9949096168580116e-04 -1.2579119624602644e-04
      6.7716974232685818e-03 -6.7197563805161589e-04
      -1.2870197614617824e-03 3.8116722183402042e-02
      1.4501902614230964e-03 5.2134390357716116e-03
      -9.2439097222873773e-03 2.1954621684233622e-02
      1.5826374021556278e-02 1.2074227726073250e-03
      9.3566674624353668e-03 -3.4307073752463713e-04
      -2.4918637995262035e-03 1.6520480930766357e-03
      5.3504664327887587e-04 1.4646587215297348e-02
      3.2866182341251736e-02 2.8254276258620908e-02
      3.8218204255886166e-04 -8.6486816987828210e-04
      -1.7532301020052059e-03 1.8603147668184736e-03
      1.3241310493085440e-02 -2.2111457539995315e-03
      -2.3821265307091602e-03 2.4325152176517548e-03
      -8.3265345035158354e-04 1.6347847665583535e-03
      3.0592740479667264e-03 -1.0846528681544138e-03
      -6.6882041973341619e-02 -2.4829041727695038e-03
      -5.5857789226260293e-02 -1.3533574126497134e-03
      1.9817833128152908e-02 2.5764965438486592e-02
      -1.5258254279510012e-03 8.3334619785991187e-03
      -7.7386587029360020e-04 8.2404689370572378e-05
      1.0659207675342031e-02 -7.0894795574058111e-04
      3.5961873784084034e-03 -1.2738404118419996e-03
      -1.8725869872087096e-03 -6.1218987569384390e-04
      1.2725876361852331e-04 3.6195891539629821e-02
      3.3803704383328733e-04 1.3242637627246378e-02
      -1.4273528661065446e-02 -2.1548667539032805e-02
      9.4901492148478147e-04 8.2712450898887084e-04
      -4.1456675271825408e-02 -1.9874685761388710e-03
      -2.5815003079107265e-02 1.1290420128936369e-03
      -9.6215050479632741e-06 1.2546124608892296e-02
      -2.4048995940829081e-03 9.6114166109482740e-03
      -3.0802333408558816e-02 1.8273696615909391e-04
      -9.8227017919470913e-04 2.1335694298361277e-03
      -1.2154045281898864e-03 2.3512319936866293e-02
      -3.0721218314946753e-03 -2.1820142334977935e-03
      -2.1974028913566247e-04 -5.6461981874677549e-04
      -4.2413371746742555e-03 1.7238133571031004e-03
      -1.5302320088911433e-04 5.1635609950454744e-04
      -2.2280935864342786e-04 4.2250735715370358e-02
      3.4891394930128329e-03 -1.5983026573990226e-03
      -1.0388622672880667e-03 -2.7598740339807908e-02
      -7.6667296063722282e-03 -2.1903296568944641e-03
      -4.8294429811229021e-02 -5.6339974011768573e-03
      -9.3086010692490918e-04 6.1398085242273248e-03
      -2.5384110745400520e-03 3.8656721319186405e-04
      3.5745633905670732e-02 1.9949118403069367e-03
      -3.2493133332516149e-03 -1.8987428364267415e-02
      1.8335582850373337e-02 1.0624756511496514e-02
      2.1827577280773133e-03 2.8004990368749500e-02
      7.9335660756359562e-04 -2.4008624753650339e-03
      -2.3901340396695187e-04 1.6383556073713561e-03
      -9.3217455165373953e-04 3.3042841087825299e-02
      2.9883066219547113e-02 1.8345949783524065e-02
      1.6161925721586100e-03 2.3598092140938464e-03
      9.0987989043448611e-03 -3.8224140641411521e-03
      3.5676574377849760e-04 -1.8266315333260803e-03
      1.4592451676855652e-03 1.1568360217698956e-03
      -1.8415990708362448e-03 -2.1657892589938672e-02
      1.7002938580422671e-03 -5.3589266704182383e-02
      7.9220540161273713e-04 -4.0673463187379383e-02
      -1.0699550654937810e-03 2.0198089834908242e-02
      7.2264251735752270e-03 1.9189082800820951e-03
      1.5264015098742945e-02 -2.1564603090317309e-04
      1.4464083848171672e-03 1.3104960111970276e-02
      -1.4582107685470326e-03 -2.3198703983330011e-03
      1.5973359315636319e-03 1.6286526405260345e-03
      1.9632296933031743e-03 -1.0881947278139547e-03
      2.4396654419531188e-02 1.7702691652265077e-03
      -1.4298658989608005e-02 -1.8691679333736149e-02
      -3.6240927681794821e-02 7.2532725834333143e-04
      -1.6521370515851393e-04 -4.0168991795859331e-02
      -2.9735786020655573e-03 -3.2109317701409193e-02
      2.6300638488977145e-03 1.1867071288626982e-03
      -1.4168161126269872e-02 4.0195593502708185e-05
      1.5386768393779341e-02 -2.9548887773261222e-02
      1.5442080104104911e-03 2.2770658246740205e-03
      1.5092799576941671e-03 -1.2551425919256406e-03
      9.0120695639333594e-03 -5.1539796144556933e-04
      2.4822116987479222e-03 2.3650854055892231e-03
      -1.9941802014285179e-03 1.2092860790863164e-02
      -1.1656298103615331e-03 -1.2209599640477793e-03
      2.1467704708259408e-03 9.3237829342799987e-04
      3.0536984057064429e-02 -2.0334164863128265e-03
      -8.2636298620334635e-03 1.4977177882161399e-03
      -3.7264709260793942e-02 -3.4270699180676458e-03
      1.4696745424563180e-03 -6.5382894590795965e-02
      -1.3728744181702413e-02 8.3238162415853528e-04
      -4.5715979078962722e-03 -1.4870577198949453e-03
      1.0965067348534822e-03 2.9154130730014629e-02
      2.3793748768649955e-04 -1.1723228300029613e-02
      -1.7981863047770143e-02 4.7711914151126206e-03
      -7.2789377545321356e-03 -3.7379920315681880e-04
      5.1720403483912589e-02 1.1507027097496948e-03
      1.5499924238109905e-03 -3.5949693784852681e-04
      -1.5623072305014916e-03 -1.4770565537975996e-03
      4.2488510063254437e-02 2.5074929902791528e-02
      2.0669959165345423e-02 2.0340705507562781e-03
      6.4462722548854596e-04 3.4571068273698595e-02
      -8.2526049979748418e-03 1.6626792244254166e-03
      -1.2469003086956691e-03 -1.1492080889272170e-03
      -1.0282593392070668e-04 1.7902814132623275e-04
      -3.0398542647184022e-02 1.1085486464386368e-03
      -4.7772951807208280e-02 5.9171510802064932e-04
      -3.0360222041139490e-02 -5.5926447024904290e-04
      2.6280484662482406e-02 5.0799054257239396e-03
      -1.6022238975637816e-03 1.2991185324379779e-02
      1.0084842799334185e-03 1.1886736109710120e-03
      3.2118105933673036e-02 5.4210472175414014e-04
      -5.2952467502171297e-03 2.3715605937974405e-03
      1.7854020466510638e-03 2.2778568750624340e-03
      4.4756861390384168e-04 2.5660342421975089e-02
      2.4237493250936699e-05 -2.2809983264391254e-02
      -1.0409785816002151e-02 -2.9122406289816102e-02
      4.9656435580683084e-04 -4.6977459777566388e-04
      -4.1953099015186394e-02 1.6565239586770902e-04
      -2.7351587046178343e-02 -1.8910248484380417e-03
      -1.2417023915653521e-03 1.0320882787343161e-02
      -9.7329744185571643e-04 1.8241798827404107e-02
      -3.1380829162630568e-02 -2.5450470800747688e-03
      9.6695885183663082e-04 -1.1688725595132017e-03
      1.1914792688516747e-03 1.3035827724623278e-02
      3.4444780669207821e-04 1.6924742860075040e-04
      -1.8086818577530879e-03 1.7894002936304313e-04
      -4.5874863866803665e-03 2.0252629937525250e-03
      9.0774478065801419e-04 -1.1934159803015747e-03
      7.0114784027689725e-03 3.5261438122137459e-02
      1.0878199850937808e-02 -3.0449810824008604e-03
      -3.0071443193682170e-03 -3.4881830459178219e-02
      -7.0584736760837810e-03 -1.3720287083443198e-03
      -5.7744905446245075e-02 -1.9332800287003047e-02
      1.3225501827341464e-03 -2.0800577833148238e-03
      -2.5215890535382735e-03 2.1869589594867237e-03
      4.7616204538494376e-02 4.8550398054003760e-04
      4.5981646978787150e-03 -2.8838316614222335e-02
      8.0177815789943645e-03 5.9858276184569289e-03
      -1.8886880204012806e-03 4.1917976351512912e-02
      1.4237211936098003e-03 -4.0242220460283613e-04
      -1.7990127241079696e-03 -2.8226036017821544e-03
      1.3876512674111771e-03 4.0212818471244020e-02
      3.9105869777227263e-02 2.0746799808510016e-02
      1.7333590803318827e-03 1.1987764581469062e-03
      4.1853272316067468e-02 -1.2373218613021252e-02
      1.9814192916374944e-03 2.8144772125736853e-03
      5.4001566488073556e-04 1.7739411223936261e-03
      -1.9598561663208098e-03 -3.4055321336925716e-02
      1.9185737148444328e-03 -4.4383800286761955e-02
      -8.2533432146206307e-04 -2.9655117416546434e-02
      6.5018902303748210e-04 3.3628349694994987e-02
      1.5017910741004664e-03 -4.7271321751230389e-04
      1.8083704409914043e-02 -1.9902411877846366e-03
      -3.4136732462637106e-04 3.2577695549988135e-02
      2.3988491416507325e-05 7.5171637352831576e-03
      -2.4995943576933779e-03 1.8856233199634223e-04
      3.7101283920668672e-04 -2.2207247505145202e-03
      1.6748650089075622e-02 -2.4193554950068742e-04
      -2.5127172018825149e-02 -1.1215770006685291e-02
      -2.0349650524966140e-02 7.8994908693431117e-04
      -1.1963745557353322e-03 -4.3169378792964265e-02
      -2.5801526733530518e-03 -1.2169583893246587e-02
      3.3235157947078802e-04 7.5704188648642438e-04
      2.6848263701706277e-02 -7.9208722793033305e-04
      3.8624327296763607e-02 -1.5107218253215508e-02
      1.5650769576982114e-03 2.0353192396852450e-03
      2.4382044178580084e-03 1.9840942768321159e-03
      -3.2012456972839048e-03 5.5085148038029712e-03
      -1.8995277082691441e-03 -2.0952729466526517e-03
      -1.0586872548252338e-03 -1.7807867789118709e-02
      1.7474397891114671e-04 -1.8824768838605389e-04
      -2.0773689465570888e-03 8.4798389428884027e-03
      2.3408838424062130e-02 1.1904273921520003e-02
      2.4070385306968587e-03 -3.0582654671477355e-03
      -2.1118389454211777e-02 -3.3348682673008264e-04
      7.8187790675307816e-04 -3.8002163084339166e-02
      -2.4652679231622975e-02 -1.1396047326051460e-03
      -1.4985170980628861e-03 -2.0461198283121553e-03
      5.4378611323372327e-04 4.5817091656080756e-02
      2.3886275175025217e-03 9.5708406169294508e-03
      -2.2811245313032798e-02 4.0696049903413828e-03
      3.6975285813571875e-03 -3.1136968738077413e-04
      3.3847820775257109e-02 -5.3002713275951756e-05
      2.0786616259142899e-03 -1.2498826240081536e-03
      1.5431615578586782e-03 5.8589836492148354e-03
      3.6219802435519685e-02 3.5842223988117407e-02
      3.2871004150600218e-03 -1.7531072643771422e-03
      1.2965683206822495e-03 4.2529175560638934e-02
      -2.3445712627771474e-03 -1.0524674169427469e-03
      -1.0999424258058932e-03 -2.3176975669959811e-03
      1.5080426112077839e-04 5.5485168186766463e-04
      -3.4094164647839577e-02 -1.4400595402488832e-03
      -4.6284365912790254e-02 -3.7603234172786060e-05
      -5.0469890635213011e-02 -1.4494375737792636e-05
      4.8479162886050538e-02 1.5187291996352981e-02
      1.7804628821418932e-03 1.2915280194598923e-02
      1.0015835792261406e-04 2.3422975187143156e-03
      3.2996130687152576e-02 6.2446701796602743e-05
      -6.0639864902288345e-03 1.1722307414147779e-03
      -1.7425770139508404e-03 -1.5013718380089550e-03
      -2.0011182461420946e-03 1.4586724956508741e-02
      -1.0501082190147862e-03 -1.7056376701002497e-02
      -7.6759239722325994e-03 -1.1607698209347548e-02
      8.6556057812376460e-04 -1.0577710058354839e-03
      -4.6439891330113149e-02 -2.6339036030517660e-04
      -1.1253385451621585e-02 1.0870025215084650e-03
      -1.7702804715702312e-03 2.8234410273761057e-02
      1.5125452865391038e-03 2.8843404167505717e-02
      -1.1944494283652176e-02 -2.4155562924623917e-03
      1.8523752217210652e-03 7.3337221271886296e-04
      -1.3356333096536277e-03 -1.3786228773359124e-02
      1.2144369535723595e-03 -6.9863141686532081e-04
      1.4187624787397325e-04 4.7929831440689409e-04
      -2.0503656664691991e-02 -1.5521228762268992e-03
      -3.3188591155093800e-04 -1.5330859310574362e-03
      1.4574043771415552e-03 1.1738837429290376e-02
      6.2872031490766997e-04 -4.5099130083692228e-03
      -3.2599068534360049e-03 -7.9360524176698300e-03
      9.6444514192353746e-04 2.4547327227043868e-04
      -3.4705411236223026e-02 -1.1223775473817655e-02
      -2.5279654073748991e-03 1.1136328362395503e-02
      -4.9205065950394880e-04 -1.3700385150790457e-03
      3.7678977603056434e-02 1.5227346439038612e-03
      9.9778851969066929e-03 -3.2787727683725324e-03
      9.8658545780930407e-03 1.5619735402634665e-03
      -2.0392055986485089e-03 2.5463037156886938e-02
      -4.9210880079696048e-05 4.0040783381355930e-04
      1.9720367182026613e-03 -3.0398155493489148e-03
      1.6093557515978634e-03 2.5462971059664139e-02
      2.9058808240116970e-02 7.1699836541180221e-04
      7.4133239127046539e-04 -2.0964565040823826e-03
      2.5815318229845969e-02 2.2676386023720678e-03
      -1.7368908173751516e-03 2.9111508201883242e-04
      2.2891364121936041e-03 -5.1521721425905982e-04
      -1.1573242766990753e-04 -2.6685430949551742e-02
      -1.5042917160514244e-03 -4.5246656814524708e-02
      -2.0234880475051916e-03 -4.9104384805916036e-02
      1.7537255400701492e-03 5.3129210989658011e-02
      1.7236488014398241e-02 -2.1273118102371837e-05
      7.3948790196502667e-03 1.3397129675193115e-03
      2.2261952002037900e-03 2.6396198672200787e-02
      -1.8859580000916102e-03 -1.3351565242478578e-02
      -1.1066407300807058e-03 -1.5174605504725898e-03
      3.1575983509184028e-04 -2.0081975917418823e-03
      1.9670281389664732e-02 -2.8133799250839669e-03
      -9.8370202324318517e-03 -1.2358917410569836e-02
      -1.9196005093762274e-02 -2.4834791154465458e-03
      2.1740112440985235e-03 -5.8373333547235846e-02
      8.0288694107533110e-04 -1.0131269916703803e-02
      8.6663640967575269e-04 -2.1605330145533165e-03
      2.4776991623785986e-02 1.8122386119819385e-03
      3.1650430143679381e-02 -1.6181010613262194e-02
      1.4957908009924955e-03 3.8304843490957627e-04
      1.4837597773151782e-03 2.0705959915744438e-03
      -1.1155101862750160e-02 -2.0446458349770869e-03
      -2.0342405033261040e-03 -2.1582618141381777e-03
      6.4285556164685119e-05 -1.8986715387893368e-02
      9.4087212286650488e-04 1.6286820538024497e-04
      9.1964377371368724e-04 -4.4242111969601270e-03
      1.3659929176279745e-02 -1.3339740052613922e-03
      -7.2393500320930542e-03 -2.1638482748502969e-03
      -1.4449258551336821e-02 -3.1257272479591047e-03
      -9.8049680367954910e-04 -2.7030524882477199e-02
      -6.1794209110802162e-03 -2.4543429526666756e-03
      1.1698584940479330e-02 1.7293513797903008e-03
      -1.9775086008564195e-03 3.9235044991776616e-02
      -5.4538014183599188e-04 7.5522732230642311e-03
      -1.9631145856525470e-03 -1.5508213034141168e-05
      -8.5560015650555481e-03 -1.5759906293569953e-03
      3.0370033846694015e-02 -1.3972616688897137e-03
      -2.0316663092504413e-03 -1.7788699968772787e-04
      4.3331397656471560e-04 -8.4147488435236378e-03
      1.7927557208335464e-02 1.9002158706190094e-02
      5.5659883155495873e-03 2.5806483079520641e-04
      -1.1392239885501141e-03 2.1266369990314758e-02
      1.3471412797246023e-02 -2.3929058483975049e-04
      1.7349866890416844e-03 2.0271305942691645e-03
      -2.5910731812900847e-03 9.8654859028639470e-04
      -3.0673856756837401e-02 1.3465397064049802e-03
      -4.7976079181002031e-02 -1.8845894591016286e-03
      -4.4294116386555574e-02 7.6787530313424102e-04
      5.2969421365879982e-02 8.8278583468516456e-03
      1.5066818231150695e-03 3.3232043601688407e-03
      -1.0028803182432766e-03 -2.0338669487803673e-03
      1.9128578558128943e-02 1.5184576853446141e-03
      -2.1873493493307500e-02 9.0313192982782156e-04
      -1.2526523650891177e-03 1.7035580152482191e-03
      6.0201559821109602e-04 5.1549563654776434e-02
      -2.5896355048352407e-03 7.6878477557359697e-03
      -2.4422105573305593e-02 -1.9096041054828185e-02
      -1.0699435560605861e-03 -9.0992779778711490e-05
      -6.4109579215837140e-02 -2.9809377207131127e-04
      -3.3176079871964609e-02 6.4483004398290845e-04
      1.6368289200207132e-03 2.1611080549280993e-02
      -6.4807361522490540e-04 2.2101859102559782e-02
      -3.0973157011108789e-02 5.5232567583020690e-04
      1.0261920534924097e-03 4.3406361275842153e-04
      -4.3193529332563927e-04 2.2340213734554217e-02
      -1.0374792356362319e-02 -1.1398086974472518e-03
      -1.1578237255976376e-03 -1.5187712166338412e-03
      -2.1343240716828700e-02 -6.0709322917671684e-04
      -9.7901447230477499e-04 4.5079149048602492e-04
      -1.5019766193744009e-02 2.4466113342554576e-02
      3.5470595490877791e-03 -8.5769488528740999e-04
      3.0527514429012545e-04 -3.2648416504649218e-02
      -1.4286296908273835e-02 1.6565653941315543e-03
      -3.1808866252788205e-02 1.3688658158238524e-02
      4.7080678314490075e-04 3.4205070541568197e-02
      5.8522922333119180e-04 1.3847884116186980e-04
      5.7838180834141752e-02 -5.3075532318929417e-04
      1.0000021308192194e-02 -1.4801852160322657e-02
      6.8449734305584898e-03 -8.6481204750979701e-03
      1.6654826214668435e-03 3.5506549052854018e-02
      -1.4448973355765977e-03 9.7386428848466298e-04
      -1.8187248225748005e-03 -2.8003014897712403e-03
      -2.0626926671884580e-02 9.9554472867017137e-03
      1.8898829827843158e-02 1.5005360484499712e-02
      -6.2200368543205127e-04 -1.2752481342798345e-03
      -5.1325717719046451e-03 1.5177560365476054e-02
      -9.1196796748855516e-04 2.4523962682699474e-03
      -2.2608587601080561e-03 -2.1053842468701576e-03
      -1.3879550597965598e-03 -4.9430089071662957e-02
      -1.1146004190432050e-03 -5.0461611251803186e-02
      -8.1089099465850236e-04 -1.2048342651481679e-02
      1.2692858939596144e-03 4.0195603270948455e-02
      -1.5980573960568147e-02 -1.4081260933997708e-03
      1.0072191081827327e-02 2.6170837666536816e-03
      -1.9162718892539940e-04 -4.0889297273098433e-03
      2.9934354187948647e-03 -2.4534787719747552e-02
      -1.4925949406547074e-03 -2.0110803781604515e-03
      6.9321789190681781e-04 5.2946615061108516e-04
      3.5309372952513858e-02 1.1956534123278551e-03
      -2.3227370290638074e-03 -6.8845477848585796e-03
      -5.6604209218892396e-03 1.0567945372950186e-03
      1.4365221951306547e-04 -5.4902633995383143e-02
      1.4876605551786404e-05 -2.9335165967427784e-02
      -2.4005913572425694e-03 1.4193335985446301e-03
      4.2072105803571049e-02 1.3339849529572820e-03
      1.4492271715452844e-02 -4.4322294077829491e-02
      1.0452708896269169e-03 1.7602766135561194e-04
      -5.7153172487342562e-04 2.7091270986047476e-03
      2.9865021594540117e-02 -8.1793919928618963e-03
      1.7963846029610761e-03 1.0150319889191801e-03
      1.8225619948907413e-04 -2.7107251512736200e-02
      -1.9400446278391792e-03 1.0967012088243726e-03
      2.4830024281806175e-03 -1.7341963107649985e-02
      4.2977714488039026e-02 1.6443493057932392e-02
      2.8475837951336160e-03 -3.4933951833013722e-04
      -3.4388222590680313e-02 -1.3048380971051467e-02
      -1.8469628067226407e-03 -2.5635509343120182e-02
      5.9950307330396517e-03 -2.5447473277415557e-03
      2.6200723426482157e-02 -1.3999003335019365e-03
      -1.4222446979791021e-03 6.5890524301994796e-02
      1.6223010939971950e-03 1.5562121735882405e-02
      -2.4495654783960992e-02 2.3627054595101997e-02
      8.7938284576877801e-03 6.2931450024544735e-04
      2.0574004394214186e-02 1.0888283828000228e-03
      1.7018483651753129e-03 -2.5665076334374097e-03
      1.5137663781109479e-03 9.0475680429502360e-03
      1.5237583558349418e-02 5.3122042835306998e-02
      3.0621710888757717e-02 -1.8664518625863007e-03
      1.6180251034467110e-03 2.2584695065122860e-02
      -1.3194860917288222e-02 4.0426748202270223e-04
      8.6960369163864278e-04 1.0206116778477081e-03
      1.7659297685277619e-03 1.3741507610053698e-03
      -4.0899249710372010e-02 -4.7111272339206149e-05
      -5.3348945722473250e-02 1.4145716237117195e-03
      -2.4538514387848296e-02 2.1757486680176311e-03
      1.2559076069143395e-02 -6.6173105812856320e-03
      -1.2415561483550620e-05 1.9799656956578267e-02
      1.0395573652397551e-03 -2.2713877904839072e-03
      2.3933935576519959e-03 2.2073740298827840e-03
      1.7465346023164713e-02 1.9294029866438202e-03
      -1.6313733890675780e-03 -1.6464311797492264e-03
      -8.7330777757832652e-04 5.9766944963125035e-03
      -1.3278716021554744e-03 -3.5932845188436113e-03
      4.3729389611386156e-03 1.7692334094090569e-02
      6.8708079818579216e-04 -5.4767235585969135e-04
      -5.4944282062027262e-02 -2.6900353515300268e-03
      -1.7931754452268581e-02 -7.8793304960405360e-04
      2.0167928603357262e-03 6.1921479786895571e-02
      9.1382643799935257e-04 -1.9758687492040824e-03
      -4.6296455888952433e-02 -1.7710672788974679e-03
      1.6238468328041422e-03 2.5995818400816671e-03
      8.6640795589415607e-04 9.7286658564840010e-03
      -7.6277204225977781e-03 -1.0720870369971206e-03
      9.5318860476839020e-04 1.7651612150910306e-03
      -1.5891974768462557e-02 9.9095592229266321e-04
      -2.8611852062348409e-03 -1.9555673791032337e-03
      -5.3607714077049404e-03 4.6334926249951246e-02
      1.9065648242937983e-02 1.7418729091915777e-03
      -1.8263074707261665e-03 -1.9733855663812430e-02
      2.8892857269134794e-04 1.6125736511485550e-03
      -1.6992296345313140e-02 -9.6661826732288101e-03
      2.2246315100171336e-04 6.0192571455253922e-03
      -3.5755510117911106e-04 9.2399973077207062e-05
      5.5139366687015828e-02 1.4378556735002821e-03
      7.0941759908663728e-03 -2.2235552365258381e-02
      2.1891802010005488e-02 1.4033567797736941e-02
      2.1706548203018075e-03 9.0208937071413978e-03
      -2.4725881715342828e-03 -4.4797781670692291e-04
      -3.0291044592285223e-04 -1.8789505995912765e-03
      2.9409065757317165e-02 9.9546179812400448e-03
      4.8989988445329195e-02 4.5383331303094222e-02
      -7.3731935576350362e-05 -2.0263875000721683e-03
      4.4745653340128956e-02 -3.4590010445083939e-02
      1.4619917326390472e-03 -1.5372069425682879e-03
      9.9933439465755072e-04 -1.7245726113400022e-03
      -1.0070130356269690e-03 -2.4620950608092773e-02
      1.6074396568275880e-03 -5.5840769701364028e-02
      -6.1975794964968817e-04 -3.4217333511539688e-02
      -2.5250165646929839e-03 -9.3367248934067022e-03
      -8.6077064494507441e-04 -7.5553302631119234e-04
      1.1580678123873736e-02 -2.6702025767916688e-04
      -1.0584788554736178e-03 4.6842250515854522e-03
      1.3363812696219296e-03 4.4981708653301068e-02
      1.9318556835682366e-03 -2.8715841249776211e-04
      1.5897730616223271e-03 -4.5886030552338541e-04
      2.8302093940936753e-02 -1.8326342430760153e-03
      -5.2261474831949159e-03 -1.6632128773117399e-02
      7.4207742832814345e-03 -1.4689185997169914e-03
      -9.8519750188832728e-04 -5.4621542459701911e-02
      -3.0017522681810674e-04 -3.6142463535227758e-02
      1.6049986129465521e-03 6.0167179030553371e-04
      2.6714538099525540e-02 1.7895941240266581e-03
      1.3782301387583601e-02 -3.5232361829148143e-02
      2.0020658828369992e-03 -1.3703292803416839e-03
      2.5727449848243458e-03 -2.2720395752946467e-04
      2.6496704195726261e-02 -1.4551029954491474e-03
      -1.4000242364426187e-03 -2.6573512852375975e-03
      -1.7004225416837162e-03 -4.8979571734109155e-03
      -1.6027942740840624e-05 1.8294861705233497e-03
      2.3934898846765498e-03 -6.0554186583001912e-03
      5.8275791501104533e-02 1.4109266344259823e-02
      3.8827299291674783e-03 -7.1213950473964481e-04
      -2.8826623459816163e-02 -8.7829604360989983e-03
      -1.0087070468880247e-03 -4.2505857291101533e-02
      3.9787939735243701e-03 1.8070981540549368e-03
      1.8649836122823282e-02 -8.6584622572842735e-04
      -2.2008605043012325e-03 4.3875720690676211e-02
      2.9200070502297358e-03 -5.8581529657201047e-03
      -2.8229088501984922e-02 3.4172192696171784e-02
      3.7184294081467437e-04 1.1927933307575953e-03
      1.9929195957371533e-02 1.4934789259634232e-03
      1.5733548675695781e-03 6.7716862945970801e-04
      -4.4654703875159340e-04 7.9443897992775760e-03
      2.6978873574286369e-02 3.4288906884522595e-02
      4.1961106334706483e-02 2.2464906082048037e-03
      1.6498907971687522e-03 3.4652245312310460e-02
      -3.3628244925617251e-02 5.7510559076865320e-04
      6.7344693179539089e-05 2.0967501045941694e-03
      -1.1894152430456991e-03 -2.4604625346511747e-04
      -1.6178130209368483e-02 -8.9488007275241891e-04
      -5.4159539315518437e-02 2.0352201714656896e-03
      -1.8638638036169927e-02 -7.9617853966659302e-04
      -4.8216841162884282e-03 -9.0151403095800175e-03
      -2.7597802846624133e-03 1.8431404411970654e-02
      1.3002740383387524e-03 2.3981088563486850e-03
      9.5930894694261099e-03 1.0586845925833858e-03
      2.7284511284207533e-02 1.8454404615475112e-03
      -1.5170310703444419e-03 1.1394330354915606e-04
      5.9852930752932534e-04 1.8497915243258608e-02
      -2.9592312666469065e-03 2.9106151784230642e-03
      2.6041182106023401e-03 -5.3555916932203204e-03
      -3.5411683190847198e-04 5.9245004559211863e-04
      -6.2474032093308575e-02 3.7867613437159999e-04
      -4.4370419368900259e-02 -1.5394858762152234e-03
      -3.7319054163507883e-04 1.8962516899738779e-02
      -9.3901115363193780e-04 -2.0304203299615454e-02
      -4.0176036588314229e-02 -2.7591475451801822e-03
      1.2063134772804529e-03 3.7979159599762634e-04
      -1.9053325973770034e-03 3.0956241389306676e-02
      -1.9955389588682437e-02 2.0353239414021623e-03
      5.3581087049020017e-04 1.3237479510208865e-03
      -9.2180258106966881e-03 2.0678966608049009e-03
      -3.2711088775657965e-04 1.4035096918957849e-03
      -1.6786872109020384e-02 4.0423190631072470e-02
      3.6048512003969593e-02 -6.8474897814297829e-03
      -5.0620234412333061e-04 -3.1615811963690635e-02
      5.4824764285024592e-03 -2.7490012200392152e-04
      -5.4440597379873452e-02 1.8669476313248643e-02
      -4.0481018239851369e-04 1.5933045631415833e-02
      9.0090059230377856e-04 1.2766662647018567e-03
      4.8342691687366705e-02 -1.5042944189423571e-04
      1.2789257317353309e-02 -2.8593698079185437e-02
      3.0057602456006600e-02 1.3752855245859105e-02
      5.6490547349757718e-04 2.8377729551387419e-02
      1.0877044760329920e-03 -2.3434539642002867e-04
      -6.4865238084333462e-04 1.3365629939523210e-03
      3.7149954204887481e-02 2.0070729330305018e-02
      7.4650679775893569e-02 4.4032974166357305e-02
      4.4122813536750366e-04 -1.2904272720008385e-03
      4.0627073458183650e-02 -5.5641236679185704e-02
      -2.3656536046569843e-03 2.1973683758122532e-03
      1.3565545477276317e-03 -2.6119283968711235e-03
      -1.6745526431190473e-03 -2.6244218493066112e-02
      -7.2188115722934376e-04 -5.4067249419159413e-02
      -6.5794876483368076e-04 -9.4451863843881077e-03
      -1.1797728036118959e-03 -1.6299698441110861e-02
      1.4814535245605333e-02 -1.3782585506588838e-04
      2.4180749025026250e-02 -1.7644223801041726e-03
      1.9019190765908486e-03 1.0369826948579868e-02
      -5.6081314733599753e-04 4.8434003165024601e-02
      6.7597806728165861e-05 -1.0217377712165359e-03
      9.1482330241329844e-04 -2.1687263212896470e-03
      4.7524850492445727e-03 -2.9717199821993525e-03
      4.6324855989033796e-03 7.1719887811062409e-04
      3.6719791309764639e-02 6.3763559676794526e-05
      1.3064194934281704e-03 -6.1151559112136628e-02
      1.1034809914750275e-03 -1.9943571264303399e-02
      1.8928072141257369e-03 -6.6474979364171004e-04
      6.0171426918731404e-02 -4.6000021697273808e-04
      -8.7081448754267547e-03 -3.7712483744008207e-02
      -9.0194354407205325e-04 -9.1062068333516374e-04
      -1.7809280068078104e-03 1.6020991342618840e-03
      2.9256785510780349e-03 -1.6448662007409513e-02
      -6.1533666249850939e-05 4.2931136898059752e-04
      -4.9502405620867871e-04 -1.4061917570181034e-02
      -2.7412722940537660e-03 -2.6842935317951196e-03
      -1.8617001826586020e-03 -7.4560465963752452e-03
      2.6990820738060473e-02 4.4523354643463076e-02
      1.8301604325910879e-03 -4.6437838834676155e-05
      -1.4696952917305151e-02 4.9106485892366335e-03
      -4.9341602637617739e-04 -1.8439879072336008e-02
      1.3570304379531240e-02 4.5166189592529799e-04
      2.2301931734404014e-02 -2.3161874742812717e-03
      -1.6780827158470206e-03 4.9225175695264807e-02
      -1.9422930280791728e-04 1.5383981738229321e-02
      -1.4438093684078128e-02 3.4315560573477788e-02
      1.4329293452780880e-02 -2.0783100731509461e-03
      1.8295754372655768e-02 -1.2933054222244017e-03
      2.1130487665243290e-03 1.3357786419004511e-03
      -7.2917753614575270e-04 2.4527638672702169e-02
      2.6429717429953168e-03 4.3103317039326086e-02
      2.9439942478266860e-02 7.9183811622482870e-04
      -2.1368213284012405e-04 2.8722408854135982e-02
      -3.2626365411751068e-02 -8.7909708541965737e-04
      2.1527200696516309e-04 2.6839303234630326e-03
      1.5537233974488730e-03 -1.6738317269577297e-03
      -1.4320183221708360e-02 1.2364480234752016e-03
      -5.9420416399546358e-02 -2.9197564645136345e-04
      -2.1385741259324863e-02 2.1066488820530890e-03
      3.7094371875213603e-03 7.7112133607643617e-03
      -2.4141767811897506e-03 6.6426270832282463e-03
      1.6133475916782207e-03 -7.9278614830904798e-05
      -1.4294925223402295e-03 -1.5561885436700112e-03
      4.8374260299507053e-02 1.8742841559244072e-03
      1.3112011362451396e-03 -1.0111601331057490e-03
      -2.2087742325939378e-03 2.5068303666415489e-02
      -2.4613595451793593e-03 2.0061753778990313e-03
      -2.0615980293223240e-02 2.3286026294009825e-02
      -2.2897737674748659e-03 2.3437602226091927e-04
      -5.4533944488587748e-02 -1.9466192116085622e-03
      -3.1483707174431989e-02 -1.0022009157825884e-03
      8.7229782511926877e-04 4.9069164071281222e-02
      4.2278421524803082e-04 1.0132080146291097e-02
      -3.5499305206385057e-02 7.0404143931469094e-04
      -1.5189092818302188e-03 1.4330030671250915e-03
      8.5042345459684920e-04 1.2576186976884474e-02
      -8.3504950101402058e-03 1.1501333574211008e-03
      -4.9478666756642357e-04 8.2171965526322784e-04
      -1.0076800015649777e-02 9.3841981426572626e-04
      2.1281496473331244e-03 2.7478836476934335e-04
      1.9094210089558420e-03 4.0268363275810189e-02
      3.3243159457814427e-02 -1.3356983255165870e-03
      4.4519210431423939e-04 -2.5424115128531544e-02
      -1.6734818554603931e-02 -1.6071318788188037e-03
      -2.9926717969652201e-02 6.0320960630453587e-03
      -1.0440796361558535e-03 2.7448713496650869e-02
      1.7838396133277301e-03 1.4044309232633247e-05
      4.9843005721425193e-02 -4.8453601279685926e-04
      1.4291965903971446e-03 -1.0666311363929015e-02
      3.5755131103943877e-02 1.4198419555285036e-03
      1.8436337342630173e-03 2.1031160937110997e-02
      -1.4047286593490889e-04 -1.8228173338462272e-03
      3.5058089051945627e-04 -2.7603349047039933e-03
      1.1264384538644739e-02 1.0913713169044912e-02
      3.4102934582403689e-02 3.7699887909019965e-02
      -1.6116678487735616e-03 2.2283071848823851e-03
      1.9768384966959918e-02 -1.2251660284929737e-02
      6.7873517384178458e-04 2.1343861352408197e-03
      -9.4244603118838011e-04 4.1664497876419304e-04
      -4.8062119641723606e-05 -1.5203288231312912e-02
      -3.4361816908202742e-04 -6.0556011304762014e-02
      7.5696851446883505e-04 9.6985134053610635e-04
      2.6552199802300100e-04 1.2732979280627771e-03
      -1.6164461272147467e-03 1.6488961360718330e-03
      9.5176797674301882e-03 1.2640210039111723e-03
      2.6384831546101264e-03 8.4129579345102682e-04
      -9.7230106577907800e-04 3.7812380569244027e-02
      -2.1680528192356916e-03 -1.8488579488352334e-03
      2.6864147234184413e-03 8.7063376110722629e-04
      4.1375095830814675e-02 9.6779802279739480e-04
      4.4313242427104169e-04 -2.1662460596287157e-02
      -3.1974106982251144e-02 -1.0207304851781224e-03
      1.6484292065167862e-03 -6.2157167367136112e-02
      -4.8572999019699646e-04 -5.4984812424446410e-02
      1.2863857840449756e-03 -2.5179999316228075e-03
      1.0726032987075237e-02 -1.5167566435471743e-03
      1.4555636505247769e-02 -4.5185906169836407e-02
      -2.3413791482740942e-04 1.8074127995801091e-03
      2.0429346541730705e-03 -4.0054838370290883e-04
      3.3938177905273842e-02 -1.4402996430344263e-02
      1.8662559980252124e-03 1.4184733578459726e-03
      -9.1298359249349548e-04 8.9420166066646843e-04
      6.3917729865340636e-04 3.8495691150365933e-04
      -7.2511075777743862e-04 6.4979925826288898e-03
      5.3198278344687391e-02 2.3317908431938199e-02
      -1.4162024721649047e-02 -3.0118922993901068e-03
      -4.9592178457992950e-02 -2.5765392013522813e-02
      -2.5258187505506533e-03 -6.5121091226140057e-02
      7.7174248258011424e-03 8.8273784979670292e-04
      3.3022344571712693e-02 -2.1501329111468272e-03
      2.4220503086519254e-03 6.2139946279586286e-02
      -1.3032877216131130e-03 4.0575616288477893e-03
      -2.0765906820774102e-02 1.8715456471890574e-02
      -8.1753827380993422e-03 2.8656328169417681e-04
      5.0803838909425816e-02 -2.4253278936695578e-03
      -1.3239922618124651e-03 -1.1889364528607431e-03
      -3.2265080831541354e-03 4.9895218225427989e-03
      3.0002242651922896e-02 5.1666602414540505e-02
      4.1456502267463127e-02 -1.9660817124428028e-03
      1.4495180985648628e-03 1.5639219290552665e-02
      -6.4782499024333045e-04 -1.2251228046171660e-03
      2.1670629656819502e-03 5.3294442056621677e-04
      -1.5058785086225900e-03 2.5255279047325207e-03
      -5.0881243295645071e-02 -2.0489583908728297e-04
      -5.9821609521996714e-02 1.5009966083981727e-03
      2.3095818904672858e-02 -5.0501404357749223e-04
      9.1242842703425694e-03 -3.6973559838375330e-03
      -1.8440843864879284e-03 2.2098637127596767e-02
      -1.2898687911051022e-03 -3.9895715638455404e-04
      1.2321454066461256e-02 -1.4098122828485639e-03
      2.2548965244362725e-02 -8.5186796081320598e-04
      -9.1417469369297244e-04 -5.4785556553663725e-04
      -2.2809261431581151e-03 4.6549683130159364e-02
      -2.0994414641864762e-03 -1.5328720717221227e-02
      -1.9187994617246015e-02 -5.8798622583915536e-02
      1.5565339793576990e-03 2.0978343405111551e-03
      -6.6789641974459135e-02 -3.9209679429441256e-03
      -4.8955125213078349e-02 8.0135412902453389e-04
      -2.3112837963011109e-03 2.0017424229733724e-03
      -2.2167029704902646e-03 1.9757785730212141e-02
      -3.2624846720376327e-02 -2.4554179352859590e-03
      -1.1714759348505971e-03 -1.7951282619847748e-03
      2.8375497423364236e-03 2.4558072674883812e-02
      -1.1667878127431499e-02 2.2974886425645245e-03
      1.9625589155223100e-03 -3.1469978591271337e-05
      -6.5367515169155637e-03 5.2834842683323399e-05
      -2.4031146443784755e-03 -3.6312502301379779e-04
      1.3243983160854537e-02 3.6420540760570365e-02
      6.1753548445640481e-03 -2.2761270315889180e-02
      -5.4417111619596233e-04 -4.0984684083889882e-02
      -2.6325920497336730e-02 -6.4694904906895492e-04
      -5.8757100014054306e-02 -5.0716715788149897e-03
      -9.2584426831209400e-04 2.6089523696956968e-02
      -4.4877173069358928e-04 -1.1981644652162581e-03
      5.6527773920695322e-02 -1.0777001023452066e-04
      -2.3413765690130021e-04 -2.4981115559439035e-02
      -7.8625849699300379e-03 -1.6419886297490152e-02
      -3.8297925837144423e-04 5.7528485384325513e-02
      3.6444513853046279e-04 1.3665819069663416e-03
      -3.7228729314270353e-04 5.1702754232951277e-04
      -3.8884204564150300e-03 3.1043152074684294e-02
      5.1871071521237683e-02 4.3775628870071512e-02
      -8.7980230328049995e-04 4.0632582657530437e-04
      2.8823740474929218e-02 -7.9092832942501048e-04
      2.3880195070128597e-04 -2.0174730763687782e-03
      1.6430346088270649e-04 -2.4511196128533677e-03
      3.7043747425322663e-04 -6.4083276546439583e-02
      -1.2062336083080521e-03 -6.4942637992437782e-02
      -2.7750944703593770e-03 1.3101160508655899e-02
      2.1708782045036096e-03 2.5948213645233465e-02
      -6.0446049057179046e-03 -2.0817072431923646e-03
      2.3965527776757613e-02 8.1347586739058874e-04
      2.8415661278577658e-04 1.6588496524587184e-02
      4.6105426819409548e-04 -1.4218672877101865e-03
      4.9066237780851592e-04 -1.8887012581652405e-03
      -3.4015054765029959e-05 -1.6438384235966247e-03
      5.0158642570812713e-02 -6.7441602766354306e-04
      -3.8453645828160514e-02 -2.9373164083221513e-02
      -6.3643296232680960e-02 2.2862895662937536e-03
      -4.7510993463395441e-04 -7.9050438432320333e-02
      -1.6445843513797345e-03 -4.8222479958482681e-02
      2.8479771333127244e-03 -2.2588437252701382e-03
      -7.8091506747187496e-03 -3.9333703609146072e-04
      3.5010173533047070e-02 -3.1350450163364116e-02
      -1.1614344850013551e-03 -1.0199955352943370e-03
      6.3418133030411993e-04 2.7360403619877708e-03
      1.8805387235708244e-02 1.4484001567970849e-03
      5.2988110736578624e-04 -5.6209248816794892e-04
      -4.2133970391417311e-05 -5.9978996011882573e-03
      -2.1341825796230168e-03 6.0473729243231116e-04
      -1.8740451374331670e-03 3.0991763143759392e-02
      2.8038204449827572e-02 -4.8086718891482989e-03
      -2.0476737932290545e-02 -1.1560289831757514e-03
      -4.0067510511748131e-02 -2.8681084013147656e-02
      -1.6351970905587804e-03 -5.2300410678780711e-02
      -1.7530939383762923e-02 -9.3969671455791887e-04
      1.5591147118665910e-02 2.1062405050344714e-03
      2.3072216442308110e-03 5.3833996370313102e-02
      -7.9117087762876133e-04 -3.7308757342714299e-03
      -3.0680007642832876e-02 -1.8028001179373424e-02
      -2.8460440773155581e-02 1.0274356747705798e-03
      7.1966286224095746e-02 1.2795946534799567e-05
      -2.1725464454695129e-03 7.4927467821350334e-04
      -2.1236260047642567e-03 -2.3814674303894851e-02
      3.0572660095461841e-02 3.0235296083331156e-02
      4.6016920214213192e-02 -3.7522272204368201e-05
      1.8413870758870834e-03 4.8930881292904009e-02
      7.6687654485628684e-03 1.1929783120127407e-03
      1.8764737254459119e-03 2.0919285444896602e-03
      -1.8765393877073838e-03 1.5851242049282439e-03
      -7.3859848545687265e-02 2.1763326582250678e-03
      -6.7862779886523297e-02 -9.0563148598154792e-04
      -5.5504018959920366e-03 1.9827747522038440e-03
      3.8275567708250940e-02 -2.4806928856906486e-02
      6.4601318548463066e-04 1.8087752325276783e-02
      -1.4298096213551828e-03 2.2765222668842452e-03
      3.1729528980252386e-02 -4.1582433430795509e-04
      -1.8752581766003213e-02 2.1553638330273230e-04
      1.8401532870084662e-03 1.3720508148485969e-03
      1.8116825805309525e-03 3.6233723444613571e-02
      -2.5447372928706843e-03 -3.7944326071081079e-02
      -1.6097061746412372e-02 -5.2637755965830937e-02
      2.1244277753979506e-03 -2.1026408783837752e-03
      -8.7596907669493351e-02 -2.5578403457479794e-04
      -3.6308461822000940e-02 2.9569928572048001e-04
      3.4973198311541079e-04 1.3243133466606006e-02
      1.4648745993875785e-03 3.4909832811619038e-02
      -2.4861247712485050e-02 -2.4428497624529841e-04
      2.6488270540297450e-03 1.9284166163284449e-03
      1.2262388407841209e-03 -7.5348050909680947e-04
      -2.0493110555125150e-03 -1.5593445601533292e-03
      2.2856684189208142e-04 2.4083131499220113e-04
      -1.5810765672685887e-02 -7.3414833059970224e-04
      4.6652544776588337e-04 8.0623460598462551e-04
      2.2013106303771481e-02 2.1340677482107953e-02
      9.6400493471609952e-04 -2.0072934557664721e-02
      1.5506399459428948e-04 -2.8791722979593183e-02
      -2.0177133253894228e-02 2.4338139378342885e-03
      -5.0518569128492105e-02 -2.1250679913066270e-02
      1.6524852128112549e-03 1.0544007427361765e-02
      -1.8344659198680818e-03 1.1706787450569995e-03
      5.4989564025910105e-02 9.2199508057207061e-04
      5.3547856967353831e-04 -3.2433608425923327e-02
      -1.3610516362602965e-02 -1.8477997581893765e-02
      2.1352321750212926e-04 6.4416763590224732e-02
      1.3697017015668754e-03 7.2492005465474014e-04
      -1.6519425158544880e-03 -5.5684698357311624e-04
      -2.1390602000218792e-02 2.3923225826853335e-02
      3.3257324756350938e-02 4.1096369511860485e-02
      2.3842072403258141e-03 -9.4259046575630721e-04
      4.9651972770533626e-02 8.7339780095589670e-04
      -2.0297581465475853e-03 -3.4717261371070820e-04
      1.9269157891081323e-03 -1.5759157517417478e-03
      2.2635693162175365e-03 -6.6543273863086602e-02
      -1.0632134082610822e-03 -6.7722130995508140e-02
      5.5054516862962008e-04 -2.3555029878636318e-02
      -1.3999086697234985e-03 4.8852550748486531e-02
      -1.1076751576160070e-02 6.6407940976270785e-04
      1.0255790160195035e-02 -1.3205354728398904e-03
      -3.0940841535460851e-04 2.4766172618459245e-02
      -1.2673465367196270e-03 -1.5590024753984702e-02
      -7.9085474088105617e-04 -2.5676182643230346e-03
      2.9654036932401980e-03 -1.3674152257570542e-03
      3.5621169063785506e-02 -2.4099469879152423e-03
      -1.7040673757987120e-02 -1.1143865437704367e-02
      -6.4726045224009279e-02 -1.5300910909758802e-03
      5.7808509112217382e-04 -8.4584559127945311e-02
      -3.2672758812655974e-03 -4.1001473209342602e-02
      2.3663168422550420e-03 1.1220123198579322e-03
      8.1620163051935035e-03 -1.8039052852136003e-03
      4.2552815561515529e-02 -1.8171108217793438e-02
      -9.3016001424140815e-04 9.1321209931349650e-04
      1.7147552132278710e-03 2.2456139576729935e-03
      1.4852016341660080e-02 1.0756601940720345e-03
      -1.2259290982675954e-03 -1.7295137912747805e-04
      1.8803653277442666e-03 -1.8678358567156914e-02
      -2.2588292004230943e-03 -7.7246410696689752e-04
      -8.7452776404150934e-05 3.8544611599933352e-02
      4.3194777012429540e-02 6.2321856788124328e-03
      -3.2951939624902581e-02 -3.2383471505731984e-03
      -3.6224544107992050e-02 -2.9560095458098772e-02
      7.9062234771156792e-04 -5.6764362330727645e-02
      -5.8108702524668904e-03 8.6909510287241985e-04
      1.9985089437052388e-02 -2.0101652109016733e-03
      7.7542728599721688e-04 5.4875207700168002e-02
      -1.4142495251627276e-03 8.9059553889573994e-03
      -2.3115834531787130e-02 -3.3056620071725451e-03
      5.8142370723351391e-04 -2.5121847197035691e-03
      5.8832765478892463e-02 -1.3699525309894442e-04
      -2.5720250684485254e-03 -3.1064312749021594e-03
      9.2564258469866401e-04 -4.4207171808180014e-03
      5.0933113860415200e-02 6.1360631614850718e-02
      2.7659241672672266e-02 -2.5628394637915251e-03
      -6.3456809671260978e-04 4.2519792218933164e-02
      1.3322115731824336e-02 -2.0601473473632510e-03
      8.0441385050739636e-05 1.0242989387166688e-04
      -7.9558694617747657e-04 -2.1643874851379956e-03
      -4.6927226840054195e-02 -1.0664820397854153e-03
      -7.0342282788549509e-02 -2.6576466893135420e-04
      -2.4168589699515030e-02 -8.1964468554810018e-04
      4.0410542682603273e-02 7.2328246827524064e-03
      -2.1156585448311663e-04 2.8198538884671675e-02
      -1.4237364233024869e-03 1.1661611233299857e-03
      4.0907908324281705e-02 1.1219395053692438e-03
      -6.2285083056572831e-03 -1.5502494108409351e-03
      -2.3946902993880219e-03 1.1507019186126658e-03
      1.3436490357539822e-03 4.4690673140964948e-02
      1.3404422716726625e-03 -4.1266663591632162e-02
      1.3206843359306084e-02 -4.6407370948940575e-02
      -2.0200563030938340e-03 3.3599461003703325e-04
      -6.0262792931065977e-02 -2.1150322248857437e-04
      -5.8935937387951907e-02 -1.2355585288723709e-03
      9.2179149646639939e-04 5.8058514467644665e-03
      -3.3474601584697398e-04 2.6357214907298466e-02
      -2.7580197253236929e-02 -6.5646567184322456e-04
      -1.6944806728667930e-03 -5.4881678793509405e-04
      -4.9957008471435572e-04 4.0217962213641975e-02
      1.2626438243059842e-02 1.3825479130230988e-03
      1.2277634061053262e-03 -1.1710742769098657e-03
      -3.1882102416974513e-02 -2.1801607731070467e-03
      1.9283377840437479e-03 -1.8171321503057599e-04
      2.9611619429910349e-02 5.5526068969166689e-02
      1.0882983178013075e-02 2.6602621952382538e-04
      -1.1591023881929372e-03 -6.8867623173682904e-02
      -4.1460009842725930e-02 -3.3829493745012100e-04
      -6.2773765670302975e-02 -2.0735837863337853e-02
      4.9461163198168720e-04 3.0652096097397497e-03
      -2.2542474414404975e-03 -7.9861328675433544e-04
      7.4457091888773100e-02 -1.1953548361164524e-03
      1.0563457373944294e-02 -4.4994568826933042e-02
      1.2007078311194816e-02 4.2561313861150786e-02
      -2.3820193917322911e-03 2.8568234436439612e-02
      5.0817765082482856e-04 -3.4416141419483773e-05
      -7.8633242877093623e-04 7.0113146832464666e-04
      2.9271340553150060e-02 5.0911567006942701e-02
      5.8747321552086278e-02 -3.6592333836407706e-03
      -3.3102607301549323e-04 2.2054885133461250e-03
      3.4407579837452233e-02 -6.8769141273504952e-03
      -1.8146751307584583e-03 -5.2006865616028468e-04
      1.3724956662343702e-03 1.9912352833622814e-05
      -6.7509569017888866e-04 -5.4429283426121758e-02
      1.3659950379733793e-03 -3.3217717801081549e-02
      -9.5093224523872888e-04 -2.1161348271758508e-02
      -1.5984469092881043e-03 -1.4606665139511256e-03
      -6.8425577157859142e-04 1.4096191878829789e-03
      3.3595124503390125e-02 -2.4473499289446123e-03
      4.3729610712632755e-04 2.5001231497318355e-02
      6.1821472399595549e-04 7.5120903499110428e-03
      -1.1561673660081537e-03 -2.6506719242516746e-03
      -2.2511204977077614e-03 1.0225570505488055e-03
      4.6469979640215202e-02 -1.6693674857878166e-03
      -2.4032588713986530e-03 -3.8467599937525548e-02
      -1.4956514174433030e-03 2.0003711636368262e-03
      3.2651602993159456e-05 -7.7755101022196960e-02
      8.6140814174436844e-04 -1.1352923407484493e-01
      1.1456581619606753e-03 2.1158475272489238e-04
      1.0960282730928933e-01 1.6334429021856128e-03
      -1.1570636061260081e-02 -4.5985199191125890e-02
      -1.4229763896296949e-03 2.2235312340957033e-03
      1.4483066392252017e-03 -3.6106266840286311e-03
      1.2051389708214880e-01 3.9593304069704217e-02
      8.2511337551706095e-04 1.5955511618959665e-04
      -1.5442039894881200e-03 -1.1357053857209946e-01
      -1.4839675396797177e-03 2.9928596829604712e-04
      -3.6896939333123707e-04 5.0198131775642529e-02
      1.1134373149034786e-01 4.6099932757009091e-02
      5.3494017312012997e-02 -2.0250201084815417e-03
      -1.3020856060712505e-01 -1.3465399179291740e-01
      1.8223954312109264e-03 -1.1616296474582176e-01
      -1.7093907281924503e-02 -3.2782453081595765e-04
      -4.1030551636884703e-02 -2.8245190383632559e-03
      1.2244588951020078e-03 1.4081940601901677e-01
      1.7264820433646126e-03 4.5911876706606687e-02
      -6.3201390658901166e-02 3.1652779368470579e-02
      4.7811868778898627e-02 -1.2880007486834998e-03
      2.1695935250340023e-02 1.7527750478767304e-03
      -1.5024849794598885e-03 -2.8478469264369517e-03
      2.7412445840400192e-04 -5.1952551520847668e-03
      3.3862983587640276e-02 -1.7125352759471118e-03
      -2.4512192723989582e-02 -6.1587653991814677e-04
      2.7951517253705028e-04 9.9546178304388930e-02
      -4.1229197742363770e-02 1.5927378356418069e-04
      4.5946734817135191e-04 4.6623395958943724e-04
      -1.7582089377264336e-03 2.3529760496528141e-03
      -9.8145955685134387e-02 1.5103466602977560e-03
      -8.1940721586049342e-02 1.5350460008170307e-03
      -1.5331819820481332e-01 6.1547234793326785e-04
      -5.1262800669969369e-02 -8.5921134544791181e-02
      -4.4212680313084865e-04 3.8719697102269503e-02
      -1.0229372257084522e-03 -2.8486248471834307e-03
      4.1199283398771804e-02 1.1625248175609016e-03
      4.1681690216325493e-02 2.0664270210648790e-03
      1.8776389774877423e-03 -1.4183490069413257e-03
      -1.9251380860911137e-03 -1.8919704727677112e-03
      3.8171642645848532e-04 2.1171968209668227e-02
      1.0501193443857111e-03 -3.1753922040269915e-03
      2.2033640547346649e-03 1.2450920781717646e-03
      -5.9405442626727041e-02 -2.3124040529056418e-03
      -2.3040718664896513e-03 6.0913155519604047e-06
      -1.5442012039999182e-04 2.8464747745824484e-02
      1.6664507433869495e-03 9.0635073165151875e-03
      2.1055866300651503e-02 1.7825314482082817e-04
      -2.1506033407729937e-03 -2.3250364576585933e-03
      -1.9613463225097343e-03 3.3086018676132721e-02
      -1.6090053649896605e-02 -2.8545424968599493e-03
      -2.3097485751786546e-03 -1.9395601807359693e-03
      -5.5788806400553351e-02 1.0068670208340442e-03
      -1.0959207058919777e-03 -1.0410292893567980e-03
      1.9356804994247776e-02 -5.8061160259653966e-02
      -6.5365410607859499e-03 -7.3666680430987494e-02
      -1.3999784606984965e-04 8.4470565695315657e-03
      -2.9549508209054560e-02 9.5755374782888496e-04
      -4.6375622046415661e-02 5.2773718906452216e-02
      1.7275729920827902e-03 2.4950991698209607e-02
      1.9054385371964438e-03 -4.1887101432563575e-04
      -9.0142746271040641e-03 2.4561886410469514e-03
      4.1887860467484959e-02 4.4846495233848663e-02
      6.4774417208252315e-03 1.8226148342053296e-02
      2.2087972581385290e-03 1.4501411476727562e-02
      -1.3952407831455550e-03 -1.2076063935777433e-03
      -1.7763289641634923e-03 -2.1505855121112731e-03
      7.6415810849364283e-03 -3.0202290658517327e-02
      2.4132561089835830e-02 -2.9673101947911309e-02
      2.2306457897112364e-03 -6.0134574043902149e-04
      3.9996113144585982e-02 2.5903826758642376e-02
      1.7294081189499571e-03 2.8102364645255693e-03
      -1.5479810269162326e-03 8.5713540418131111e-04
      1.6753569969492249e-04 -5.4077980534144421e-02
      -1.5153847911583774e-03 -1.0304128979805184e-01
      -2.0584461106236914e-03 -4.5918197234276661e-02
      -1.2004840771950333e-03 8.4949391330276253e-03
      -3.5510805459762096e-02 2.3152523251593086e-03
      1.7169440044600779e-02 -1.7378830413645404e-03
      -2.4551482470825314e-03 5.5647306684087879e-03
      2.1262242653957595e-03 1.6868786467319887e-03
      -2.1056819136616037e-03 -2.2804848503818350e-03
      -3.1044266375707108e-04 1.2079256967148799e-03
      -7.2547767537749714e-03 -4.6425728436087161e-06
      2.2679049604161824e-02 -2.7023160081722192e-03
      -1.5918659449120063e-03 8.7070556310688669e-04
      -1.9278162456079556e-03 -4.3296717496907104e-02
      9.3516521049267633e-05 1.6780411571011459e-02
      -1.0918159279381628e-03 -2.1525894090901887e-03
      9.0225221902596985e-03 6.8985597445480099e-04
      1.0258512046171278e-02 1.9206007473797110e-02
      -3.1585384665395867e-03 -1.9301462506031478e-03
      -1.3429328161865468e-03 -1.8935391703357601e-03
      8.5191486643437873e-03 -1.0389862164182211e-02
      1.2847315205117972e-03 -1.2081887743655193e-04
      -1.1902518337324117e-03 -4.7805175206124144e-02
      1.1517793313744122e-03 -2.5774306588534335e-03
      2.5137048820920052e-03 2.3499391103614024e-04
      -3.6142458227536478e-02 1.5438024535228684e-02
      -4.3847367943876024e-02 -7.4558861874282850e-04
      6.6385580450944604e-03 -2.4170445035544399e-02
      -2.5087798024475743e-04 -1.2761918073296219e-02
      3.6667086433504664e-02 9.9761574092944723e-04
      1.1844360982997612e-02 2.0206511375027345e-03
      1.4821424468106047e-03 -1.7670672802180848e-02
      8.2314150276144391e-04 2.7378892211764982e-02
      3.7133197793036594e-02 1.2618884445243599e-02
      1.7177084779377204e-02 -2.1722271234868046e-03
      3.9200833477804143e-03 1.6953858722974890e-03
      2.1708414658914367e-03 -5.6248512601995851e-04
      -1.0784621989098086e-03 1.6953566073262174e-02
      -1.7798981021474407e-02 1.9196782910497177e-02
      -1.5787845063806979e-02 1.5796273105233426e-03
      2.2482387677994261e-03 2.3451019701994428e-02
      1.8315983488642509e-02 2.3531086094323683e-03
      -1.9166268072191039e-03 2.1988379846383257e-03
      7.9943689914958491e-04 -2.8218915499632039e-03
      -1.2079235372512605e-02 -1.7146107885686655e-03
      -6.0394212882891374e-02 2.0356151119352321e-03
      -2.5909426165561401e-02 2.2098205314732317e-03
      3.4193351969130062e-03 -1.9269224981041534e-02
      2.0672987996160069e-04 1.4133741013051426e-02
      1.0522009281185603e-04 -1.7136718572907609e-03
      -4.4993163634863154e-05 -1.0009985175417581e-03
      -6.1286822364955027e-03 -1.8068784011714611e-03
      -2.2559167352770898e-03 -1.5515903981799225e-03
      -1.6703330410884241e-03 7.7217081299171472e-03
      -3.1997345990420322e-03 2.3973156683746027e-02
      -7.6859502267079853e-03 1.0934001328836158e-03
      2.1742434662918001e-03 1.3594972151175198e-03
      -3.7917346141377463e-02 -5.4906753468679514e-04
      -9.6961092439482542e-04 -6.0061220980401221e-05
      1.8750033480665582e-04 2.5360482754663984e-02
      1.6235357382480631e-03 1.5650730450724643e-02
      1.0038789012691467e-02 -2.8727330160078807e-04
      8.9534945050252985e-04 -2.6462379250979861e-03
      -4.6716929497213192e-04 1.4189475110841338e-02
      -6.4094380506017328e-03 -3.0508013223703142e-03
      -1.4627882340140973e-04 -1.5303212175716988e-03
      -4.1354600614036022e-02 -9.5717766509045984e-04
      1.1834451857403875e-03 9.8988319505249238e-04
      -5.3298704485193384e-03 1.4338554727477696e-02
      1.2224430176010272e-02 -3.9607871825864581e-02
      2.3939296386937150e-03 -1.4494845652507850e-03
      -3.5033861011187634e-02 -2.4113267160204157e-05
      -2.0746810334396130e-02 2.4475344931919569e-02
      9.1230278486877233e-04 1.6577688512243872e-02
      7.3990816989873891e-04 -1.7102170315510408e-03
      1.6135800958971280e-02 -1.0377679583261315e-03
      1.7503422289025738e-02 2.7671817618154886e-02
      1.3132590578592366e-02 9.9071398854662807e-03
      -7.7063352157749057e-04 3.2785278397106329e-03
      1.5255999422910261e-03 9.4505421506770493e-04
      -2.0376129363110359e-03 1.6804007952534931e-03
      -4.5426978812679927e-03 6.3474739146145943e-03
      1.6204409983715317e-02 2.9863980430675282e-03
      2.6411288564154112e-03 -2.5547444692709587e-03
      1.0063423046408941e-02 2.5920530010265379e-02
      5.8897021458877849e-05 2.0275394108965226e-03
      -2.2364515012073304e-03 1.6814996778573819e-03
      -1.4530259677709521e-03 8.6697946106996278e-03
      2.5167657295366969e-03 -5.8235938464814133e-02
      1.9825251174130612e-03 -9.8530851855512455e-03
      -1.9989236336761685e-03 1.5273912774306876e-02
      7.8622260973883629e-03 4.4197774426422059e-04
      1.1113168461698826e-02 1.5834618888233688e-03
      1.0858601942659171e-03 5.9984966202001559e-03
      -1.7422502879613328e-03 7.5620086890863542e-04
      -4.4344040768620952e-04 9.4204826822795646e-04
      1.6596127828820411e-03 -5.0838244810623890e-04
      8.1283991690400009e-04 -1.1500094923612928e-03
      2.2424004987716968e-02 -5.1574320671198730e-03
      7.5232366829199541e-03 -2.2679700940938128e-03
      2.2136892006003467e-03 -2.9212907217744853e-02
      -1.6168243239950014e-03 6.3811574164720636e-03
      -1.9846779720511026e-05 -7.2385163755398320e-04
      2.4975230837448840e-02 7.6362393926683808e-04
      6.0055563623750896e-03 1.0052722927839791e-02
      -2.0003128316748559e-03 1.8964575864345921e-03
      -1.7654623935158419e-03 1.4025640979175877e-03
      1.1551109451035078e-02 -1.0961102113940406e-02
      -2.0018442706457850e-04 -1.8070334869141893e-03
      -1.4911351434662098e-03 -1.9890672768045375e-02
      -1.6143726835056789e-03 -1.0850848416395036e-03
      1.1242388706041088e-03 -8.6309702666105860e-03
      2.4381855203749102e-02 1.9542547145279927e-02
      -4.5421283732213526e-02 -1.5207644084852272e-03
      1.8732558833578949e-02 -1.8734799708165030e-02
      2.3801363609660259e-03 -1.6583756927981357e-02
      2.6818644874566526e-02 -5.9413512889658522e-04
      2.8826852718144041e-02 -1.6649449623143261e-03
      -2.4718381533281455e-04 1.4205589084157373e-03
      -2.1292898886544204e-04 1.8881824199835345e-02
      3.2674179195673392e-02 2.0589624455524029e-02
      1.9918564249836769e-02 -2.0880329852275416e-03
      1.0251995127761732e-02 -1.4412492233521377e-03
      -2.4363083457161708e-03 7.7995052287662390e-04
      -1.8880870500246503e-03 5.8291736754781335e-03
      -2.5113321529576607e-03 2.3241144347587527e-02
      1.0090188150114395e-02 -7.0504077846713622e-04
      -2.1548850402461203e-03 7.9130971623893927e-03
      1.7107168351997902e-02 -1.2272211001235402e-03
      -5.4168168268672401e-04 1.7714191555195395e-03
      -2.8649272243365793e-04 1.4608136205357411e-03
      4.6756362098408838e-03 -1.0549398766107369e-03
      -4.7798967427067331e-02 3.4961920781627158e-04
      -1.5717367068595549e-02 -1.2148378292809693e-03
      6.7482347310263233e-03 1.4171121060340706e-02
      -2.3903550902962122e-03 8.8903215503329577e-03
      -2.3481565396752803e-03 2.6492239484846735e-04
      3.3097502363265219e-03 1.7840387672887932e-03
      1.8414845763833575e-02 -1.5186661144389148e-03
      -5.1979206727666497e-04 1.7878240637904266e-03
      6.5462327279306311e-04 7.1798637386744704e-03
      1.6792349761839474e-03 -2.1065049949483385e-03
      -1.4216689074874336e-03 -3.1521751976894673e-03
      -9.2276117126544206e-04 1.8988813543516633e-03
      -2.9570505528092893e-02 1.0397841851986385e-03
      -7.3307172223382436e-04 1.0024015666342365e-03
      1.5991094250997684e-03 6.5911604117433239e-03
      2.0434340758556505e-03 -4.9075340906903214e-03
      -4.9694051661473533e-03 1.2733739659828471e-03
      1.9687423365164240e-03 -2.2898889633618138e-03
      -6.3776345783325293e-04 1.2414665182010072e-02
      3.4557632753007390e-03 -7.7862082791663601e-04
      8.3787242285592088e-04 -1.1879276718908143e-03
      -1.6841303076230224e-03 8.8417445338968338e-04
      1.9357650000858355e-03 -7.3056273629244946e-04
      -1.5778949295992093e-03 1.7732316760665504e-02
      1.7534837372350721e-02 -2.0160296806077522e-02
      -1.8997490745107147e-03 4.5499318930219091e-03
      -1.4347513792178149e-02 1.5822911591586773e-03
      -1.6996020430586012e-02 1.4391088949558761e-02
      -1.3283926393776397e-03 1.5296355698699485e-02
      5.1102772493124746e-04 -1.7702713076718000e-04
      9.2695235403286533e-03 4.7405240232900619e-04
      1.2479645165260622e-02 1.1199375465511785e-02
      1.3762105856313919e-02 1.5959170879851041e-02
      -2.5041894071576951e-03 1.0330367541690944e-02
      -1.4719117045954844e-03 -2.7836582694094599e-04
      2.1003606633424711e-03 1.8521397486298274e-03
      6.3459133508420125e-03 8.6901191535642078e-03
      2.5433266152194097e-02 1.6216124009917284e-02
      1.5674430055867470e-03 1.2623119242076593e-03
      2.2662714222095665e-02 -2.6358963837773536e-03
      1.8978520249383554e-03 -1.3930005960464554e-03
      7.1120882111436212e-04 1.4366156059926177e-03
      -1.1652486691537259e-03 -9.9584668765270723e-03
      5.2971196953670221e-04 -2.7354125336488757e-02
      -1.8899755516173437e-03 -2.2741889856841824e-02
      -1.9101482691035706e-03 7.8404895233870845e-03
      2.6602505752344381e-03 2.5703259496175131e-03
      1.0511292977274295e-02 -9.1054686144181863e-04
      1.3610147948181728e-04 7.7476890171284604e-03
      1.6924315979064550e-04 1.3996456214569263e-02
      -1.5059399254411733e-03 8.9236495583450051e-04
      -2.4492578968454081e-03 -6.7685403422895990e-04
      8.2828668436796572e-03 1.2853941097915494e-03
      3.1423702483905402e-04 9.4190344070399553e-03
      4.6314031674013620e-03 1.9996899095668596e-03
      -1.1855782231723333e-03 -1.3243438786912866e-02
      -3.2169484486254611e-04 -3.7658655825843603e-03
      -2.7483398830205157e-04 1.5903386318034255e-03
      2.4483182500372409e-02 2.0891947754492161e-03
      1.2628434981637484e-02 -1.4682138122834884e-02
      -1.3094293679967456e-04 -8.9560531886891017e-04
      -7.8183237487536902e-04 8.4451226250051011e-04
      2.4266384953161944e-02 1.4527229030969745e-02
      -8.7927585366429203e-04 1.0868426599387375e-03
      -1.6379333287200510e-03 -3.2039448456692939e-03
      1.5369209070382104e-03 8.2132485701383589e-04
      1.2016095146652466e-03 2.4102184533536359e-03
      3.6108698536636931e-02 7.2876489788692633e-03
      -2.8755756389912787e-03 -2.2140738558024046e-03
      -1.7722458118901571e-03 -2.3639837909226751e-03
      -7.8430657990852107e-04 -1.3043453720865293e-02
      -3.0930633079588529e-03 -7.9874035882157395e-05
      3.4842483843435497e-03 8.9481598426423151e-04
      1.1544381331766874e-03 1.5270720565109853e-02
      -2.2255748420171619e-03 6.3576490881928917e-04
      -1.5665445828108606e-03 2.1869646299060647e-02
      2.3879419437811952e-02 -3.0413396021683302e-04
      1.5007351662013808e-03 1.6269858032880611e-04
      -2.5529864146509474e-03 -1.8893033179712441e-03
      -1.8048517121517992e-03 1.1562017846234384e-02
      2.6718545927603598e-02 1.7797779062821775e-02
      1.7698945102606528e-02 -9.5224751203426062e-04
      -6.2664853058706793e-04 2.4445919251832027e-02
      1.1980694662756220e-03 2.4342809612351557e-05
      -7.3086283551923082e-04 -2.0804920975560537e-03
      1.9466156601762323e-03 1.8614630447447201e-03
      3.4802547476516306e-03 2.3794623999179704e-03
      -3.3376600793624027e-02 -2.4414137084066770e-03
      -2.8094087658512571e-02 -1.7245299582108495e-03
      3.3481007965458502e-03 8.9642207257339592e-03
      -1.1317598010107322e-04 6.0023480267906437e-03
      5.6096972380484324e-04 1.9979969071067423e-03
      1.7863353272183073e-02 -1.1431071739224702e-03
      1.3215594941962889e-02 1.1081841011747668e-03
      1.8520911083237052e-04 -2.5202355542081360e-03
      -1.9867622841913814e-03 -2.7485268281745600e-03
      8.3748894842647858e-04 2.1055777820871067e-02
      9.0697490038599265e-03 1.8421812548694622e-03
      1.3149195508445886e-03 1.8820466429386058e-03
      -1.2248730192175979e-02 7.0022572610206385e-04
      4.8573991728832122e-03 -2.1057399445599157e-03
      2.4080590505799696e-03 1.2690407427431882e-02
      -1.7884705815488097e-03 2.9092192934738272e-02
      -1.8737638035252917e-03 -4.7663840863655888e-04
      -1.4734490673104535e-04 1.3347385041638925e-04
      2.1966081319606482e-03 9.8449957918847961e-03
      1.2202663443263441e-02 2.3074742216692055e-03
      7.9772182236175187e-04 -1.4769346562897995e-03
      -8.0615292996792491e-05 -2.3753160541221557e-03
      -1.3343215098420265e-03 -1.9820227257007789e-04
      1.8650191148045589e-04 3.3775425360378218e-02
      -4.0800214983860231e-03 -2.2856345073273771e-03
      -2.0786355873647789e-03 5.0104160983690206e-03
      4.2757781046319724e-03 -1.9983435064160888e-03
      -1.0810512063511262e-02 -3.0069228195306113e-03
      -6.7812956965057571e-04 -6.6178027244710605e-04
      -1.9692358325537946e-04 -1.8393786067571630e-03
      3.4697878146665649e-03 -3.6201750256734832e-04
      -4.7102275680849333e-03 9.3289643747416044e-03
      1.5273647226437054e-02 1.9786973257330673e-02
      -2.1642864646625880e-03 3.2211092770287925e-03
      2.4853685347645107e-04 -9.7200949522738666e-05
      -2.2311851969222312e-03 2.3981287442405579e-03
      1.8103846890658516e-02 3.4556022130380580e-02
      5.6454517083330937e-03 -5.5321450206632060e-03
      4.6094884780855251e-04 -1.1535295777515253e-04
      7.3235677352781609e-03 2.3553127136648401e-02
      7.0068353144003186e-04 1.4946477930577772e-03
      1.5182848810092332e-03 -2.4439649780476670e-03
      2.1576743861923656e-04 2.4977450828045675e-02
      4.2821891411324393e-04 -3.6849221859290730e-02
      -1.6248769344178564e-03 -4.1497589847546118e-02
      2.4374664090399335e-04 1.1297554273284037e-02
      2.9925293520550619e-02 1.2955975556956242e-03
      2.5778415532855242e-03 -5.0918511743677181e-05
      6.1802208075000138e-04 2.5425218080375581e-02
      2.0789172698621630e-03 3.7743807022765281e-03
      -1.0609360170514898e-04 -2.1021030140177129e-03
      -2.1951493168511299e-03 1.5877402789139564e-03
      -4.5948673940488629e-03 -1.8352085155972195e-03
      2.5653667317249721e-02 1.3871733787643833e-02
      3.0932555244464611e-03 1.1444771591767851e-03
      -9.6985283525340398e-04 -1.4533971144205151e-02
      7.1264639336382561e-04 1.1028635240449705e-02
      1.5726441987364010e-03 1.0283608249573866e-03
      2.2468460091966836e-02 8.9467457740517189e-04
      3.2754961781819580e-02 8.7532240341275172e-03
      -2.4129342808666908e-03 -7.2150864253374761e-04
      -2.3522820753063183e-03 1.0847906677734578e-03
      -4.1735743404981295e-04 1.7253786358119402e-02
      1.8803783895225445e-03 -1.7788145852823812e-04
      -2.5452791911144035e-03 -1.9744335490988411e-02
      -2.5342398043554579e-03 -2.4760189749908870e-03
      9.4387790929107904e-04 2.6797046501358967e-03
      2.5490151630048651e-02 -4.3563889049898618e-03
      3.1983118817168611e-03 8.2741670267517248e-04
      7.7624340092475250e-03 7.0659124177584066e-03
      7.3728032753692661e-04 -1.1149346808834008e-02
      -3.7745225877325742e-03 -2.8441573816223131e-03
      -1.5010076941107211e-03 -1.3031810388976959e-03
      1.9602794558400802e-03 8.9479246897011672e-03
      -1.7035238765857087e-03 3.2581443475412854e-03
      2.6650343993927469e-03 1.4648977628806646e-02
      2.0490495017119928e-02 -1.5140293347411559e-03
      4.8800410547445008e-04 2.0285011427219439e-03
      -1.7092240320930071e-03 -1.8374738344187781e-03
      -2.0242293754016249e-03 1.7442107809688943e-02
      3.3812168417400937e-02 9.7434808584067455e-03
      -2.1377824047653878e-02 -2.8785666373575304e-03
      -1.7200432573979702e-03 6.9909137693467110e-03
      3.3042459352818708e-02 -2.9194777254387525e-04
      -2.6776860257576754e-03 1.2209639988584424e-03
      5.4156697810695475e-04 -1.9551451026354068e-03
      3.2557520479366817e-02 -2.6094376796329785e-04
      -4.8258979183291063e-02 4.8976698708668061e-04
      -7.0097959694202627e-02 -2.2635293750147834e-03
      2.5037881680975333e-02 3.6060598282598361e-02
      -2.0359481877239051e-03 1.5502484023251410e-03
      -2.2346560644421229e-03 2.1957347220872584e-03
      2.6199655837048894e-02 1.7004912540223027e-03
      -4.3479665867889874e-04 1.3381629572811323e-04
      -1.1629640767243776e-03 1.1385177717561732e-03
      -1.3998398155793258e-03 8.8414238354634807e-03
      1.4620179276551256e-03 1.1444745709560613e-02
      -5.0188984917116479e-03 3.4103266393320709e-04
      1.3182368015962960e-03 -1.8846012908870459e-04
      -9.8590425533465701e-03 4.5459603834020675e-04
      -5.1392926390462640e-03 -8.4287183974490092e-04
      -1.0289774089296875e-04 1.8739026921183418e-03
      -3.6029414398826347e-04 6.0096337840470273e-03
      -3.8576630629194924e-03 -3.6084238391335632e-05
      2.4920286172435109e-03 3.1158129025394930e-04
      1.1139938193389742e-03 3.3353480238685709e-03
      1.1691534886951398e-02 2.5052274106289862e-03
      1.5524826394464476e-03 -2.6486460669049175e-03
      4.6017768300453980e-03 -9.7208337204559290e-04
      -1.7934627114267593e-03 -1.2810918487180295e-04
      -2.0602515198489511e-03 3.8219551052775580e-02
      -4.4660314755662137e-03 2.4391859645743401e-03
      -2.8138784410722518e-03 -1.0331885784454124e-02
      3.4186386092481830e-03 -1.0621921534431528e-04
      -2.8506195973514479e-02 -4.7610946230693812e-03
      -1.5765603539806496e-03 -2.2981940114631082e-03
      9.4021644081275198e-04 -1.2136692896139326e-04
      9.6831639635187403e-03 -1.5696615819253393e-03
      -1.6174027857235863e-02 -2.5527949193724763e-03
      1.4766426039320980e-02 1.9639415415977170e-02
      5.4914910100536929e-04 4.8370718191281118e-03
      -1.9258102026038094e-03 -2.5714073289109553e-03
      -8.7167401180356042e-04 1.9264901284782592e-03
      9.6460830630177141e-03 3.3764833565129708e-02
      5.8352479493801769e-03 7.0362444839080218e-03
      1.1428052670262978e-03 -1.1357158721551209e-03
      5.1100968634967521e-03 7.3501590896684335e-03
      -1.6396788290253493e-03 -2.3283410074778897e-03
      1.1230235858480592e-03 -2.6755486369286017e-03
      5.8929522169225926e-04 1.2574071328419336e-02
      2.4900205202854409e-03 -2.1501164087475717e-02
      1.7359440708178385e-03 -3.6602328059443280e-02
      1.0890059592426516e-03 -5.6118511043560528e-04
      1.3474584622842950e-02 4.7897432750437373e-04
      4.9061889865257592e-03 -1.4266520016564166e-03
      -7.7713272032334387e-04 2.0650283717924173e-02
      -2.1484629075166979e-03 7.0602961528951199e-03
      -2.7622187896809557e-04 1.8647716815285524e-03
      -1.8488203440352711e-03 9.8595735655097340e-04
      8.7810060386676956e-04 -3.9116295801859015e-04
      -6.5731053573917560e-03 -3.4411446541043975e-03
      -2.7268665855365551e-03 3.9584078871620455e-04
      -1.2307206656860285e-03 -1.4739715580394776e-02
      -9.4836316963945106e-04 -8.7660790295194559e-03
      2.0632537471256930e-03 -2.1303051354424449e-03
      2.9337509212454308e-03 -1.6417520441480760e-03
      -4.6416990179651728e-03 -8.2638149972251180e-03
      1.4516222232957901e-03 4.9812230680990456e-04
      -6.7014886618684986e-04 2.6966804406450876e-03
      -9.4477572611982915e-03 1.0956041333809910e-02
      -1.0967058613323785e-04 -1.4918659849800985e-04
      1.2812600886119090e-03 1.0388564482079922e-02
      6.4356598144195420e-04 -1.6785387985486482e-03
      -7.3829665295444121e-04 3.4205206419098643e-04
      2.3232038705455583e-02 4.0133297145738458e-03
      -4.2922911635040568e-03 -2.6816993302189577e-03
      -1.4884970723582434e-02 9.0628703402616650e-03
      2.1119612345320386e-03 -3.8319685856452367e-02
      -9.2671420288115893e-03 2.0706964470318841e-03
      -9.0277436728079166e-03 2.7514707592566452e-04
      7.5626593613092495e-04 1.2347845748775239e-02
      9.9941269748117989e-04 -1.1246001630662299e-02
      -1.2465778455719239e-02 6.0244956375896629e-03
      7.8115130698879903e-03 -1.6814143496135330e-04
      2.6639461034325403e-02 -1.1289882052927639e-03
      -6.7100112206119542e-04 -5.1840235063444243e-04
      2.9415623327199559e-04 1.7334647596048149e-03
      1.9894751035732995e-02 1.0362459145775105e-02
      2.5797049944659371e-02 1.5204102442773373e-03
      9.0983952633531861e-04 2.4674612635083241e-02
      -8.8695621498633710e-03 -6.5140861988505607e-04
      6.7782491449029625e-04 -8.2492948658499752e-04
      1.6813051668814868e-03 -4.0841680332661182e-04
      -4.4011415172317955e-03 2.0836473797531687e-03
      -1.8577472422814528e-02 9.2372150316920472e-04
      -3.5634690022260954e-02 -2.5457821108600910e-03
      6.0395827353708484e-03 9.7102488354168827e-03
      7.6784178732654940e-05 1.5307047408924393e-03
      2.6748841364758360e-04 2.1173325094442303e-03
      2.0844266350908993e-02 8.8508832426254365e-05
      1.3072436811259700e-02 -1.4364982114804558e-03
      7.6877919791698741e-04 9.7264474617912396e-04
      1.6581551128400725e-03 4.2101109368732565e-03
      8.8267515683548468e-04 -5.6958934693328560e-03
      2.4877308814390073e-03 6.2532819667125948e-03
      -1.5556953888979585e-03 7.9285701745181278e-04
      -1.5089913337990497e-02 -1.7539111837537016e-03
      -1.2042567827256706e-02 -2.5205058440078191e-03
      1.3733518511560635e-03 1.6631272792552675e-02
      -2.5173587008339168e-04 -6.0920365585353088e-04
      -1.0554073557474506e-02 -5.2569699905760051e-04
      -5.4769238038862063e-05 -4.5406082665188247e-04
      2.0383640259941495e-03 2.8150430664475321e-03
      1.2448940477766998e-02 -1.3025278498975240e-03
      2.2916084191028751e-04 4.4935292362373818e-04
      4.8878549949363443e-04 1.8667887087144243e-03
      -1.8720353066719124e-03 -2.4937995472058896e-03
      6.4848077989608415e-03 3.1169433715901952e-02
      1.2173289715415328e-02 1.0529380188433720e-03
      7.8177384177699298e-04 -1.4818318071130879e-02
      8.8987076009293641e-03 -2.3790461482177600e-04
      -3.1784471971033845e-02 -1.2763517521074987e-02
      -2.4827868483631409e-03 -1.2719549167290308e-03
      -1.9410599008506581e-03 -5.1053804745940462e-04
      2.3672240598292867e-02 -5.2931787404498414e-04
      -1.0556941426122812e-03 -1.9120411917838503e-02
      1.7737473518330018e-02 2.2726332805861324e-02
      -1.7305273835199666e-03 1.2023883106725907e-02
      -7.9232330216923608e-04 1.5162855851138480e-03
      1.9299130417614171e-03 -2.0772038524427008e-03
      2.1219171613290713e-03 2.0370267913884806e-02
      1.8579337995382299e-02 2.2091578245576785e-02
      -6.5948782244007681e-04 1.8868488137647904e-03
      2.7681132292945245e-02 -1.1640995311924236e-02
      -8.8898484534372438e-04 1.7014871989715552e-03
      2.1345398833912581e-03 1.6757499689212397e-03
      2.1892061002127062e-03 -8.2642581005663678e-03
      -2.5536672528090011e-03 -2.0845586655372943e-02
      1.7288228096711661e-03 -3.9550782322534749e-02
      3.0716149363771650e-04 6.7572653877325329e-03
      1.7519677838240750e-03 8.0366671557348824e-04
      7.3444111041296081e-03 5.9476650593190286e-04
      -9.1332039539968087e-05 1.7461274729174050e-02
      -4.5533278179816621e-04 1.9433702197975699e-02
      -1.5356561750171506e-03 1.6849454479359724e-03
      1.8521073141158750e-03 2.4439182505603635e-03
      -7.6510921961912906e-03 -1.2803582238278459e-03
      -1.8343795571897539e-02 8.3927877426920282e-03
      6.8631631609467822e-03 -1.8473579633447583e-03
      1.5295268521054431e-03 -1.4871003340360423e-02
      1.2476109572456837e-03 -4.6983334734413311e-03
      -1.5294681449958682e-03 -2.0989285121165626e-03
      2.3326657303298422e-02 -4.9749402582017165e-04
      1.8454542649371677e-04 -4.2844668670054733e-03
      1.1768672907845480e-03 1.7802614069185069e-03
      -1.8538411584033117e-03 2.5662619559988333e-03
      -1.3843165677818053e-02 1.0032862835398549e-02
      -4.3490897757575924e-04 1.8230569818429561e-03
      1.7330527814258493e-03 -3.1248127519821851e-03
      -1.0555126835241737e-03 -2.4059673541647472e-03
      -2.9999578977295526e-04 3.7905903294346622e-03
      1.2922473335771094e-02 7.2423473174035094e-03
      -1.0516037358610354e-03 -2.3893991973349444e-04
      -7.4644431844357022e-03 1.1746002349708901e-02
      -5.9411470641323528e-04 -2.8746584707717730e-02
      -1.3434154761006446e-02 -2.4798230814017277e-03
      -8.1641115799029745e-03 9.0262889665496484e-04
      -2.1514195088503814e-03 1.9362705372424596e-02
      -2.3416080427674335e-03 -1.2260894120912453e-03
      -1.2579992440964714e-02 2.0256662470763539e-03
      1.3986560387600881e-02 1.1744607078066841e-03
      2.1665198964219121e-02 -1.5945946843659252e-03
      9.2237477852670513e-04 1.6283639644009155e-03
      8.2225645145962470e-05 8.2388241406188105e-03
      1.4771384873485964e-02 1.3131268174574681e-02
      1.7836556663251686e-02 -1.5632973881404204e-03
      -3.2744550741290249e-04 3.8580638833048353e-02
      -8.8764832312789501e-03 2.3240936376869355e-03
      -6.6071235302420821e-04 2.3657616822923173e-03
      -1.1462384950063056e-03 2.0693265772375948e-03
      -7.1314963460459638e-03 2.1827244019402875e-03
      -2.2742909382381046e-02 6.4340165274994789e-04
      -3.8614991136968486e-02 2.4814152127645315e-03
      1.9700860999083029e-02 9.5079068785037715e-03
      4.6112284485624671e-04 4.5054721452926760e-04
      -1.0719734296758877e-03 -1.0874755455940693e-03
      2.2626217030666952e-02 9.1797196528810310e-04
      1.7621905561905710e-02 1.7070847508325153e-03
      -2.4165398360470342e-03 -2.1028178136760505e-03
      -5.5897213389905854e-04 -6.7915337325373691e-03
      9.5140501965280651e-04 -2.1308381915916458e-02
      1.4289235936967704e-02 5.5107836185310016e-03
      2.2397723909334433e-03 -1.7292715266195673e-03
      -1.7550590943596869e-02 1.7469460427812300e-03
      -7.9995764531536773e-03 -4.7869374113541522e-04
      -2.0013993103781165e-03 2.6834048331198370e-02
      2.3268976142769319e-03 2.8558655792415327e-03
      -7.5979555486072343e-03 2.0979087973409119e-03
      -2.4255775279044124e-03 2.0650319528146239e-04
      -2.2044029665732961e-03 -1.5587771237788891e-02
      1.0670732515268365e-02 7.4608167024646705e-04
      -2.1823143973164717e-03 -7.2912802781191011e-04
      -9.1681124886856223e-03 -1.9585090342307556e-03
      8.0032542327160923e-04 -7.7102654585226851e-04
      1.0202781325743870e-02 6.5641420290403615e-03
      2.0985988864981131e-05 2.5622039125106004e-03
      2.3390323212422827e-04 -2.2238056204114055e-03
      7.9331693475962264e-03 1.3612842879156500e-03
      -2.2711482567688516e-02 -9.3196581051947364e-03
      1.3568347282840313e-03 -6.5152096515854584e-03
      1.3392664404638727e-04 -5.3847917600319522e-04
      2.0237868021073555e-02 4.0123167224735657e-04
      9.6287882417385570e-04 -3.8189083623802861e-03
      -2.6854242248110028e-03 3.3647879128933960e-03
      -2.6576511326331766e-03 1.4796898581077153e-02
      6.5635289885372194e-04 2.5604489360407071e-03
      2.0478821743137479e-03 6.1355328900626204e-04
      5.2091696764103839e-03 9.4308325481710746e-03
      1.4934921886379649e-02 1.2739266061704491e-02
      -7.7988235435619659e-04 -2.7080625550428825e-04
      3.8530365799296154e-02 -6.3780437395953987e-03
      3.4543429159154322e-04 2.5547031087559452e-04
      -4.0570868734337976e-04 -2.5793634785156944e-03
      -7.2611642369275326e-04 -1.5009622626313775e-02
      -7.5889998144632449e-05 -2.3591660870484255e-02
      -2.5448843234227476e-03 -3.5824767105700622e-02
