<?xml version="1.0"?>
<opencv_storage>
<opencv_ml_ann_mlp>
  <format>3</format>
  <layer_sizes>
    784 128 10</layer_sizes>
  <activation_function>LEAKYRELU</activation_function>
  <f_param1>1.0000000000000000e-02</f_param1>
  <f_param2>0.</f_param2>
  <min_val>0.</min_val>
  <max_val>0.</max_val>
  <min_val1>0.</min_val1>
  <max_val1>0.</max_val1>
  <training_params>
    <train_method>BACKPROP</train_method>
    <dw_scale>1.0000000000000000e-03</dw_scale>
    <moment_scale>0.</moment_scale>
    <term_criteria>
      <epsilon>1.0000000000000000e-02</epsilon></term_criteria></training_params>
  <input_scale>
    1. 0. 1. 0. 1. 0. 1. 0. 1. 0. 1. 0. 1. 0. 1. 0. 1. 0. 1. 0. 1. 0. 1.
    0. 1. 0. 1. 0. 1. 0. 1. 0. 1. 0. 1. 0. 1. 0. 1. 0. 1. 0. 1. 0. 1. 0.
    1. 0. 1. 0. 1. 0. 1. 0. 1. 0. 1. 0. 1. 0. 1. 0. 1. 0. 1. 0. 1. 0. 1.
    0. 1. 0. 1. 0. 1. 0. 1. 0. 1. 0. 1. 0. 1. 0. 1. 0. 1. 0. 1. 0. 1. 0.
    1. 0. 1. 0. 1. 0. 1. 0. 1. 0. 1. 0. 1. 0. 1. 0. 1. 0. 1. 0. 1. 0. 1.
    0. 1. 0. 1. 0. 1. 0. 1. 0. 1. 0. 1. 0. 1. 0. 1. 0. 1. 0. 1. 0. 1. 0.
    1. 0. 1. 0. 1. 0. 1. 0. 1. 0. 1. 0. 1. 0. 1. 0. 1. 0. 1. 0. 1. 0. 1.
    0. 1. 0. 1. 0. 1. 0. 1. 0. 1. 0. 1. 0. 1. 0. 1. 0. 1. 0. 1. 0. 1. 0.
    1. 0. 1. 0. 1. 0. 1. 0. 1. 0. 1. 0. 1. 0. 1. 0. 1. 0. 1. 0. 1. 0. 1.
    0. 1. 0. 1. 0. 1. 0. 1. 0. 1. 0. 1. 0. 1. 0. 1. 0. 1. 0. 1. 0. 1. 0.
    1. 0. 1. 0. 1. 0. 1. 0. 1. 0. 1. 0. 1. 0. 1. 0. 1. 0. 1. 0. 1. 0. 1.
    0. 1. 0. 1. 0. 1. 0. 1. 0. 1. 0. 1. 0. 1. 0. 1. 0. 1. 0. 1. 0. 1. 0.
    1. 0. 1. 0. 1. 0. 1. 0. 1. 0. 1. 0. 1. 0. 1. 0. 1. 0. 1. 0. 1. 0. 1.
    0. 1. 0. 1. 0. 1. 0. 1. 0. 1. 0. 1. 0. 1. 0. 1. 0. 1. 0. 1. 0. 1. 0.
    1. 0. 1. 0. 1. 0. 1. 0. 1. 0. 1. 0. 1. 0. 1. 0. 1. 0. 1. 0. 1. 0. 1.
    0. 1. 0. 1. 0. 1. 0. 1. 0. 1. 0. 1. 0. 1. 0. 1. 0. 1. 0. 1. 0. 1. 0.
    1. 0. 1. 0. 1. 0. 1. 0. 1. 0. 1. 0. 1. 0. 1. 0. 1. 0. 1. 0. 1. 0. 1.
    0. 1. 0. 1. 0. 1. 0. 1. 0. 1. 0. 1. 0. 1. 0. 1. 0. 1. 0. 1. 0. 1. 0.
    1. 0. 1. 0. 1. 0. 1. 0. 1. 0. 1. 0. 1. 0. 1. 0. 1. 0. 1. 0. 1. 0. 1.
    0. 1. 0. 1. 0. 1. 0. 1. 0. 1. 0. 1. 0. 1. 0. 1. 0. 1. 0. 1. 0. 1. 0.
    1. 0. 1. 0. 1. 0. 1. 0. 1. 0. 1. 0. 1. 0. 1. 0. 1. 0. 1. 0. 1. 0. 1.
    0. 1. 0. 1. 0. 1. 0. 1. 0. 1. 0. 1. 0. 1. 0. 1. 0. 1. 0. 1. 0. 1. 0.
    1. 0. 1. 0. 1. 0. 1. 0. 1. 0. 1. 0. 1. 0. 1. 0. 1. 0. 1. 0. 1. 0. 1.
    0. 1. 0. 1. 0. 1. 0. 1. 0. 1. 0. 1. 0. 1. 0. 1. 0. 1. 0. 1. 0. 1. 0.
    1. 0. 1. 0. 1. 0. 1. 0. 1. 0. 1. 0. 1. 0. 1. 0. 1. 0. 1. 0. 1. 0. 1.
    0. 1. 0. 1. 0. 1. 0. 1. 0. 1. 0. 1. 0. 1. 0. 1. 0. 1. 0. 1. 0. 1. 0.
    1. 0. 1. 0. 1. 0. 1. 0. 1. 0. 1. 0. 1. 0. 1. 0. 1. 0. 1. 0. 1. 0. 1.
    0. 1. 0. 1. 0. 1. 0. 1. 0. 1. 0. 1. 0. 1. 0. 1. 0. 1. 0. 1. 0. 1. 0.
    1. 0. 1. 0. 1. 0. 1. 0. 1. 0. 1. 0. 1. 0. 1. 0. 1. 0. 1. 0. 1. 0. 1.
    0. 1. 0. 1. 0. 1. 0. 1. 0. 1. 0. 1. 0. 1. 0. 1. 0. 1. 0. 1. 0. 1. 0.
    1. 0. 1. 0. 1. 0. 1. 0. 1. 0. 1. 0. 1. 0. 1. 0. 1. 0. 1. 0. 1. 0. 1.
    0. 1. 0. 1. 0. 1. 0. 1. 0. 1. 0. 1. 0. 1. 0. 1. 0. 1. 0. 1. 0. 1. 0.
    1. 0. 1. 0. 1. 0. 1. 0. 1. 0. 1. 0. 1. 0. 1. 0. 1. 0. 1. 0. 1. 0. 1.
    0. 1. 0. 1. 0. 1. 0. 1. 0. 1. 0. 1. 0. 1. 0. 1. 0. 1. 0. 1. 0. 1. 0.
    1. 0. 1. 0. 1. 0. 1. 0. 1. 0. 1. 0. 1. 0. 1. 0. 1. 0. 1. 0. 1. 0. 1.
    0. 1. 0. 1. 0. 1. 0. 1. 0. 1. 0. 1. 0. 1. 0. 1. 0. 1. 0. 1. 0. 1. 0.
    1. 0. 1. 0. 1. 0. 1. 0. 1. 0. 1. 0. 1. 0. 1. 0. 1. 0. 1. 0. 1. 0. 1.
    0. 1. 0. 1. 0. 1. 0. 1. 0. 1. 0. 1. 0. 1. 0. 1. 0. 1. 0. 1. 0. 1. 0.
    1. 0. 1. 0. 1. 0. 1. 0. 1. 0. 1. 0. 1. 0. 1. 0. 1. 0. 1. 0. 1. 0. 1.
    0. 1. 0. 1. 0. 1. 0. 1. 0. 1. 0. 1. 0. 1. 0. 1. 0. 1. 0. 1. 0. 1. 0.
    1. 0. 1. 0. 1. 0. 1. 0. 1. 0. 1. 0. 1. 0. 1. 0. 1. 0. 1. 0. 1. 0. 1.
    0. 1. 0. 1. 0. 1. 0. 1. 0. 1. 0. 1. 0. 1. 0. 1. 0. 1. 0. 1. 0. 1. 0.
    1. 0. 1. 0. 1. 0. 1. 0. 1. 0. 1. 0. 1. 0. 1. 0. 1. 0. 1. 0. 1. 0. 1.
    0. 1. 0. 1. 0. 1. 0. 1. 0. 1. 0. 1. 0. 1. 0. 1. 0. 1. 0. 1. 0. 1. 0.
    1. 0. 1. 0. 1. 0. 1. 0. 1. 0. 1. 0. 1. 0. 1. 0. 1. 0. 1. 0. 1. 0. 1.
    0. 1. 0. 1. 0. 1. 0. 1. 0. 1. 0. 1. 0. 1. 0. 1. 0. 1. 0. 1. 0. 1. 0.
    1. 0. 1. 0. 1. 0. 1. 0. 1. 0. 1. 0. 1. 0. 1. 0. 1. 0. 1. 0. 1. 0. 1.
    0. 1. 0. 1. 0. 1. 0. 1. 0. 1. 0. 1. 0. 1. 0. 1. 0. 1. 0. 1. 0. 1. 0.
    1. 0. 1. 0. 1. 0. 1. 0. 1. 0. 1. 0. 1. 0. 1. 0. 1. 0. 1. 0. 1. 0. 1.
    0. 1. 0. 1. 0. 1. 0. 1. 0. 1. 0. 1. 0. 1. 0. 1. 0. 1. 0. 1. 0. 1. 0.
    1. 0. 1. 0. 1. 0. 1. 0. 1. 0. 1. 0. 1. 0. 1. 0. 1. 0. 1. 0. 1. 0. 1.
    0. 1. 0. 1. 0. 1. 0. 1. 0. 1. 0. 1. 0. 1. 0. 1. 0. 1. 0. 1. 0. 1. 0.
    1. 0. 1. 0. 1. 0. 1. 0. 1. 0. 1. 0. 1. 0. 1. 0. 1. 0. 1. 0. 1. 0. 1.
    0. 1. 0. 1. 0. 1. 0. 1. 0. 1. 0. 1. 0. 1. 0. 1. 0. 1. 0. 1. 0. 1. 0.
    1. 0. 1. 0. 1. 0. 1. 0. 1. 0. 1. 0. 1. 0. 1. 0. 1. 0. 1. 0. 1. 0. 1.
    0. 1. 0. 1. 0. 1. 0. 1. 0. 1. 0. 1. 0. 1. 0. 1. 0. 1. 0. 1. 0. 1. 0.
    1. 0. 1. 0. 1. 0. 1. 0. 1. 0. 1. 0. 1. 0. 1. 0. 1. 0. 1. 0. 1. 0. 1.
    0. 1. 0. 1. 0. 1. 0. 1. 0. 1. 0. 1. 0. 1. 0. 1. 0. 1. 0. 1. 0. 1. 0.
    1. 0. 1. 0. 1. 0. 1. 0. 1. 0. 1. 0. 1. 0. 1. 0. 1. 0. 1. 0. 1. 0. 1.
    0. 1. 0. 1. 0. 1. 0. 1. 0. 1. 0. 1. 0. 1. 0. 1. 0. 1. 0. 1. 0. 1. 0.
    1. 0. 1. 0. 1. 0. 1. 0. 1. 0. 1. 0. 1. 0. 1. 0. 1. 0. 1. 0. 1. 0. 1.
    0. 1. 0. 1. 0. 1. 0. 1. 0. 1. 0. 1. 0. 1. 0. 1. 0. 1. 0. 1. 0. 1. 0.
    1. 0. 1. 0. 1. 0. 1. 0. 1. 0. 1. 0. 1. 0. 1. 0. 1. 0. 1. 0. 1. 0. 1.
    0. 1. 0. 1. 0. 1. 0. 1. 0. 1. 0. 1. 0. 1. 0. 1. 0. 1. 0. 1. 0. 1. 0.
    1. 0. 1. 0. 1. 0. 1. 0. 1. 0. 1. 0. 1. 0. 1. 0. 1. 0. 1. 0. 1. 0. 1.
    0. 1. 0. 1. 0. 1. 0. 1. 0. 1. 0. 1. 0. 1. 0. 1. 0. 1. 0. 1. 0. 1. 0.
    1. 0. 1. 0. 1. 0. 1. 0. 1. 0. 1. 0. 1. 0. 1. 0. 1. 0. 1. 0. 1. 0. 1.
    0. 1. 0. 1. 0. 1. 0. 1. 0. 1. 0. 1. 0. 1. 0. 1. 0. 1. 0. 1. 0. 1. 0.
    1. 0. 1. 0.</input_scale>
  <output_scale>
    1. 0. 1. 0. 1. 0. 1. 0. 1. 0. 1. 0. 1. 0. 1. 0. 1. 0. 1. 0.</output_scale>
  <inv_output_scale>
    1. 0. 1. 0. 1. 0. 1. 0. 1. 0. 1. 0. 1. 0. 1. 0. 1. 0. 1. 0.</inv_output_scale>
  <weights>
    <_>
      -1.6417348660946831e-03 8.5433857764578370e-04
      -8.2674144074987147e-04 5.4365759824236191e-04
      -3.7953726891427290e-03 -1.3554716077512253e-02
      -4.0785257017860671e-03 -3.9103398832267102e-03
      -1.5700321695459875e-04 -7.1197724122758965e-03
      1.2532851730932014e-02 -2.8371608412263221e-03
      2.7929077889837701e-03 2.5394566626721284e-03
      9.9816924847683213e-04 2.9479613018405814e-04
      -6.4399537027734705e-04 -9.7305744572121437e-03
      -6.8917746966054366e-04 -1.1021455806259175e-02
      8.9961102848446980e-03 1.4460865887783710e-03
      -2.1720495577707608e-04 -6.6406509096737917e-03
      -2.8836895346660563e-03 7.1773277532767785e-03
      3.2964033655193577e-03 -1.6344186992301953e-03
      -1.5270969992284113e-03 -9.2149796874956176e-03
      5.2801287715662764e-03 -9.4502256556268805e-03
      -2.0669098571166588e-05 -9.8280108617843122e-03
      -1.7786117712495599e-03 -5.2944087527064402e-03
      -3.1150782316230686e-04 -1.2445036278768340e-04
      8.0100015874254044e-04 -9.3666914177203912e-03
      -1.0342924017755849e-02 3.1100266142702941e-04
      4.8460455436683561e-04 -7.3776506586989716e-03
      -1.5241363109276243e-03 -2.1293044110981467e-03
      3.6380951455428518e-04 -1.0112687492707575e-03
      -6.7090036832180202e-03 9.4033189614037300e-03
      6.1978552693796683e-03 -3.3577587873961285e-03
      -4.8118991213970700e-03 -6.8372463255922389e-03
      -2.0189701635738183e-03 1.6004266919329980e-02
      1.4135539878480197e-02 -4.5091666352494973e-03
      -6.5396357922753619e-03 -6.0835621453938253e-03
      1.5283816374614711e-03 -1.9388526796340715e-03
      3.3914345706446049e-03 -1.5567753446772762e-04
      -4.3688103017784190e-03 -2.2405069591843876e-02
      -7.7320127765070478e-03 -6.8925955929219473e-03
      -3.1116189819622021e-03 -6.1094478271138484e-03
      -5.1547329212829913e-03 6.4494548677296931e-03
      2.4028587986755249e-03 6.3058994965407454e-04
      -5.2120643847751369e-03 1.1122691813020636e-02
      -3.3147295788015403e-03 -3.3145590711205577e-03
      -7.3038309628304060e-04 6.8821151715166753e-03
      1.6458632972378661e-02 -1.0300137081982752e-03
      -5.2556043669855857e-03 -5.9172212202491742e-03
      4.9578817731384985e-03 5.2814832087889974e-03
      -1.0655350293787232e-02 -1.1501824478457265e-03
      5.1939684955839465e-03 -1.0334342851410017e-02
      1.8164798353936251e-03 7.1929517121150080e-03
      -1.3067823424994702e-03 7.9294244543264567e-04
      -2.5973723888343394e-03 5.3420392126405708e-03
      -2.4961342380069103e-03 -6.4011000982999364e-04
      -7.9271315173190665e-03 -2.3641816126835505e-03
      -6.8414325641393825e-03 2.2415692647407490e-03
      -8.5485789461026292e-04 1.7937484016493266e-03
      -1.6858346944927350e-03 -3.0843041171428544e-04
      8.3924942144029558e-03 -6.9127718138987911e-03
      -3.4110423685105402e-03 1.2398239069858204e-03
      1.5497913629930260e-04 1.4832334025951570e-02
      1.1615783911159980e-02 -1.9455765359188829e-03
      1.7809185737757277e-03 1.4890169110481639e-03
      7.6238040942396923e-04 -2.7447362057692387e-03
      -1.0156553080081725e-02 -7.1569083346183790e-04
      9.5855114278291902e-03 4.7177630662337293e-03
      -3.7987100889396389e-03 6.9152619235302044e-03
      -1.8640224727063937e-03 3.9324847146699491e-03
      -8.9779921158975300e-03 -1.0406462457237857e-02
      -1.3479384462593974e-03 -2.0057762992755086e-04
      -6.2844462144076823e-04 1.8610780437465541e-03
      7.2067493083463625e-03 -4.2014804854092081e-03
      1.0177177725481713e-03 -5.4668039367087142e-04
      -1.7610678783953912e-03 2.5174380058267882e-03
      1.0930337232681763e-02 -4.8827244100635601e-03
      5.6395489149295571e-04 1.0868573839557560e-03
      2.4826522017598169e-03 3.4016393391886599e-03
      -9.4635806291950921e-05 -9.6825183968932886e-04
      -2.1855064855444421e-03 -7.9351005878810690e-03
      6.7951865787891676e-03 -1.5432156376193062e-02
      -2.7316350417353619e-04 -2.4623317535009343e-03
      -2.2834042790557361e-03 1.0333529818465196e-02
      -1.1663681764374995e-03 -4.5772248303092775e-03
      -6.5659682478701542e-03 -5.1969475644013368e-03
      1.3173656852668875e-02 -6.2988043023181114e-03
      -1.7994908392132433e-03 -6.0924010600300754e-03
      3.3097634436033904e-03 -3.8678871679825161e-04
      -1.0532032492645981e-03 4.2833097898417952e-03
      1.2366031029956070e-03 -5.2357395048871751e-03
      -7.9231771402789065e-03 -6.5646196957993294e-03
      -4.4103925811231114e-03 2.8068167715877058e-03
      -9.0138749570113402e-04 -1.1527611725727581e-03
      1.6716485515094978e-03 1.1957819514727024e-03
      2.5264853787229356e-03 -8.2586941046936604e-03
      -5.1851459349463247e-03 1.1894150250293344e-02
      2.4313773860429985e-03 -1.0825867933775560e-02
      1.0317431715007158e-02 1.2713187130125179e-02
      6.0073389567762781e-03 -4.2788651506728177e-03
      5.2374807880499934e-03 2.9501562689706831e-04
      -2.3332792407690481e-03 -3.0389305306687876e-03
      -1.5096860909656509e-03 -3.1644565806689916e-03
      1.8015719887298795e-03 -5.3999708217267114e-03
      -6.6202528160436225e-03 -1.8117930097643096e-04
      -6.3793450623298945e-03 -1.2433881510608303e-02
      -7.2138714056053542e-03 -3.1809713133903418e-03
      -6.2990267330901729e-03 -3.0975879296430480e-03
      -4.4690562993130790e-04 -7.5768285674506408e-04
      4.3668403017432739e-03 -1.1721830818580475e-02
      -1.4859265837596279e-04 1.4960320236038212e-02
      9.5287160446959965e-03 -5.2178457631623766e-03
      5.1347536199605895e-03 1.5747302048382560e-03
      -9.2457204705571339e-03 2.7040915619121753e-03
      -6.0648035019335161e-03 -3.6003848637333282e-03
      -5.9763958352017843e-03 -4.8596140982695981e-03
      -1.0632475017893690e-03 -5.2530183328435779e-04
      -2.6375050266794981e-03 -3.9855212698179905e-03
      -2.2267557212529514e-03 -4.7803116315343853e-03
      -4.1482093843377681e-03 7.4343221661958506e-03
      -3.0845966018303497e-03 -4.2165161760076463e-04
      -2.3843238567990755e-03 2.6453797867972396e-03
      -9.4059544443999884e-03 5.2297333979229301e-03
      -6.9411726955995630e-03 -3.5931412351072312e-03
      9.7958523530597280e-03 -1.0105477392261388e-02
      1.0513148443030926e-02 3.5605324074822588e-04
      -1.1875869854757106e-03 1.6824683114357062e-02
      -1.5524664824886460e-03 -1.0106428339709065e-02
      4.4932693919808638e-03 -2.9198395274697320e-03
      2.3618088524395821e-05 -6.0886761540230097e-04
      1.0399505077646021e-02 -2.7454103730003938e-03
      2.0821223389140757e-03 9.4401615726806883e-03
      -6.7467704060080623e-03 -4.6208504362528387e-03
      -4.4731145989248180e-03 -1.0372307996960674e-02
      2.5487671937478034e-03 2.9007644421834063e-03
      -4.1673238616113713e-03 1.0521626797215500e-03
      2.5078917815534932e-04 2.1911657460933929e-03
      5.6905009911562259e-03 -1.1466188753966860e-03
      -3.2045146838615107e-04 -6.0407858339724214e-03
      -1.3515697834929217e-03 -2.2768847741096911e-03
      8.6212091684810845e-03 -5.1152531607299859e-03
      4.4949484131296055e-03 6.4631202628960037e-03
      -6.6852759037171004e-03 -5.4943517062149604e-03
      -2.8972221852206193e-03 -2.4213415114526576e-03
      8.2338980398524817e-04 7.6355544342750258e-03
      1.3799354695131784e-03 -1.3448215666543228e-02
      2.4341995500843381e-03 -8.4580075699402096e-03
      -2.7794226122383556e-03 -1.0093028064690375e-02
      4.8782997275455915e-03 -5.3452405188981547e-03
      -1.1171184020040165e-02 -9.7259598581357822e-03
      9.3593363339936498e-03 5.7223469014005008e-03
      5.9317105193232829e-03 -1.8213437857659540e-03
      -1.0651265780632158e-02 9.4692384029356827e-03
      -8.7415071196933068e-04 7.3404494075400544e-03
      1.9178839997443442e-03 6.0747171694351104e-03
      -2.0862131372064753e-03 5.8594587470732068e-03
      -1.1052477419477326e-02 1.5501885743376704e-03
      -4.5331529448283019e-03 2.7103800874674609e-03
      -3.1079122809616493e-03 3.2438750354851905e-03
      6.1728150147908325e-03 -7.2948937028505566e-03
      4.3811159526056581e-03 -6.5780063667868864e-03
      9.0790162365891151e-03 -2.2471942660549633e-03
      -3.2448880912208031e-03 1.4800177709630670e-02
      5.6557487048886567e-04 -1.4815956839498805e-02
      -6.7969711235096467e-03 -4.1749263827691021e-04
      5.8405004697404327e-04 3.8937318093594167e-04
      -1.7269566261564732e-06 -4.5646700107440808e-03
      2.5119388771571230e-03 -2.2267349383555315e-03
      -3.3901782252271366e-03 5.0724292842758709e-03
      -4.5898659781964512e-04 -1.7051665406404763e-03
      -1.2921972785038790e-02 -9.6885557957735926e-03
      -4.8121621659728544e-03 -2.5848739831775391e-03
      -4.8735357922097403e-05 -4.3042798610598105e-03
      -1.2939683109549046e-03 8.7215190913495309e-03
      1.1039583116486042e-03 -8.0322824276897395e-03
      -1.2109282479427529e-03 5.1380062569079772e-03
      -1.3585632823521303e-03 8.4194407862460945e-03
      -1.1875845627403530e-02 6.9904368881229971e-03
      -1.9140207690235339e-03 -7.6652027864601438e-04
      -1.6961236660843326e-02 6.4224397834227306e-03
      -3.0015750348315346e-03 2.3741722894022419e-05
      -7.3542596185338007e-03 1.9892113967653387e-03
      -2.1076626842278755e-03 1.2937134175589716e-04
      -3.3298756050108417e-03 1.8170015107017598e-04
      -6.0342757335225361e-04 1.5604928081694338e-03
      2.1996863565181407e-03 6.9504394213242601e-04
      -8.8657050260677189e-03 -1.2234073508740357e-02
      -7.8711874126247919e-03 -9.6393689000835187e-03
      -1.8941550144364041e-03 -5.5352119193196629e-03
      1.7886301701971223e-03 -6.3907581102357509e-03
      5.0971342140539427e-03 -8.2700928103098433e-03
      7.2630482859536018e-04 -8.1615050319965663e-03
      4.4816441580312017e-03 -3.1762334578540954e-03
      -2.7395230997139951e-03 2.5537844164904319e-03
      -2.6996573296506972e-03 -1.4781012386961305e-02
      -6.5825357344980176e-03 5.1696479243292480e-03
      -6.9924801173092404e-05 -1.9771644984530623e-03
      -3.3587827594033191e-03 -3.3599381568461370e-03
      -8.7088597890978715e-03 -3.3196888190644711e-03
      -2.9325580073750520e-03 -3.5461714315676546e-04
      -1.5674127860408934e-03 -4.5088864343586799e-04
      2.7789773869009433e-03 6.7430324047411012e-03
      -1.3851478785421531e-03 -1.3569513922534787e-03
      -4.9720328633201857e-03 -1.6027333041724614e-03
      9.5913816123097840e-03 -8.0369886708654692e-03
      6.8280506344331837e-05 1.9782666283445514e-02
      -3.7561088405407938e-03 -9.1455324646815203e-03
      3.3738795211944055e-03 -2.1296026798655020e-03
      1.7442620255702982e-03 -2.0710630207641093e-03
      -3.6995743497934545e-05 -8.8367621274975140e-03
      7.9878141023527287e-04 2.8535691484528696e-03
      2.7343661627835698e-03 3.0634392837877879e-04
      7.3542441759806500e-04 -5.7560265722174575e-03
      -3.9102012320273551e-03 -1.0148266433492804e-02
      8.6725557088275160e-03 -1.0796018852644312e-02
      7.8984643734702573e-03 -1.4042795396442503e-03
      3.8605801117202287e-03 -2.6692551772421651e-03
      2.3233161734072399e-05 2.1416754908947203e-03
      -1.0476979751759571e-03 -6.2832669387608909e-04
      -4.0662467395614814e-03 1.6321333003251799e-02
      9.9931885882785401e-04 -1.1621097224094059e-03
      -1.7697062647223900e-04 1.1795982772999009e-03
      -7.2426631600598099e-03 6.8060022670024759e-03
      -5.7007098400158893e-03 -6.1937404299439898e-03
      4.6613999593126077e-03 -3.0234925509351925e-03
      -2.6773954321495674e-03 -7.7792905704682069e-03
      2.9939135667238583e-03 8.7944227489857151e-03
      2.1686921002150800e-03 -9.9055969795008823e-03
      -1.1433874802844034e-03 -7.3270469628983887e-04
      4.0184614683341858e-05 -2.4751983980981882e-03
      -2.4416499196915141e-03 2.6529140655069949e-03
      -2.4274999753286031e-03 -3.0977323999077690e-03
      -2.1161409001879514e-03 -1.3171422346596597e-02
      2.6198435607549583e-03 7.6363886694386911e-03
      -1.0215571882756120e-02 -6.6588184523445164e-03
      -5.2865653313797145e-03 -2.1415279093839196e-03
      -5.2439894675312361e-05 3.6594440687944891e-04
      6.9139255080820482e-03 4.6770666519042586e-03
      -2.0924180402150006e-03 -1.7310127096178899e-03
      -6.0853739234101865e-04 -3.1552895670832744e-03
      2.8360816286474174e-03 1.3123299346582502e-03
      -5.6973874351045825e-03 9.0657185009742625e-03
      -3.8921273884732167e-03 2.9393990204819834e-03
      -1.3922520542395102e-02 8.2548920220227306e-03
      -1.8868264264024564e-03 4.8346676224777403e-03
      -3.6555326339901928e-03 9.7944648548777100e-04
      -2.6747764037992087e-03 1.3434155152495942e-04
      8.6152673815229012e-03 6.4406277742752351e-03
      -9.5273054352995115e-03 3.5693133697820632e-03
      -6.4521642074838051e-03 -6.2973086376981598e-04
      -1.6024119579633841e-02 -3.6770457555346456e-03
      -5.1421890049596925e-03 -5.2067309468007165e-03
      -3.0278149520472654e-03 5.3271577149376793e-03
      9.4123026468388958e-03 -2.6396552853641736e-03
      3.3693426101041543e-03 -1.0525133064392721e-03
      -3.8094113885133487e-04 1.1229775740073855e-02
      -2.2000735793563063e-03 -5.7708208758063472e-05
      4.2987687317114226e-04 2.2657699804275364e-03
      8.2720948196587528e-04 9.2413159098739279e-03
      -1.3075570320330097e-02 3.5554980789956367e-03
      -8.3256078525283540e-03 3.5456435080694318e-03
      -4.8511540775571073e-03 2.1925244519368082e-03
      -1.2295001052446701e-02 -4.0731827982174954e-03
      -2.6255096543336743e-03 -5.0637024714059679e-03
      -3.0382707995332508e-03 1.3964827148937370e-03
      1.4292240513946673e-02 1.0710153955193015e-02
      3.7430744986265904e-03 8.5028942708715476e-04
      -2.5444235843165523e-03 -8.1124698043711294e-03
      1.1826735934608774e-02 -3.2778833918362541e-03
      -7.3344955715456787e-03 4.3249240923107571e-03
      -1.5212884786266266e-03 -2.0699817172587088e-03
      1.0029371694575877e-03 3.7415290382206983e-03
      -5.7296033169551304e-06 -1.2740944864073865e-02
      -6.0568579174976450e-04 1.1413758164342776e-03
      2.1429752721542493e-03 5.8794790150360843e-03
      1.0183372807019066e-03 -1.1928554711642007e-02
      -4.6129097830908778e-03 -3.3097744128190096e-03
      -5.1338246921452573e-03 -3.8645033742719737e-03
      1.0519886630900848e-02 -1.9743435727847809e-03
      9.5374112772367379e-03 3.3168093579840014e-03
      5.1208997204183863e-03 -1.7026340696828174e-03
      -5.3016635360345966e-04 -5.4745395956456193e-03
      -2.2425598377665821e-03 3.1562036093123300e-03
      -4.3747515597753394e-03 -3.0095858219778969e-04
      5.7517588109931780e-03 -8.0937940521434780e-04
      -5.1001677855090927e-03 1.5819971761909704e-03
      -2.1941480157292312e-03 -1.1639969982507400e-02
      3.2189109047179431e-03 -1.0659086352165534e-02
      6.6102531483678293e-03 -1.6313885304452410e-03
      -2.0098746441680818e-03 1.9707584791611735e-02
      -3.6190365720446017e-03 4.6012839138533084e-03
      -1.2627311648932655e-03 -9.5444341800557716e-03
      2.1236664855317122e-03 -1.0932465616797706e-02
      -7.4540277737768527e-04 5.0306843202494273e-03
      -4.8811966600056369e-03 -7.8590036365702772e-03
      2.7017569911089285e-03 8.3875420648623267e-04
      -1.0519711430581084e-03 7.3408688251217955e-04
      -1.5196447476282092e-03 3.4427447969445084e-03
      -2.0678626317959551e-03 6.8977890828177332e-03
      4.4472410433857355e-04 -1.5435931965635059e-03
      8.5650366826171983e-04 -2.8241050750542978e-03
      1.1053936460927508e-02 2.1524056744730439e-03
      8.3409668548835834e-04 -4.6971406850236557e-03
      1.2144518490740186e-03 -9.3561202981083246e-04
      -4.3176958981389702e-03 -5.0806556468218477e-03
      -2.1118611747521798e-03 7.4680462872108357e-03
      -8.0515068776835681e-03 1.0730602432987688e-02
      -1.1684453670991687e-02 -1.9223994350216656e-03
      -3.1951489081744975e-03 -1.4351286591796539e-03
      -4.0464187447693187e-03 -7.2307535469519314e-04
      -1.4012217906809452e-03 1.3308726762544106e-03
      3.3102389877599113e-03 8.6789948266919985e-03
      -7.6689090010790099e-03 4.4248570700269078e-03
      -1.4463900054002780e-02 -2.0207231844501803e-03
      -1.5641753907829847e-02 -1.1772641062225938e-02
      -3.9810936334228773e-03 2.6529203947589105e-03
      9.4691131662728227e-04 8.3374756919591970e-03
      5.6536644988110386e-03 9.8353938393204400e-04
      3.7607848520565435e-03 5.7550473877762019e-03
      1.4812343174752975e-03 1.1249472970536101e-02
      -7.9459980620827982e-03 1.2501420750253317e-03
      -9.4837511986255781e-04 9.3260824582600734e-03
      -4.1157768669502831e-03 1.0643802885230445e-02
      8.2784793151224386e-03 3.2561684896262330e-03
      1.3970865833521661e-04 2.2572937780198478e-03
      1.2424949612186188e-03 -7.4221960172050124e-03
      -1.0603193739110570e-02 -2.3857750408472797e-03
      -3.0862187230635760e-03 -5.2807785459419738e-03
      -2.0619385246263937e-03 1.3414930083645038e-03
      4.3407864774058894e-04 -2.6645615059976515e-03
      3.5599134391544030e-03 -9.1288904487490344e-04
      -1.0261356047573298e-03 -5.4011801089422851e-03
      9.5167269317452344e-03 -5.0955859689229719e-03
      -7.4983612042944369e-04 -9.7093072232284985e-03
      -2.4929708626716392e-03 -8.7647756842302660e-04
      2.7435600453086078e-04 2.5943655013693979e-04
      -1.0873331292146381e-03 -1.2754531418069889e-02
      -2.0657275798722893e-03 -4.6672265873440493e-03
      7.0808356740590323e-03 2.6828387339063241e-04
      -1.5031845683400259e-03 8.9092085291907208e-04
      -1.5969838029235145e-03 -4.7020764431478087e-03
      1.5327128055727828e-03 1.7832986736436003e-03
      -2.1838522211513264e-03 -3.0187951796287259e-03
      1.3031398073641261e-02 1.5271246037455817e-03
      -6.5064180053243026e-03 -5.4249901592271967e-03
      -3.5109397776337273e-04 -3.8402135346077195e-03
      -2.5055666484582852e-03 6.0169434357369590e-03
      -4.3308386776440893e-03 4.7133574208717641e-03
      -8.0019076139582184e-03 -6.9447862495723659e-03
      -2.0221150824342345e-03 -1.1984473381714455e-03
      3.9333753049023874e-03 -4.8097888508809314e-03
      3.7882224991531953e-03 1.1480549745505337e-03
      7.8276191183250868e-03 2.4662493814978825e-03
      4.5993623187669825e-03 9.3339865481776912e-04
      2.5978556833020088e-03 1.4493449959097537e-03
      -6.0334233756804169e-03 -7.9051338992507537e-03
      3.3434890358293935e-03 -8.1006972798624531e-03
      6.3311102590957700e-04 1.0159205445385497e-02
      1.5621359353295539e-03 2.5543338218760436e-03
      7.3747358588043682e-03 8.7274713768156105e-03
      -2.3557252682721206e-03 -8.3926880783560011e-03
      -1.8235649586320541e-03 -7.0249939889141574e-03
      1.1184712111260167e-02 2.3183121763051574e-03
      -2.8996416384562814e-03 -2.6746997340662240e-03
      4.3671894406495469e-04 -1.9066171830089307e-03
      6.4132032154361534e-03 1.1935488549270780e-04
      -5.3391889351728686e-05 -1.5437470972240257e-02
      9.8999716768945179e-04 -3.3565216404635675e-03
      -6.9134381958905148e-03 -1.6807800290093149e-02
      -1.1488643764500308e-02 1.2201265129494125e-02
      -3.5118507485102303e-03 4.8692970642024618e-03
      -6.7309089202455524e-03 5.6748872855844259e-03
      -1.0110980427661695e-03 -1.7373739039819309e-03
      8.6060056268694282e-04 2.9670874343129838e-03
      -1.6917298695580702e-03 -4.5229289173372514e-04
      2.7396539771858013e-03 -5.5093888910952371e-03
      4.3284898580595874e-03 1.2191518786729518e-03
      -9.0988141659202725e-03 3.6049159452741165e-05
      -6.5609965191187327e-03 5.1445384646734834e-03
      -7.6966864994395057e-03 -7.8121931403289018e-04
      2.7225467140187514e-03 -8.6670897983487621e-04
      -7.5380175345337239e-03 7.5569853865885845e-03
      1.0697999292744848e-03 -1.4246583447324337e-04
      6.4760197156550235e-03 6.3625788809605240e-03
      -2.4092929536027865e-03 1.6653497176228615e-03
      -1.1236568028400048e-03 -5.6041772965092470e-03
      -1.1710184457219028e-02 1.4392111510842099e-03
      1.1505340641531651e-03 1.6957650563560703e-03
      -7.6934846743034486e-05 6.2602509094059474e-03
      -4.2811004468362602e-03 -3.3513155320980762e-03
      -6.1729986034662924e-03 -2.1013332220792972e-03
      2.0545561307917701e-03 -2.7256949668584595e-03
      -2.7205538924108142e-03 -2.1301037218696543e-03
      6.5033110624327624e-03 5.0692149143679770e-03
      2.0569958720538630e-03 8.8744626383161079e-03
      9.4482282312983289e-03 2.4663566657129972e-03
      2.7831498382433263e-03 -5.1836957018108077e-03
      -3.4544118579806107e-03 -4.8823368256079242e-03
      3.1136613024619767e-03 -2.5113413308289366e-03
      -2.4522282941829001e-03 -1.0006419289704733e-03
      1.6391003106557881e-03 -2.8326720569172167e-03
      -3.2483918102479063e-03 -7.5192565608172730e-03
      4.4907808421818683e-03 -6.1571240108260544e-03
      1.4083800296939499e-03 -3.8230054650409207e-03
      6.4240650705185446e-03 -2.0722355242680118e-03
      4.4337362947747625e-03 8.7336958655602932e-03
      1.3292267732228484e-02 -2.3142323457751583e-03
      5.1368446872610760e-03 6.4576973248291212e-03
      -7.4322355237155888e-03 -8.8428763512424201e-03
      -2.0575749929493728e-03 -1.5613561045090530e-03
      -2.2632213840117284e-03 7.7213287830612610e-04
      -6.5941249193434831e-03 1.6379192132599640e-03
      -6.6023109004249387e-03 -1.0932368202129082e-02
      1.8032302645540178e-04 -1.4725345500208463e-03
      1.6781483361201748e-03 -1.6118999194565632e-03
      1.8742551277198091e-03 8.9099402551369514e-03
      4.2330932965493756e-03 4.8554332914069664e-03
      4.3986020690766356e-03 -9.5638716809119395e-03
      6.0696992936311788e-03 -1.2679898101251644e-03
      -1.0877820674474862e-03 4.6891993333918938e-03
      3.6903782285503972e-03 8.2809097266248605e-03
      2.9027382312310398e-04 -2.8694268744495822e-03
      -9.5044817361298673e-04 -1.1792957278431335e-03
      1.4052789776807802e-04 -2.1240163187154029e-03
      -1.7089855015823743e-03 -8.2789008784696933e-03
      7.1360358554080783e-04 -5.8451348965372109e-03
      5.6474622757241924e-03 -3.6868628492066598e-03
      -2.2931944041104189e-03 -6.7959153794731159e-04
      -2.1253180688586824e-03 2.7902874431715722e-03
      -1.7107935116021534e-03 -3.7803408793192542e-03
      7.6090595048394847e-04 -3.9260993585207909e-03
      -3.3416067949074428e-03 8.0703012620191930e-03
      5.5983434276148866e-03 6.6648089391986424e-04
      -8.0760715002575131e-03 7.4160420321241639e-03
      -5.9320185317310887e-03 2.9957230370524293e-04
      -7.9723967462247726e-03 8.0154587305199861e-03
      -2.2272588858049001e-03 1.6342154541801486e-03
      5.4114196158601344e-03 3.9854764507349476e-03
      -3.0090793323954501e-03 2.6909930733133064e-03
      2.0676969850284580e-03 1.2174281249364637e-03
      -3.1453517166380638e-03 -8.0268719720705678e-03
      -1.4641266753246791e-02 1.5477205615447209e-03
      -3.6415004727748824e-03 -4.7287096822315631e-03
      -3.2042968192617857e-03 3.6776603494330920e-03
      3.3133415549573488e-03 -9.9322100243851557e-03
      -5.2208415174244947e-04 1.1524701892090953e-02
      -2.9794212785560904e-03 8.6878423817052415e-03
      7.4267402016540167e-03 5.7641652632127440e-03
      1.0124103284592609e-02 1.1064445760698401e-05
      -5.5903542494425680e-04 -2.1134310888749936e-03
      -4.9520296678829334e-04 -1.7842602222990589e-03
      -7.8149032878379182e-03 -2.9084464837554362e-03
      8.2752681062195927e-03 5.7275313163931774e-03
      -3.1615669225104055e-03 -2.5615875242963929e-03
      -1.0031485651899861e-03 -3.1461925824744640e-03
      -2.4471925738726802e-03 -6.7928028546506368e-04
      -2.7139227408514493e-03 -1.7237963898594942e-03
      4.4861849912746611e-03 -2.3649228660036067e-03
      3.1635702732721546e-03 7.2970016270829646e-03
      3.9886252227991784e-03 -2.6760721121452447e-03
      1.1268274562556419e-03 9.7808528010869498e-04
      -1.1587907125684624e-03 -3.9845348468393674e-03
      5.8739518829966182e-03 5.4935137397077026e-04
      1.4645340780068802e-03 4.2577696060339002e-04
      -3.0772568943390872e-03 -4.6729629318620200e-03
      -4.6377617106931864e-03 -6.5851190761814947e-03
      9.7940643089979209e-03 6.7120697146878198e-04
      -3.4005157365168845e-04 -1.9012553022221813e-04
      -2.9518103937579785e-03 -4.2323738329630191e-03
      -5.1812056814224683e-03 2.7745660042338693e-03
      5.2941208917336854e-03 -2.1986976652942345e-03
      -4.5506640800954999e-03 4.0824113939314233e-03
      -3.4836413000687424e-03 -4.8434115202331315e-03
      -1.7601213323247915e-03 -3.9188680416364910e-03
      -1.5905644688848325e-03 -2.0008118597725764e-03
      -6.3508870720919682e-03 1.2607214318664390e-02
      -4.7293175182553686e-03 -9.6755369075211990e-03
      -2.6052758126668949e-03 -3.5356024874701568e-03
      -6.0271548050273155e-03 -2.8942601322986365e-03
      3.1513618371396359e-03 6.2109917862465287e-03
      -1.6672503956227291e-03 4.9523290089352840e-03
      9.2809577765193101e-03 -1.2592341528477225e-03
      -2.4965310498447626e-03 -7.6576203205775233e-03
      7.4392768085878485e-03 -4.0637273390766726e-03
      -1.4458139474473868e-03 4.4748914852313420e-03
      1.1860773625896918e-03 -1.5690277084353245e-04
      1.3121481849118573e-03 -1.3493947069049819e-02
      -2.7606665220463954e-03 -4.7653228850237130e-03
      1.4445713715641293e-03 -1.0028686103169711e-03
      1.4839573953951922e-03 -5.9239494808311886e-03
      8.4011523551057905e-03 -9.1230053796312414e-04
      -1.7154486277950061e-03 -2.7540249565729988e-04
      -1.8325386576742168e-03 7.1731751763183214e-03
      4.9032624914292812e-03 -4.9264795391513348e-03
      1.4629596021267634e-03 2.8611995832108694e-03
      -7.7910733718731910e-03 5.3997666874413949e-03
      -9.0569863261164511e-03 7.8959572355646358e-03
      -5.9275482874524546e-03 5.8579024613111081e-04
      -2.4155853787940140e-03 3.1086799096287092e-03
      -1.7212088904509225e-02 -1.9254672559189106e-03
      2.8668197739972997e-05 -1.6613885032093765e-03
      6.8298185245721484e-03 3.1508458393737344e-03
      -1.8416750555740502e-03 1.4275907090301545e-03
      7.5817993790677956e-03 4.2826005882709867e-03
      -7.2336862929739936e-03 -7.5884744049209809e-03
      -7.2815265164568668e-03 3.5192679753410592e-03
      1.3586627527086368e-03 -5.5366449145149823e-03
      1.7036665238238601e-03 4.1939317935711434e-03
      -5.1370274786599124e-04 -6.8035815690082142e-03
      -8.4482378959914901e-03 -3.0623448004127320e-03
      -5.5496722396359416e-03 4.9956015326340216e-03
      3.9178867154312531e-03 -2.5549165138767948e-03
      9.8883597774234201e-03 -6.6873913113250655e-03
      8.9397344925285643e-04 1.1780915226196700e-03
      -7.0855290765438677e-03 6.6023948585934135e-03
      -2.8193942258077430e-03 -4.0664350764889456e-03
      1.2321526629078280e-02 -3.8105556298972691e-03
      1.5212669364741724e-03 -2.8361433726998980e-03
      -1.6441722748309999e-03 4.2930896257441697e-04
      -1.5146438105868981e-03 -3.3514573642815602e-03
      -4.0156925029609343e-04 -4.9001848448804304e-05
      -5.1574861478361443e-04 2.2343077413002435e-03
      -3.2776243923205357e-03 -1.2080263554215587e-02
      -8.8969989892433831e-03 -1.1763319334399464e-02
      4.0959557880086277e-04 -5.7894330091221469e-04
      -2.9000707435222089e-03 1.3482982068118011e-03
      4.3233484955736553e-03 -6.5998295673553838e-04
      -4.9613171319929051e-03 1.3753076388600123e-03
      -1.9274496472102764e-03 -8.5561483405761034e-05
      1.3944474948459340e-03 -1.5392293726299497e-03
      1.3933841211041307e-02 4.0006438126094519e-03
      5.4595220849125263e-03 2.6307668620893713e-03
      3.5009853201697669e-03 -1.7975368841556425e-03
      -2.4024131538726403e-03 3.1501917867119301e-03
      -1.5999248160195160e-03 3.4493623208210807e-03
      -5.7890361043876053e-03 2.7426198950713203e-04
      -7.3854931579046493e-03 -4.7752187242057287e-03
      -2.9568784455445115e-03 -2.3498215033580907e-03
      -1.4924960204024396e-03 -1.0049723503191820e-02
      -3.5515282802279576e-03 1.3485513049109480e-02
      5.4670793504093245e-03 -7.6695491181424753e-03
      -6.4381588396038971e-03 1.2145575102356523e-03
      -7.3340136321846461e-03 -2.2732184835179449e-03
      -2.5150665003553993e-03 1.8623051898398082e-03
      -6.4298418051327673e-03 5.2718252352647677e-03
      9.6445216338185268e-03 5.5593392971610908e-03
      1.6265399846604454e-03 -5.9277296781060757e-04
      6.5857239518074045e-03 -1.5040758983883714e-03
      3.7322094796756445e-03 1.5955054286941270e-03
      -2.0316200741178981e-03 -5.5364420971305427e-04
      -3.6367017745317304e-03 6.6226137534184900e-05
      -8.2042418062949589e-03 -2.3046007900143794e-03
      8.9925920330368898e-03 5.1519073877575360e-03
      3.7142879539761595e-03 -7.7312058174434702e-03
      -3.7625909645135672e-03 2.1010459653854536e-03
      1.8856977674450192e-03 -1.8479743148107886e-03
      -1.8638739209578430e-05 3.8694469897584309e-03
      1.4797027214000899e-03 1.2721268646711973e-02
      -1.8906245957738973e-03 -9.6208149193261101e-03
      -5.8289782295797765e-03 1.2098155392699754e-03
      1.2478804876410666e-02 9.2528450915011912e-03
      -1.9292920798906600e-03 -2.0009960305114563e-03
      3.6025473121139031e-03 -5.9791902652787518e-03
      -1.6461916848184103e-02 2.5352967125629451e-03
      -2.5202158798295240e-03 6.5788272658294153e-04
      -2.1455847486297596e-03 5.6530506468191700e-03
      1.5046963636469774e-03 3.5238681847252025e-03
      2.4188400393189248e-04 2.9170297989155676e-03
      -6.2534280904394043e-03 -4.4646860479948067e-03
      -1.4698321832025855e-02 4.0905522785784267e-03
      2.1044945816468745e-03 -2.5107282583669652e-04
      -6.1826120031817774e-03 -1.9312027015102875e-03
      -2.8600487670750381e-03 -1.2973757459693308e-02
      -1.4110236225484216e-02 -6.0330916314150374e-03
      3.4228196163745249e-03 1.6911631807101617e-04
      1.1552790471748656e-02 -2.8743666373812079e-03
      1.1950708584386021e-02 -9.5299814536671541e-03
      -1.5285931687548745e-04 -5.9531094686302802e-03
      -6.2976553628891910e-03 1.2712644381266288e-03
      -5.3584159231549414e-03 1.9862864507562360e-03
      5.4921484679953635e-03 9.6417418992449499e-03
      5.2014565209255138e-03 -5.6629450640386597e-03
      9.0879203791654640e-03 9.5702769455249359e-04
      3.9709870594066511e-04 -8.9391919160741794e-04
      -1.4802734723886174e-03 -4.2951393789595282e-04
      7.2680676550370745e-03 5.8031718858852594e-03
      -1.4562271620534794e-04 -2.1290200232149357e-03
      -4.7101728495883436e-03 -5.9806361933431472e-03
      -1.7987054176926236e-03 -5.9323341409056613e-03
      -7.0494194614638655e-04 -2.6546243663805045e-03
      2.3998967552676530e-03 4.2305625257932017e-03
      -2.1325792962423608e-03 -3.7243462191294307e-04
      8.8012177701335815e-04 -4.4022783655395014e-03
      1.0560785213690962e-02 4.5319841936658137e-04
      1.0134030058938599e-02 6.8226884744824303e-03
      3.3932747121563312e-03 1.8969532486325256e-03
      5.6660741196339912e-03 -3.7146537971029874e-03
      2.9133014011776060e-03 1.1012017986869288e-05
      3.4026941723892157e-03 8.5740548431047867e-03
      4.8441824304680768e-03 3.8761524261169203e-03
      -7.0035165376153719e-03 -1.6552711991582290e-03
      6.5510357688409408e-04 -5.2469453963788241e-03
      2.1339410432653864e-03 -5.4795129306208223e-03
      -1.7764493217998785e-03 5.8697479796829795e-03
      2.9159810916703729e-03 -6.5518339937071313e-03
      -5.0275678882416089e-03 3.3486771971540691e-03
      -1.2597476923882434e-03 -4.3535610503097873e-03
      -4.3600734076517864e-03 2.6272826299838983e-04
      3.2718312315331995e-03 -1.1749975133584776e-02
      5.2925380323974583e-03 -7.0424000213968026e-03
      -6.7633429114809969e-03 3.1617322068368523e-03
      4.8112373774470783e-03 -7.3815036992610425e-03
      1.2284536841087669e-02 4.6503150421561331e-03
      -6.7041252881040584e-04 -4.7574775996048229e-04
      -3.1763642979399423e-03 -7.2319088717893842e-03
      -7.7440824115397704e-03 3.0123482550328796e-03
      4.6629925334193915e-03 4.5624892959516081e-03
      -8.9184800206283893e-04 -5.4579168001072063e-03
      -8.0632785251885525e-03 -3.8410924859025261e-03
      9.7631575367346170e-04 -1.4669298628178333e-03
      -8.6729724147368279e-04 9.2726463841537061e-04
      -1.2226619065221378e-03 1.0317168602157952e-02
      8.5339367645247913e-04 -7.8180352967835275e-03
      -5.2586454030096926e-03 1.8181329029279395e-03
      1.3037336498539602e-02 4.1866195307844059e-03
      4.3110989328621549e-03 3.5984248178460676e-03
      2.7477433961967555e-03 -5.8289227043246041e-03
      -6.2277567511907382e-03 3.0892562193773573e-03
      1.6829479253922179e-03 5.5100752060646737e-03
      -2.8706739532128127e-03 7.6591269614579597e-03
      -3.7055683689365335e-03 -1.8730198353529362e-03
      -2.0423949860927438e-03 -3.7169095789171295e-03
      -6.0133941541809987e-03 -4.4034638624949798e-03
      -3.5836551907312690e-04 2.1857322555701706e-03
      1.3790781302910364e-02 4.5865171176585600e-03
      -1.1236394419385625e-02 -2.8033014286160327e-03
      -1.7350605724386007e-03 -4.7151762427650781e-05
      -3.4048008315987460e-03 -5.7130194742837396e-03
      -1.7615771160170914e-03 -1.6381010320812032e-03
      8.5289464845952987e-03 -2.4968241989952846e-03
      8.1529928036458386e-03 -1.1077586528989575e-02
      8.9104355551675152e-04 -5.4254285881682619e-03
      7.8046999422037961e-06 2.4091699890711326e-04
      -6.4790343219563017e-03 1.1177290970156996e-02
      2.0875674063662448e-04 1.2763557384974089e-03
      3.0009023550023623e-03 -1.3923625893583458e-03
      -3.9346354656960564e-04 3.2158839079621769e-03
      -5.6494520384126707e-04 1.9295602729716120e-03
      5.6591364634756989e-04 3.4455156206016129e-04
      1.0293437303432735e-03 8.8147293943325396e-04
      -4.1305728600981332e-03 -8.1641418126192737e-03
      -3.3180877272373584e-03 3.7346816907437403e-04
      3.7166632868316078e-03 -6.4722823044926735e-03
      8.7761788340296116e-04 -4.6222048791698233e-03
      -1.6208480195093687e-04 9.6813943111688106e-03
      -3.9639773608211764e-03 1.8432136004527539e-03
      -1.4608522814326254e-03 7.6904665588261635e-04
      2.0210194029450989e-03 3.9309249587919162e-03
      5.9212391215968090e-03 3.1425755721458666e-03
      -4.0427910904563599e-03 -4.4708677198072493e-03
      -3.0976326752915413e-03 5.9271940436898514e-03
      6.9922778936530074e-03 8.8923822944736702e-03
      -1.6282249494002457e-03 -1.4834670732425284e-04
      -1.1149154093186777e-03 -3.9097486482994291e-03
      -4.9168072987262916e-03 6.5703435782650931e-03
      -4.4186229290630215e-03 -5.2779909367699938e-03
      -1.1475824312149904e-03 -8.1867380374855431e-03
      -1.9900292776230516e-03 2.0339830167232648e-03
      -2.6480816372769101e-03 -6.3503215523252081e-03
      -4.8272388567388467e-03 3.3935322672571174e-03
      9.7451214902612143e-03 -4.5396972793242309e-03
      -5.0655647239825552e-03 2.8228519032721389e-03
      1.5113113228090536e-03 -6.2811188320535385e-03
      1.1250266952115636e-02 -6.4179081822455892e-03
      5.4351363976486832e-03 1.5592364319291828e-04
      -5.2759326406446403e-03 -1.1409474429873391e-02
      1.0535533268539158e-02 -1.2237608633334535e-02
      -3.0396656432883455e-04 3.9609100373428515e-05
      -9.6829259132114841e-03 -4.5103919713295896e-03
      -1.0184608054333310e-02 2.4626262530512660e-03
      -1.4941917865889331e-03 -5.9656684294247383e-03
      1.5364459611273721e-03 -5.1127667112540911e-04
      -8.8548960817658780e-03 -7.7619566302196538e-03
      1.0072692695513644e-03 -9.4729722071122159e-04
      -2.0575772831144144e-03 -1.3824169953158948e-03
      -2.7014295441296990e-04 3.3440244470897239e-03
      -2.5809935508546763e-03 -3.0338290893926023e-03
      -5.5348406049078210e-03 -3.3968922834400263e-05
      7.6822109283640576e-03 2.4526416911703161e-03
      1.7769473289467096e-03 5.4069750397378593e-03
      -7.3156745924229704e-03 -1.1050703628308527e-02
      4.5624198155804268e-03 4.4030876064179506e-03
      -8.9012616345765397e-04 -1.2469037122986508e-03
      2.9686152058171875e-03 8.0908485438819910e-03
      -2.8002940716851019e-03 -1.4282937801230980e-03
      9.2283477252324663e-04 -1.3941471292485049e-02
      -1.7180637948654856e-03 -3.0964137336289676e-03
      5.1342439911117692e-03 1.7693112895995795e-03
      7.0578085047129117e-03 -1.4765628390992808e-03
      -1.0564100142729365e-02 -4.9648307202742178e-03
      -6.3507486919082217e-05 1.4447653401883817e-02
      -3.1094401114477523e-03 -8.8163754328480694e-03
      4.0312674211434429e-03 2.1332054446194211e-03
      3.5780159544672807e-03 2.9318741274152005e-03
      4.6834036848113023e-03 -9.8963880190852029e-03
      -1.3731861144935197e-03 -3.6295662943661724e-03
      -1.9273256642155223e-03 3.7430102779259060e-03
      -9.0022488727273305e-03 1.2862736196052139e-02
      -3.3536084941896633e-03 5.1136458915300607e-03
      -3.8943703187794366e-04 9.7829197747537804e-04
      -5.7751781054110529e-03 -7.7991122982538246e-04
      -1.4373831454061632e-03 3.7135718912676959e-04
      -2.1261580025392088e-03 9.8758518450288522e-04
      1.4459965071779953e-03 -3.1834033095593109e-03
      -3.9921816223565066e-03 -3.5802571189344212e-03
      -7.0452370018966211e-03 -3.1044617678481143e-03
      6.1583311393401145e-03 -8.4218520929865478e-03
      -1.0919249876483173e-03 6.3661084414727695e-04
      3.5075665160554559e-03 -3.1569620334751815e-04
      -2.7612917244217985e-03 8.3601491125178638e-03
      -2.8641159199126642e-04 1.2002054881304351e-03
      -3.0113864626721281e-03 6.0150369706813553e-03
      5.1042994891902444e-03 4.1502163029206408e-03
      -1.3389123889418538e-03 -3.4012099315720570e-03
      -6.9041219997051043e-03 8.9523930476170435e-03
      -3.3163491820920881e-03 4.0833638827371529e-03
      -3.3682380412375151e-03 -6.7265482380040060e-03
      -2.9321504164943101e-03 -1.3804166283531390e-03
      -4.9091595938950423e-04 -2.7549907056645148e-03
      -4.3990398441499179e-03 -6.5141343717137912e-03
      -1.8712972532076550e-03 -1.4475771376505891e-03
      4.6617980120601255e-03 -7.6502227148656119e-03
      -2.9419598186887653e-03 2.0512821544934005e-03
      -3.6615577552086050e-03 9.1700669814547898e-04
      1.0981767424024248e-02 -1.5454974093379698e-03
      -4.0517691175184683e-03 3.2618231830331629e-03
      -5.6493105928707044e-04 9.6575289960716248e-03
      1.2810694872705617e-02 -9.2480452679696203e-03
      3.1277096277815736e-04 -5.4345948911695852e-03
      -2.3115071444322673e-03 3.6299722175192404e-03
      4.5770055620875062e-03 -1.3601274008531693e-02
      1.3882884333415041e-03 -2.9367133535554320e-03
      -9.2479007531583203e-03 7.7731093699744541e-03
      -1.7183688932958989e-03 8.1767626859227693e-04
      -4.8432283039780040e-03 -8.7869905145844009e-03
      -3.0430590781377015e-03 2.4968643785001242e-03
      -7.0973739934320867e-04 -3.8573444243340600e-03
      -6.1484670119634345e-04 1.8609030014086353e-03
      -1.1144874691624393e-03 2.4723793851304829e-03
      -5.9761367261493429e-03 -5.7419688417065648e-03
      2.0280944907944292e-03 4.2011838523663839e-03
      2.5942072766906271e-04 9.0444070399173532e-03
      5.7769115945324511e-03 -4.1253769506993934e-03
      1.8606615565223464e-03 1.4892338866393734e-03
      -1.0277889978164000e-02 -7.9370392651689995e-03
      2.3656531000475864e-02 -4.0582198016421035e-03
      1.0470261665242121e-03 -2.3493743296931743e-05
      2.0012058661953215e-03 -4.3794639482103631e-04
      3.5929692140475691e-04 2.8688482844410477e-04
      7.6247472763573470e-03 -1.8975209124301123e-03
      7.4248920899928602e-03 -3.5990050862930983e-03
      3.4965375375578278e-03 1.4192024311842509e-03
      1.3086714548240098e-03 -3.6802542296664564e-03
      -8.3642695907322241e-03 8.9513418359267699e-04
      7.8385612834472439e-03 4.0693981540913570e-03
      9.0135713850452125e-03 -1.9870343999384026e-03
      -2.7417824169661121e-03 -1.0290053684204031e-03
      9.6386252391584344e-04 5.9989589989995545e-03
      3.9850760139917502e-03 -1.9589436217101602e-03
      1.0177720607139689e-03 -3.4153685880173867e-03
      5.7261338129278970e-05 -8.0705984371840702e-03
      -7.2348802084165097e-03 4.5978537229218530e-04
      -6.0379278636303350e-03 1.2352259647822461e-02
      2.0705478202605191e-03 -3.7617059515488624e-03
      4.2876916120759253e-03 -4.5217433453265234e-03
      -4.7320107986225700e-03 -2.7300295433086499e-03
      -2.0556590985059200e-03 9.0855223755960065e-04
      -3.5040042707983857e-03 9.8696775563073273e-04
      -4.5003843920546479e-03 1.2349880853355406e-02
      1.0718284199201409e-02 -3.6278226443375508e-04
      2.0191714842033867e-03 -8.0121770445743465e-03
      -9.5608333400118200e-04 -1.5268663337367049e-02
      -3.6382794162465879e-03 -4.7111323923582906e-03
      8.5959802791778098e-04 1.0988283895813347e-02
      1.6186042220334975e-03 -1.5856373782001189e-02
      -1.5488024718407960e-03 3.5136556375383541e-04
      -3.0919034354765880e-03 4.2182090562581601e-03
      -1.7149623726285901e-03 -2.2760383232163835e-03
      -5.9323614304956232e-03 7.8438677414309592e-03
      -1.1585568733643128e-02 1.3498008446706483e-03
      -6.3746436698197033e-03 1.5172051189050515e-04
      -1.1341292652829135e-03 5.1190519582956263e-03
      -3.8972539232552815e-03 1.1821784286156801e-03
      -3.4989117031510417e-03 -2.6212419374174942e-03
      -8.9712610442478657e-04 -1.3187303596297341e-03
      3.0375780771530639e-03 -7.9101103650342716e-03
      -4.4451375705636424e-03 4.4580987878942591e-03
      -1.2083249173036458e-03 -3.9447602650295911e-04
      2.6534794661314427e-03 1.2133367372428429e-03
      -1.0603191256182494e-03 1.2061935280887608e-02
      -1.9021715021385758e-03 -1.6668614116339886e-03
      1.0464264652140592e-02 -1.1141191607970247e-02
      -1.0074094055783848e-02 -1.4504687176430549e-03
      -2.5613413773334565e-03 1.1589424674730824e-03
      9.0176866164305214e-04 -7.4353041154390015e-03
      4.7655797253273703e-04 -2.4663296485916532e-03
      -9.1053196448014038e-03 1.3617678268750244e-02
      1.6554048336853019e-02 4.1725773411723796e-03
      -3.8657992075729814e-03 3.4975740525480439e-03
      -1.7756953789943041e-03 3.2641746330476524e-03
      2.3279037182020522e-03 -4.8868723421048284e-03
      -5.1664878486408434e-03 5.6015069488927257e-04
      -2.9198018370366037e-03 2.3864469055393050e-03
      -2.0380680482649390e-03 -3.3636576030762503e-03
      1.6889271359489854e-03 4.4053755825209599e-03
      -1.8042751643117191e-03 1.0812082910702450e-02
      6.2425765246044004e-03 -6.9805229957924765e-03
      -3.2289443829625138e-03 3.3132545153393331e-03
      -1.2856460970122443e-02 3.7864456683880357e-03
      1.5311881649799771e-02 -6.2462196116126294e-03
      -2.1406825226199253e-03 4.3029611996340411e-04
      1.9384722981914404e-03 -2.0299484708008455e-03
      -1.2184745431729619e-03 1.5524584178603792e-03
      -4.2227851276161335e-03 -4.9040038215383257e-03
      7.7493763391599194e-03 -5.6617044966198989e-03
      -4.4908473874508445e-05 -1.7303541078781827e-03
      -6.1498735869314311e-04 7.9632548446159721e-03
      -7.1785764251382127e-03 -1.2101225970618593e-03
      3.7249440044114794e-03 4.4457895756998362e-03
      8.6033147543302536e-03 -3.4511683453968796e-03
      3.1590783157879167e-03 -4.2426272305450723e-03
      -5.5651028878095712e-03 4.9579356019118061e-03
      3.3821792814598983e-03 -1.9910012712248083e-03
      -2.8653134107438149e-04 5.1955415238958379e-03
      5.8162719992832235e-03 -6.6071993502031783e-03
      -2.0916522935995317e-03 3.1395212508210420e-03
      4.1687404423169459e-03 4.9919451546669626e-03
      -1.1816202000638745e-03 -5.1752246949317935e-03
      -2.7270259116324232e-04 -1.9246072498127498e-03
      -3.8554349097349363e-03 -8.5260567523454676e-04
      -1.9690575688528678e-03 -1.4022960487121339e-03
      -3.2894756631493844e-03 3.5374600876035198e-04
      -2.0818496421174605e-03 8.5338017871940692e-03
      -1.0804637845022494e-03 2.2615802076874081e-03
      3.6825616782486534e-03 -6.5248681673173402e-03
      7.1694036641597146e-03 -1.4066939736220712e-02
      -8.1879333227102818e-03 -9.7468726488650608e-03
      -2.6486255607551434e-04 -1.4641305667316628e-03
      -2.7006899166760415e-03 -3.6554454496941372e-03
      -3.6829826821125193e-03 3.9850485982412809e-03
      5.4108864909010049e-03 4.1816299794393578e-03
      -1.6887555733129192e-03 -1.3108792683238170e-02
      -9.7605525272063936e-03 6.2085739365249481e-03
      -1.3336740486224944e-02 6.3045013962578309e-03
      -9.0357756493420916e-03 2.7084761699163852e-03
      -1.5250776668850421e-03 1.1805379005316597e-02
      -2.2546741450672693e-03 6.9975203159490752e-03
      -6.0471329243342361e-04 -3.4600304688826369e-03
      -2.5165345693080742e-03 -4.7393825275864479e-03
      7.3109383144221241e-03 -7.3312564816165066e-03
      -4.1145387762004373e-03 3.6049806662117700e-04
      3.2073066748936931e-04 -4.8799651272720518e-04
      3.5715140301985668e-03 -2.4711187103159281e-03
      -3.7498080564215370e-03 3.3533374150623405e-03
      -5.3021675921259307e-03 4.9952179255558730e-03
      6.5255499926590013e-03 -6.4015517580958648e-03
      -5.1360923722358785e-03 -3.2177917378978251e-03
      -1.4316106446235420e-04 4.2321105603152749e-03
      -9.5901897738691639e-03 -7.4504422388139372e-03
      -2.2958068019269754e-03 7.0523798828530954e-03
      -2.6942696938095888e-03 1.5118148763194329e-02
      1.6344810003852579e-02 2.5133498039367290e-03
      -1.6537825887158796e-03 1.0358153273412786e-02
      -4.2079642475523378e-03 -9.9580701808097746e-03
      -2.3528545233690600e-03 -3.5916400676189336e-03
      -3.0765761607345933e-03 1.5272480709440587e-03
      -2.9490272765172179e-03 -4.1816642505593396e-03
      -1.1150442216549962e-02 -3.9508862442281696e-03
      1.0277936847246586e-03 -3.3191835603551198e-03
      5.8805525665033985e-04 6.7041122496636317e-03
      2.8585883004513613e-03 -9.0621316378192568e-03
      -4.8706174428063079e-03 -3.6671046037903259e-03
      -3.8203128147930475e-03 -9.9631097786522221e-04
      1.4506991799398156e-02 -1.0202597230624371e-03
      4.7145947129436088e-04 -1.2981294264452008e-03
      -6.1393644889187462e-03 -4.3408306709572346e-03
      -2.0829180005929471e-03 -3.4697513225847077e-03
      -2.0170167324749496e-03 -9.7998900596014873e-03
      2.6606660743425702e-03 -2.0781705978667915e-03
      1.9943719642815778e-03 -1.7345312756852386e-03
      -7.5194045114173221e-03 1.2791206428751496e-02
      -8.4608114079875313e-03 -1.5332223176163307e-02
      5.0011134885593967e-03 5.8101775436603955e-04
      7.9125498812830340e-03 3.0725961406251893e-04
      1.4497056521887007e-03 -9.3108639298997310e-03
      -1.5411951661444384e-02 -1.2171140468530742e-03
      3.9870304379297120e-05 1.8536102410313404e-03
      -2.1445690018154925e-03 1.2254180359757972e-02
      8.7973897801641994e-04 -9.7300749099899671e-03
      -7.2128761058921805e-03 7.0035593050906432e-03
      -1.1210269879600398e-02 3.2437709728766620e-03
      1.3672269386603645e-03 -1.9825971372113621e-03
      1.9442295237207278e-04 -2.2611901628892309e-03
      -1.7061976079004812e-04 -5.1505661219457730e-05
      4.8912557504699611e-04 -1.0020660540381889e-03
      -3.4560604298689891e-04 3.6461179151874408e-04
      3.6902768297009465e-03 9.5454223365168064e-04
      -8.5239416792335411e-03 2.7713232498244949e-03
      5.0316011639963010e-03 -7.0184930805209066e-03
      3.0687235223573793e-03 -2.9793593065843777e-03
      -1.3211090117915821e-04 -1.0736815290433570e-02
      -2.4862277197891637e-03 -1.6844378424724982e-03
      -2.0956189912524890e-03 5.1199429397382383e-03
      7.9829693549140334e-03 6.1084774225185013e-03
      4.2435063783910877e-03 3.3829674388899172e-03
      8.1372630790955806e-04 -1.2204646282648078e-02
      -5.2410897819643327e-03 4.3330984324630421e-04
      -6.3578596680502258e-03 4.9935810600069035e-03
      -3.2521675179929960e-03 7.6449595621106391e-03
      -6.7448147600933893e-03 -1.1895832696059787e-03
      5.1674851611717152e-03 3.0533738923454955e-03
      3.7407691945408636e-03 -3.2377268643387176e-03
      5.4589383362207216e-05 -4.2677327243284026e-03
      7.1945557370176969e-03 -7.7174186166348380e-03
      2.2435292028607609e-03 -1.5271921372833411e-03
      -1.5761364634499756e-03 2.9314270725310228e-03
      -3.4922357765316625e-03 -3.8933825290400092e-03
      -5.5035025336132850e-03 4.1541631682647873e-03
      -1.1058406795220440e-02 -5.2487839334981320e-03
      2.4407466268469092e-04 -8.3184762019860806e-03
      -1.6305111219465900e-03 -4.3730890556318101e-03
      -5.1830252434088876e-03 6.4773080606318843e-04
      -9.2673759148959825e-04 -9.1420136771433909e-03
      -1.3946184854129787e-03 6.4335097016356979e-03
      1.3410447988326318e-03 1.0612213378879989e-02
      -1.9973030260912964e-03 -2.2875451741098183e-03
      -3.7759033039419963e-03 1.0019597373530949e-02
      -6.6944318358436415e-03 -8.9014441460455347e-03
      -1.4151902770754917e-02 -4.4290474148881813e-03
      -1.7387746903517653e-03 1.0033896886036077e-03
      -1.6991535518468056e-03 6.0342209103986450e-04
      -6.9482862017593988e-03 4.4735408462620108e-03
      -1.0062651360630117e-03 1.3870438137283969e-03
      2.3307783797161321e-04 1.0362016424057135e-02
      4.0703485272007593e-03 -1.2979538735274567e-02
      3.9386310137568235e-03 5.2689583527494033e-03
      1.0397987322420905e-02 -1.2211482783485729e-02
      3.6659697812528921e-03 -4.9416249272513143e-03
      1.2461895616474876e-03 3.7173328860910715e-03
      -4.0200375637635295e-03 -2.8670900309242671e-03
      -9.6684668823388378e-04 5.6136388173985939e-03
      -3.8299362866513030e-04 -3.2920255219802946e-03
      -5.1033703192259203e-03 1.5203815009404845e-03
      1.5028021271825120e-03 -2.7463115509696401e-03
      2.1286088696238345e-03 -7.5480176614982158e-04
      -7.7342077081203140e-03 -1.9067660825703554e-02
      -4.9530185253295481e-03 5.5876607360576848e-03
      7.0742904424007241e-03 1.4401258109608811e-03
      3.2811589700764503e-03 -7.2482763580760893e-03
      -1.7756606896765250e-02 2.9396644027688385e-04
      -2.1583624617765840e-03 6.7162185048654181e-03
      6.7922214648795376e-04 3.2277499876852498e-03
      1.2680964580409737e-03 -7.6997669145405130e-03
      -7.1270620226188833e-03 8.7805417997178694e-03
      -1.1128784381555436e-02 4.1905052715139829e-03
      -3.7735317737620437e-03 -5.4824646607484736e-03
      2.2201300540391268e-03 2.4207303578351424e-03
      -1.2935721065654550e-03 -1.1965065863098390e-03
      5.3304850697385249e-04 1.3328757203943259e-03
      -3.1076962767239355e-03 -2.3806773744432324e-03
      9.6993672935294947e-04 8.8885308454724841e-03
      -2.4372773607595912e-04 5.3487588126264057e-03
      6.1253527565700043e-03 -6.1594085727114563e-03
      3.6555230980188894e-03 -9.2088531980196852e-03
      5.1009573783457798e-03 -6.8019254680338238e-03
      2.1140277836694250e-03 -6.3529391184666707e-03
      -2.5347993319635542e-03 6.1012326366089937e-03
      1.9399300977619301e-03 5.6064341642781514e-03
      1.0327138282043089e-03 1.4912454504324183e-03
      2.1304061656537230e-03 4.3774893856191434e-03
      -4.8745170234915682e-03 3.9186169605229379e-03
      -1.9399515685303164e-03 3.2695367679142296e-03
      -4.9101639254661028e-04 7.1070222083188693e-03
      -1.3888031757403951e-02 3.3083076998755871e-03
      9.0437285015405825e-03 1.0234990341213522e-03
      2.5244535646466709e-03 -4.9556473461084402e-03
      2.4654523154553983e-04 -7.0702870133477107e-03
      4.4381325811292749e-03 -1.0463679590739810e-02
      -2.4479866354429466e-04 -2.2945789127979577e-03
      -3.0370533999156692e-03 3.0456071111280286e-04
      -7.2715446817404198e-03 1.0829914178192019e-03
      3.1027534112040719e-03 1.9512285917691071e-04
      -1.7141214777950387e-02 7.4222227758255505e-03
      -7.5709026406799778e-03 3.0835791781262121e-03
      3.1368872178022590e-03 -5.2275917551464620e-03
      -8.5566487978879346e-03 1.8208249658018356e-03
      -5.1560311164855661e-03 -1.5534011868126760e-02
      6.7353065312059611e-04 4.6976417506277464e-03
      6.4552469009652620e-03 7.0515280892785269e-03
      -1.1616812159263748e-03 -5.2305826605164316e-03
      -6.3185100457105988e-03 6.6986346778394922e-03
      -7.1420107789449037e-04 -4.8244376812176526e-03
      -5.7172676537529925e-03 -3.7278316953536228e-03
      -1.4865373896010407e-03 -2.0330474238184804e-03
      -1.1258675086007370e-04 2.7701850173209122e-03
      -6.4824174967917170e-03 -7.6149527147197672e-03
      -2.1682762594573768e-03 1.5691778420531818e-02
      1.1208247985853089e-03 6.3807515567301104e-03
      -7.9127042135197900e-03 -4.8373697395406997e-03
      4.9791045617659981e-03 4.3539891074376585e-03
      1.5943320360568183e-02 -4.3283642318295559e-03
      3.5448284343442692e-03 -3.0173714304309535e-03
      1.0664539134771312e-03 9.0356449950191372e-03
      -1.3656073590356246e-03 -2.9147931883572800e-03
      -3.5848117068723777e-03 2.5130527355259301e-03
      -5.9480314298743682e-03 -4.4246102502766005e-03
      -5.9839987563454419e-03 -3.3295958228569299e-04
      9.0800623567864960e-04 6.8442465451319515e-04
      -2.4303447906256961e-03 3.9884271916095111e-04
      -4.8899576502442746e-03 -1.0265681708739881e-02
      -3.1242905271536554e-03 4.5618690467785963e-03
      -1.9024281122943635e-03 -4.9417792500557728e-04
      2.5176673905767145e-03 1.2698706484946464e-03
      -1.9587139260362967e-02 -4.3617947124580912e-03
      -1.2137510374419702e-03 1.0055542324871502e-02
      -2.3148276918701569e-03 -3.2138151350577134e-03
      5.3607387996472368e-03 -7.6626592001829818e-03
      -7.0138637039793761e-03 1.1590203789175356e-02
      -3.5525527381748429e-03 -5.6591646476882159e-04
      -8.9854451595997430e-03 -6.9856953452350464e-03
      -4.4514544440394273e-03 1.8296956275756920e-03
      -1.0222188236291945e-04 -3.0134700142974659e-03
      -5.2305722435283248e-04 -1.4907636356679733e-03
      -5.9249771855582048e-03 4.6483315857063774e-04
      -1.3696300421428265e-03 1.0367401134629809e-02
      5.2525101853413787e-03 2.7373077506362019e-04
      1.3442982142104140e-03 -8.3260225964871849e-03
      2.6649122194227332e-03 5.9031509847737428e-03
      -1.8114183125716863e-04 -6.2777855290057994e-03
      3.8966787436994434e-03 -6.6320904615566872e-03
      -1.0424650277811229e-03 -1.6864039734451417e-03
      1.6505315639034482e-03 8.5102232015660771e-03
      -1.7409892587575285e-03 1.9607701993398178e-03
      -1.5102429913316946e-03 -3.7932718161578006e-03
      -2.3543151517701338e-03 6.7010783877458737e-03
      -2.6655829797156880e-03 4.5831425353765783e-03
      -2.6204359500880499e-03 6.7490367391196907e-03
      1.3581663401725525e-03 1.2519724157437307e-03
      1.3728819545789774e-02 6.2317785299184202e-04
      1.4392927176110847e-03 -7.6216023886405589e-03
      -4.4154007939133804e-04 -6.1644588565138055e-04
      -1.0070799052882473e-03 -1.3604056567510207e-02
      -4.0174803620632183e-03 3.9360648356638250e-03
      -2.5084125105748678e-04 1.9781108648729987e-03
      2.3743561813409360e-03 1.1119455933436286e-03
      2.2114013206403671e-03 8.3265896873359520e-04
      -9.4530061376382948e-03 -4.8278766555184486e-03
      -2.8876835614590592e-03 1.1019111579744976e-02
      -1.1770611020086068e-02 -6.1668694801958260e-03
      -2.4759398400815182e-04 -3.9258750355307230e-03
      -4.7971807791184606e-03 -7.8750134833827090e-03
      -1.1166920029035863e-03 4.3198275293767413e-03
      -6.1785787438225163e-03 -1.1150053164729680e-02
      9.5797427005658055e-03 -9.5622131804084364e-03
      2.3040734238723519e-03 7.5324859098243714e-03
      -9.4994201770797206e-05 1.2400761313144496e-04
      -6.4287766915489212e-03 -6.7670463563133674e-03
      -1.9377480110094006e-03 -5.9751824122069620e-04
      -2.8722944467116230e-03 -4.1677452865662911e-03
      -5.0937234125708053e-03 4.2106930649629323e-03
      -1.7774386823784783e-03 5.2619270507040881e-03
      -6.8748225957412901e-04 -2.5884628061549802e-03
      -1.2945029908829928e-02 7.4298696218983397e-03
      1.2681952241823958e-02 -1.0113388138366926e-02
      1.0925606055587341e-02 -1.6514245126754608e-03
      9.1833434924288909e-04 3.3098211626058712e-03
      -2.7981447774114874e-03 8.0195292259899946e-04
      3.6962062704421384e-03 3.2735093197111168e-04
      -5.6536195530286287e-04 -2.3758998247995419e-03
      -6.2670643312419437e-03 1.9507991261030766e-03
      -2.1820759942812559e-02 -7.0263662234529263e-03
      -1.1322584625757840e-03 -4.0779844223255192e-04
      -2.2654833511460775e-03 1.7627077955728867e-03
      -5.9085140786769722e-03 -6.8824718945285435e-03
      -1.2499335089260660e-02 9.4485878177642275e-03
      -5.5143243693573313e-03 2.2118873405410117e-03
      4.7672441499417963e-03 9.3144263391856160e-03
      -1.7342753573856957e-02 -3.8162987301788871e-03
      6.9235756263277435e-04 5.8546201914156642e-03
      -2.4886696569110635e-03 1.4331422476452697e-02
      4.0659695212681450e-03 -9.9379647817082382e-04
      -8.0473086540723184e-03 2.3695914438983533e-03
      6.6430191609116096e-03 -6.2888882762078712e-05
      -2.9947417765249962e-03 -4.6201458879549639e-03
      -7.3739408594902462e-03 5.8943265546518497e-03
      3.5117620971580020e-03 -1.1204558911782210e-05
      -1.9450616116283869e-04 -1.3325344018319846e-03
      -2.8805805238243461e-03 -9.6403436618039875e-03
      -2.2915302028294277e-03 1.3140922966887276e-02
      1.5454043169657607e-03 -1.0615501051257650e-04
      -4.3155704199675481e-03 -5.1400035299130785e-03
      1.8174516471497208e-03 1.4505226202187776e-02
      -9.1926803790496840e-03 -5.3099311850549743e-03
      4.3077059287551103e-04 -1.2372051270424381e-02
      -2.1331571294909307e-03 6.6194330848695880e-03
      -1.6695887662611069e-03 -1.4416449586144343e-03
      -3.8769780369085228e-03 -1.7622673070856105e-03
      -1.3264263250124645e-03 -1.3211203259286538e-02
      -5.0981004227643881e-03 5.5467138126580190e-03
      9.8247252603245010e-04 3.6874268943506321e-04
      8.5981548742981671e-03 -1.5463099493927528e-03
      8.0738424629430219e-04 2.9695460525571422e-03
      1.6331647806062458e-02 -1.1378549985275222e-02
      2.0840523949044055e-03 -2.1548900987654277e-03
      -7.5319698592159526e-04 -7.0681040726295937e-03
      6.9614812384561351e-04 -1.3240676042853774e-04
      -5.8389932857698659e-03 8.9254434014018752e-03
      -4.2786013579039885e-04 -1.6069342786447750e-03
      4.1883228075445039e-03 2.5670566460689862e-04
      3.9975555006217436e-03 -9.6714524924649485e-04
      -5.7921889836774782e-03 -4.8503667931789951e-04
      -8.8095157931853806e-03 1.5780020539424244e-02
      -6.2483176073122818e-03 -5.3518473489730083e-03
      9.4387642951633956e-04 -8.4595685780318810e-04
      7.7567363090856790e-05 -2.2073227132048223e-03
      -1.5250306275634516e-03 -3.5134766331874656e-04
      2.1365990692768064e-03 -3.6763843410790461e-03
      5.7399280444481206e-03 -1.5796162812168717e-02
      3.3565173991354832e-03 -5.8797839222080100e-03
      3.5626462107777153e-04 -8.3568141437703248e-04
      1.9333339038360032e-03 2.1403601873846972e-03
      -6.0828830032740241e-03 -1.7602283772931650e-03
      8.2597196598765672e-04 -1.9294949475743377e-02
      -4.4277474388823533e-03 3.7234280747258583e-03
      1.1161107355365822e-03 -3.6799248511732090e-03
      2.5530229162681636e-03 -7.1389358719104144e-03
      -1.3711438826482146e-02 -8.9047472089206668e-04
      4.6972925738577448e-03 -1.5858171266263890e-02
      6.9481981969222034e-03 5.8364323267517306e-03
      6.0217033106611858e-03 3.3072158867418549e-03
      -7.9278481589032594e-04 -2.4534570565389298e-03
      -3.0464378295610027e-03 -7.1798430735641886e-03
      7.3024823352603571e-04 2.3936621875951694e-03
      -1.2869186984657980e-02 1.1190036498353553e-02
      -2.3706079419805157e-02 -5.6604554103397223e-03
      -6.0795023012060918e-03 -1.7169414612031788e-03
      -5.8571812565384376e-03 3.1630888417471235e-03
      -1.1366510742381710e-02 -6.4127697579147826e-03
      -8.9763791978822345e-03 1.7923852508085199e-02
      -8.3779481243561865e-03 8.8369345073035642e-04
      6.8360882047275109e-04 1.3401337702269289e-02
      -1.7438209574122159e-02 -6.4907157719207324e-03
      3.6289788002947408e-03 9.9964365350717396e-03
      1.5156281902018698e-05 9.9159725384402615e-03
      2.2159745187202056e-03 5.7018250230627711e-03
      1.0370874529526293e-03 -2.6216057757649010e-03
      5.7634948582925083e-03 1.2665187140687993e-04
      1.5850550780129580e-03 1.4693686385967202e-03
      -9.5327385029794244e-03 6.9907409409731176e-03
      1.5275091078298187e-03 -1.1481287266393745e-03
      1.1607811893322895e-03 2.1225606994192230e-03
      -5.4932121575625853e-04 6.6460570121964439e-04
      -2.3698979109197716e-03 6.2760896005317783e-03
      -1.9505331951921454e-03 4.2465193042373877e-03
      -5.9101882511379093e-03 3.4294170509702455e-03
      2.3826214823687466e-03 1.1336294857754508e-02
      -5.1751139855445343e-03 -6.6302588288291451e-03
      -7.2269484336141918e-03 -5.7894158447194134e-03
      -1.2247749522525562e-03 8.2415945022908804e-03
      -2.8477293010691367e-04 2.4964909913569927e-03
      -1.2504212863366968e-03 -7.8886984702684611e-04
      -3.2256339596767498e-03 -9.2429914228667406e-03
      4.6940092658071192e-03 1.3781885396632458e-02
      5.3625553716016012e-04 -2.3271168063237406e-03
      1.0394402678584151e-02 -8.3500910987982634e-03
      7.4061777382002118e-03 -7.5980120157254256e-04
      1.5356426745330207e-02 -1.2830342402512535e-02
      -3.4020512327622529e-05 -6.3651044800895921e-04
      -2.3107347347978389e-03 -4.6574364152225135e-03
      6.9061566660899272e-04 3.4462209961246177e-04
      -1.1167806049639099e-02 7.8538400241760543e-03
      1.2500296452533722e-03 -2.3215190291268088e-03
      -1.7350563057946362e-02 -2.7502391301494453e-03
      1.0975506766829625e-04 5.0966594539797179e-04
      -1.7618291422745562e-03 1.9205574196437678e-02
      -7.6205942239773814e-03 8.7737629460843541e-03
      6.2323323774503142e-03 -5.8039546450327096e-03
      -4.6116883698959906e-03 -1.0388906823419327e-03
      1.8958236742099878e-03 7.8500704166905547e-04
      1.6068610473566282e-03 -2.2263671315832768e-03
      5.6299251267565176e-03 -9.1061281711364173e-03
      4.6263269079229157e-03 -1.0834730515994834e-02
      -2.7547269091533345e-03 -6.1001165917543725e-04
      -2.7992997853661197e-03 -1.2749682871431290e-02
      -5.6099271095185000e-03 6.3066415772672652e-03
      2.3071759929835676e-03 -1.1328667615978843e-03
      -5.4919081866653492e-04 -1.5513706747408720e-02
      1.9779684832954645e-03 1.0738016588123481e-03
      -1.1490853694065846e-04 6.9314169763813631e-03
      -4.3218047546190070e-04 -1.3165205302374625e-02
      -1.0318624217177505e-02 -7.4671398132778385e-03
      -4.2387180773319081e-03 5.2011380055942062e-04
      -5.3504835538259153e-03 2.4346073278757718e-03
      1.9331448272835311e-02 -4.3660103421117903e-03
      1.4886546218218903e-03 -4.2566530888827076e-03
      -3.7735549784737089e-03 -5.9475860621188434e-03
      -7.0280038068387533e-04 -1.2836236871105952e-03
      -8.3594917470177863e-03 4.8492414883016706e-03
      -1.9363631407180892e-02 -5.3410006395131476e-03
      -5.5387062048890877e-04 5.1221886720089621e-04
      -6.6118388299587607e-03 7.1589596966811807e-04
      -9.8916790334008138e-03 -1.6619834513984078e-02
      1.6002306878594894e-03 8.9702414287279025e-03
      -5.8667463855593145e-03 1.9540908751674814e-03
      1.1546391034850496e-03 3.3593486272880078e-03
      -1.9860013935573056e-02 1.9430106273099710e-04
      7.2334799719916973e-03 1.0710863516989522e-02
      -2.1843066005841519e-03 -1.4807994154944625e-03
      5.6661694013436983e-03 -5.8464119001070718e-05
      9.2098981196753211e-03 -7.1212334698747132e-03
      -4.1159208565267659e-04 9.4012011811590835e-04
      -1.8977317766793343e-03 1.0755360879842229e-02
      5.6501673317666179e-03 -1.5798442550880784e-03
      5.9563905227237078e-03 8.6815956732792354e-04
      -1.4760361481338546e-03 -1.5071637038626942e-03
      -7.8348486209368594e-03 -5.9381446669762989e-04
      8.5700704967558040e-04 -2.0632147171003568e-03
      4.0326163339540746e-03 1.0489307648451259e-02
      -2.5474187906797080e-03 -1.6045672594478501e-04
      1.8752852262219138e-03 5.8640217656894273e-03
      -3.4482401019659851e-03 -1.2108070155415023e-03
      -4.1969126206522081e-03 -4.4559195337038988e-03
      9.5617360835039788e-04 -9.2662999289783946e-03
      8.0854035856217209e-04 -4.4080529759666059e-04
      -1.1704744440164678e-04 1.0933149069795521e-02
      -2.3941113220078795e-03 5.1435738592721120e-03
      -4.5604013061457959e-04 1.4238978080699785e-02
      2.6737510103405425e-03 -6.6161337305204572e-03
      5.2166769452879650e-03 3.4857401185285630e-04
      3.4346203230345160e-03 6.0840808340792852e-03
      3.9965982192250605e-03 -8.2875036558778120e-03
      4.9382003694883696e-04 -4.6987588550910179e-03
      -1.0630013378017675e-03 -4.7475606022398696e-03
      6.7132458951350794e-03 4.8667652184035642e-04
      2.3815874178911037e-04 6.3619679108849530e-03
      -3.5123716656006209e-03 -6.0849055044429653e-04
      -1.5883170127277409e-02 -1.8683631219920468e-04
      -1.5426155505936284e-03 4.4055360027939628e-03
      -6.7424516400234179e-03 -5.6014357268079603e-03
      -3.1660985641145476e-03 5.7075156478126714e-03
      -2.4285955784896316e-03 5.0320982221264514e-03
      4.0550877818864720e-03 2.1085118118223793e-03
      2.5495292056702556e-03 -6.6050224248350895e-04
      -2.1625630750547607e-03 -1.0960002610007550e-03
      -3.8431583223129119e-05 -2.6502701392841967e-03
      -1.9682050376913676e-03 -1.4892263316832477e-03
      1.8893550553672294e-04 -1.9998519811777147e-04
      -2.1040433629191456e-03 -1.4332232062416564e-02
      -5.3870850141059428e-03 3.4424849571312900e-03
      2.7774247822009981e-03 -1.5070242404599176e-03
      3.3507939863476484e-03 -9.6323680237860587e-03
      3.9950514990297874e-03 -8.5520227646835732e-04
      -2.3877114287413734e-03 -1.3667577771758964e-02
      -1.1311624580504638e-04 1.6783281908993445e-03
      -4.8714823312563478e-03 -7.9258483643364023e-03
      1.3800749973464773e-02 -2.8243844580902321e-03
      4.8841644987545297e-03 2.4653818298520148e-03
      7.4805856310148884e-03 -1.0708592655774415e-02
      1.2749159558865402e-03 -4.4439550331407665e-03
      -6.8026993468838443e-03 -6.3839776452059198e-03
      -2.7215887495197254e-03 2.4212606307608031e-03
      -2.9891056582809234e-03 7.3608397644976415e-04
      -1.7218590068385674e-02 -4.5995864765241055e-04
      7.5232333139724356e-03 -2.3429858709857573e-04
      -9.2439377188574708e-03 3.2722222425594521e-03
      1.6976684810144289e-03 -1.0856433053622268e-02
      -2.1161190894089786e-03 -4.1396995451164478e-04
      -8.2618478585281419e-03 2.2019644399004987e-03
      -6.3968712246618357e-04 4.1542063583436281e-04
      -1.1862245246535317e-02 7.1011265441030770e-03
      5.8134275930778285e-03 -1.6064208053794980e-03
      1.1348383550817027e-03 7.4897426878648169e-03
      -1.6143782595812884e-03 -6.7869937376084880e-03
      1.2106716946785199e-02 4.6757394708322423e-04
      8.1747605948678077e-04 3.2870926448552531e-03
      -4.3277161215052977e-03 3.7597963919544959e-03
      -2.0174992960551937e-03 -3.4748306780381009e-03
      8.4707928439776287e-03 -1.7378571307672885e-03
      -1.9456123951197511e-03 1.4691216529552013e-03
      -9.9994715231302910e-04 -7.8124181011239857e-03
      1.7413556534914159e-03 -2.0850642559273581e-03
      4.2605546100457168e-03 9.9709671849663711e-03
      6.6857397949031680e-03 7.5499517781754764e-03
      6.3214128809602711e-03 5.2482626103545699e-03
      -3.7094462211891433e-03 -1.1198377199196154e-05
      -1.0225094160691011e-03 -3.5562350661775497e-04
      -4.2470787848049204e-04 9.2649279580311432e-03
      -4.2909106080683216e-03 4.5286784362537716e-04
      -5.7114735274949998e-03 4.2603538867269728e-03
      2.6270153397660166e-04 3.2900443752627360e-03
      3.8511021631872301e-03 9.1676817480417575e-03
      1.2437712279028707e-03 3.5380352936258928e-03
      1.6375148198263111e-03 -4.5702135389873149e-03
      5.7248509034226042e-03 3.7371055848605776e-03
      -2.7143219072064072e-03 -8.6231479982548155e-04
      -1.4629864961638176e-03 -2.0049316545981042e-03
      -2.3845696427369487e-03 -7.0985256261625988e-03
      2.4066373718257977e-03 -3.6467274476551922e-03
      -1.2639792686929795e-03 -1.1647254328817928e-05
      -2.0504832155603800e-03 2.4225777147622845e-03
      -9.6193857015072892e-03 -1.5828235339601707e-03
      -8.7273144059771320e-03 1.2538226529567591e-03
      -2.5296217582693697e-03 -3.9235358217225074e-03
      -2.8071750141214422e-03 5.3008244252608569e-03
      3.7800315529011460e-03 -1.6592227032213088e-03
      -7.1736374139122223e-03 -4.9242720141802762e-03
      5.0677077760974956e-03 -7.0625469908459368e-03
      9.4606015152465858e-04 3.9380235087287351e-03
      5.9749164297220386e-03 4.3319077639642053e-05
      -1.5741216482814374e-02 9.6467183831710594e-03
      8.5899326157113461e-04 -1.0701519430961506e-02
      -7.6767413264245419e-03 -1.7362332858844240e-02
      -1.4240267836136938e-03 -1.5095356036491960e-03
      1.6484750183420312e-03 -5.5928360494886286e-04
      6.9844415976343362e-03 1.0203948211748269e-03
      -4.0577158496295099e-03 -6.7614541635982166e-03
      -4.3021047480612572e-04 -8.2268122800780597e-03
      -2.7526073361544730e-04 5.3845990604822593e-03
      -6.8806522947844192e-03 -1.9836690177481241e-03
      9.5782558395543938e-03 2.5706063608573310e-03
      -8.1489086964832216e-03 -2.6771109365376859e-03
      6.1565585170821437e-04 -7.8501331629066244e-03
      -1.5342546786505217e-03 -1.0795449429967517e-02
      2.5784505891353394e-03 7.3466887919927649e-04
      -5.5521552037942419e-04 4.7390260780412214e-03
      8.5252856450444264e-03 -1.9933907130318018e-03
      -4.8242408763887485e-03 -8.8486221680305884e-04
      -4.3120875359115894e-03 -2.5113007907724707e-03
      -5.4827838032465073e-03 9.6773107092697364e-03
      1.4561964624049540e-03 -4.5745846974054203e-03
      -1.6752149381909084e-03 -8.1536816712070616e-03
      -1.2914575091001915e-02 4.2018788177551258e-03
      7.7977921503729947e-04 -7.7732293310481164e-03
      -7.4997434820975673e-03 8.3201846324719320e-03
      -6.2592951528499625e-03 -8.5255635674406753e-04
      -3.3840975919901227e-04 -1.1068533405627075e-03
      -3.0817370766022113e-03 -3.8973072840151734e-03
      7.6879586526735402e-03 7.2158158586940659e-03
      5.9488718039109648e-04 -5.7886954760606073e-04
      -6.8914704417147505e-04 -6.1787664695686726e-03
      -9.9768745451773808e-03 -2.6863493178455487e-03
      4.3331880164125501e-03 -2.3237187166998715e-03
      6.1897481231153485e-05 -1.9287027325831955e-03
      9.0444853898699364e-03 -2.6799247775538115e-03
      7.9003767994905473e-03 -1.2009626498129257e-02
      -1.2105442830735213e-02 9.3776652646268260e-03
      2.9185085143845664e-03 1.2316307202937242e-02
      -3.5586148180145778e-03 3.1546083747946321e-03
      -7.1103040245931119e-03 1.1954199725386901e-03
      -3.2735885387790192e-03 1.7910185392781526e-03
      -2.8423968983457937e-03 -1.0632480712838063e-02
      -1.1220854860965740e-02 -3.6958740485014824e-03
      -9.8785968713526722e-03 7.4741895511512228e-03
      -2.3384924797861710e-03 5.2501975553665287e-03
      5.3089839144088800e-03 1.4377433427509969e-03
      5.6346697185812328e-03 8.9919325152204629e-03
      7.4960612973022048e-04 -1.5066482151420708e-03
      7.5478956756868890e-03 -5.7449649614910682e-03
      -6.7551470856015696e-03 4.6703978884531034e-03
      -2.8910687243016570e-03 1.5198644040312589e-03
      1.4610050127597217e-03 2.3215579413797694e-03
      -3.1757773501397518e-04 3.2687431268522298e-03
      1.0731397387479523e-02 5.6531287906563255e-03
      -3.0040395929971848e-03 3.9713973959910357e-03
      4.5049297696323799e-03 -1.5241110291143523e-03
      -1.3217908828238496e-03 8.1637059580037027e-03
      -6.0570196397787884e-03 1.1953915649179241e-03
      -5.9475993907344721e-03 -6.4535547042236727e-03
      -6.4671484800544864e-03 -5.7047043749318110e-03
      -1.4216441078264112e-02 -3.1810872539584424e-03
      7.0130275524874581e-04 -5.1530708799233469e-03
      -1.7828591601125575e-03 -2.3912025918911154e-03
      1.1986621974190396e-02 -7.3569819431527289e-03
      -8.9728263269254673e-03 5.0000646654706146e-03
      -5.2922437402994679e-04 -1.0372309885723973e-02
      -5.9582616124728652e-03 -1.6832140550840466e-02
      2.9785519128455677e-03 4.7587491076798543e-04
      2.7973660584638843e-03 9.9908861683090252e-04
      5.0396270183955764e-03 2.7752137694426258e-03
      -6.2932105530105328e-03 -2.1073120149024899e-03
      -2.4477473635199082e-06 1.4291621347490685e-02
      -8.0594537923296319e-03 -1.3588405266698007e-03
      -1.0174482818066335e-02 1.3518830885259020e-02
      -4.2948241708876990e-03 8.9557131496344772e-03
      5.1364439689867494e-03 5.2152210557899628e-03
      2.9759028055771340e-03 6.9194712966301453e-04
      -2.0992764918466725e-03 -5.1117442718207175e-03
      1.1250356993426858e-02 4.5257284880899249e-03
      6.9534637973742944e-04 4.8415217622686316e-03
      1.0738571517087282e-02 6.6342409577282184e-03
      -1.2205050485538277e-02 -3.2828110971449501e-04
      -4.2218605532804614e-03 9.2153678291031062e-04
      8.9345488776710318e-03 1.6650850351606168e-03
      -1.5545214487093922e-03 2.5324199202358053e-03
      -1.3380212881566085e-02 5.5326290456868396e-03
      -5.5345418115006033e-03 1.5933171427761586e-03
      2.1571747192913157e-03 -4.8961189499350201e-03
      -7.7125394661254672e-03 -4.5537931538426162e-03
      -1.9369769507830549e-03 -8.9089697742562503e-03
      -2.2035305973489802e-03 -1.6656981232261797e-03
      2.8900863211644065e-05 2.1534303599169062e-03
      2.1628029923243149e-02 4.6027927707052527e-03
      -2.5253827608487990e-03 -4.2014825880940989e-03
      -1.2198115381412773e-04 -3.8994346264468452e-03
      -3.2004181172961173e-03 8.3597240011285129e-03
      -3.8059433743750739e-03 -3.6593822483291334e-03
      -3.2606207970360102e-03 -7.2771992187863760e-04
      -2.2211458305262223e-03 -5.1423890756658744e-03
      4.3073548247620549e-03 -7.0176666925534864e-03
      -1.0380384134048955e-02 -1.2759815083295854e-02
      5.4056056347317064e-03 7.2534461360958822e-03
      -6.2818962694305416e-03 -7.8617625958104901e-04
      -4.7299667504539459e-03 -3.1647248997614412e-04
      -2.6001527472127735e-03 1.9775482906232238e-03
      9.8297731121531513e-04 -2.2970737184318463e-03
      -1.8837106828185578e-02 -8.0279349451827312e-03
      -3.3570309635132523e-03 6.6595896546811138e-05
      -1.0182789310804309e-02 6.3728708093634227e-03
      7.6006339466155011e-03 -6.1627272849282461e-04
      2.3504582371281254e-03 1.6670590799389585e-02
      -1.1292333856549560e-03 1.6506823347074795e-03
      1.1312583122911193e-02 1.0273227169393857e-03
      -1.7319226476025334e-02 7.3258606287007651e-03
      -1.0173521837672664e-03 2.8541835533974734e-03
      -2.3733194665815120e-04 8.2607252891072711e-03
      -3.0349922925726669e-03 8.6251545421972570e-03
      9.4011619518777397e-03 7.8692596890418502e-04
      -4.0249895887413860e-03 -1.8250730796255691e-03
      6.0764497694475736e-03 -3.1682259172668122e-03
      -5.6168507457117411e-03 8.6338422834760752e-03
      -9.4094574692465821e-03 8.2675769536320227e-03
      5.8919267678428696e-03 -4.4148735988203975e-03
      -7.5754825191632442e-03 5.4441007065582153e-04
      -4.6397733875591339e-03 5.7977546874973165e-03
      2.5759792126452312e-03 -1.6856668681513741e-03
      -2.7945742272894158e-03 -3.9560141580347527e-03
      5.4847655570959067e-03 -4.3972607101655072e-03
      -1.2738914274851134e-03 -4.9182377628820804e-04
      -2.2424521883783696e-04 -1.0517844121226718e-02
      -4.4690793709342954e-03 -8.9681038740280408e-03
      1.0200078453634140e-02 5.5262457081443356e-03
      3.3445069456956882e-04 -3.0295537673840876e-03
      -9.3896495297539806e-04 8.9788515107098992e-03
      -2.3181970222538595e-03 1.9622352053177512e-03
      -5.0441958847557739e-04 7.4401468056815084e-03
      -1.0503844950299242e-02 -7.5068526063413969e-03
      -1.3523560700247361e-02 1.3719709921260492e-02
      -5.7615351567601803e-03 9.9826645816694821e-03
      1.0477256993688760e-03 7.0762857206487489e-03
      7.8766401164613222e-03 1.0131063968492154e-02
      1.6151023880691100e-03 -6.0171435887979947e-03
      1.0485022912115123e-02 4.5476453576591396e-03
      -3.5262119254026110e-05 1.0400169863852610e-03
      5.6806368893359592e-03 1.0219199054206910e-02
      -1.0474429198750860e-03 -2.1051540316681681e-04
      -8.0665092638544551e-03 -8.5734451495017290e-04
      1.1507637969524405e-02 5.6092580731129820e-04
      -6.0107732777363960e-04 7.0296321366009650e-03
      2.6481841891976333e-03 -3.5080227187113990e-03
      -9.3292896161595532e-03 6.9358915999210499e-03
      -2.9496433570717164e-03 -8.2540033177039580e-03
      -1.8605705183230171e-03 -4.2478014278180395e-03
      -2.6213108017532566e-03 -2.9276127561337277e-03
      2.7838498257678226e-04 -3.6255492608770006e-03
      3.5029089577943446e-03 -1.4149851594463664e-03
      9.3227990741098134e-03 3.4360219560726152e-03
      -1.0288525817215470e-02 -7.8924078313890938e-04
      1.2291607460690026e-02 -3.6456694438365541e-03
      -2.4551558010063156e-03 5.1215161518238612e-03
      -6.2218710349612643e-03 -2.6173245799905138e-03
      -2.9731859165168482e-03 -1.8203392794980744e-05
      -1.5390292245830916e-03 7.1712807715443401e-03
      -1.2548611944855101e-03 -1.0570912070733521e-02
      -6.0116568399667695e-03 -6.2784437126208962e-03
      5.9594747138450943e-03 4.1180855506820057e-03
      3.6773495203215188e-03 -2.0294562598024311e-03
      -1.2129769433913827e-03 -5.7182953819921462e-04
      -3.6512067918946850e-03 5.9197895663235340e-03
      -3.2492503332455596e-03 7.0304779876971110e-03
      -1.0104203457410279e-02 -5.2160384915672913e-03
      -9.5518065799321387e-04 -3.5950616521427440e-03
      -1.1339297029264887e-02 -1.2319293357303840e-02
      1.1002920036980437e-03 -3.5939011098573216e-03
      -4.0736484849576808e-03 1.3178022888380428e-02
      -6.2867866303837200e-03 -3.8046678890227646e-03
      8.2839077084208932e-03 4.9689059264914010e-03
      -8.4782313515146326e-03 1.1837948718007173e-03
      -2.2920134071052621e-03 6.4253256890397126e-04
      -6.3071713176236603e-04 -6.9709424945732660e-03
      -4.1603241727133705e-03 -1.3522194914418599e-03
      4.4018960127011888e-03 -7.2678934047210701e-03
      -2.5778493124304735e-03 -1.0578284942966180e-03
      6.5918847595844675e-03 -6.2658989266213896e-03
      -7.0338585486281989e-03 -2.6096433672263145e-03
      3.0025027342217635e-03 -4.2052916296325682e-03
      3.1204182063090491e-03 -1.2597652234470321e-03
      -3.0349357639692688e-03 -7.1822593348680646e-03
      1.7791201353399672e-03 -2.1124157291044009e-03
      9.9582121501777844e-03 3.8451803260882672e-03
      -2.6536089417483208e-03 5.8232609219768697e-04
      -9.9899769355797359e-04 3.0209761869001710e-03
      -5.2365343385061521e-03 6.7034523664842452e-03
      -1.3379792194785211e-03 3.3994673673355220e-03
      -1.3937771984191454e-03 -4.2342322865332651e-03
      7.2272026801136644e-03 -4.3998133280184863e-03
      1.2473768933591249e-03 -1.4007498937407352e-03
      1.2585661764474719e-03 6.9462492677011623e-03
      -4.2412257689888721e-03 -4.2155719809171856e-03
      -2.6383213309619643e-03 -5.9145244409722353e-04
      1.1780523305871771e-04 -3.9023904515869995e-03
      -1.2889951085694667e-02 1.0436042998146197e-02
      -4.2838563351388831e-04 5.2896535279648230e-03
      -6.8377354857982004e-03 9.5824817485347085e-03
      6.8611545177880715e-03 2.6282806169119839e-03
      -2.8218784176112220e-03 -3.9434290034531189e-03
      -4.0209659564872605e-03 5.1257649270001655e-03
      -1.4503349833529617e-03 2.3356653860552965e-03
      -5.0190709800918118e-04 4.1676422722668315e-03
      -3.7964197095557452e-04 3.9859249617901207e-03
      3.6173713953697967e-03 -1.3924765858344735e-03
      1.0699453553701450e-02 -5.9823577111164606e-03
      4.9366349842398134e-03 1.2605894299455810e-02
      -7.4449046115075725e-05 -8.7764385330395944e-03
      1.5556676734772533e-03 5.9165817190892879e-03
      -3.6988243704555355e-03 -2.2201226932640460e-04
      -9.3041472331013939e-04 -2.0106064047996815e-03
      -8.1649042133386147e-03 3.6791241134343162e-04
      -7.0383682351022984e-04 -1.9286537284614572e-03
      2.1618663035458132e-03 4.5592043457642565e-03
      -1.8213897764667898e-03 2.0093046646448755e-03
      -1.0724482330776405e-02 9.7844913902333706e-04
      2.0370866642855347e-02 -5.0844303690793678e-03
      6.6299191345774756e-03 -1.5917197571719385e-03
      -7.3788471204586418e-04 -3.1643110790227158e-03
      1.2561305208022581e-03 -2.0129323222119011e-03
      4.0013241441142385e-03 3.8183891821457401e-03
      3.5726283538632646e-03 -7.6544518673522660e-03
      2.7820447675450314e-03 4.1175303470272016e-03
      6.0206109125232939e-03 -3.5276260453702352e-03
      6.1803205943569564e-03 -2.1562422469476898e-03
      3.1347840912240897e-03 -3.3487243474941068e-03
      -8.6053777395288754e-04 3.0385764784512906e-03
      5.1379435174103152e-04 -8.7236264512936552e-04
      -5.0959237347974482e-03 1.3721892471766937e-04
      -4.3983818418940820e-03 3.2271292156063843e-03
      -2.8432605693577929e-03 1.5606678082260603e-03
      -4.2670606263003327e-04 -3.2751574590367946e-03
      -6.9521141551382205e-03 -3.5112417800559569e-03
      1.9403755214529763e-03 9.2753779665638147e-03
      5.6225115098402475e-03 -1.0416871355672010e-03
      4.6124120800284983e-03 3.6013572493779071e-03
      -4.6127493533965877e-04 -2.2881757668251823e-03
      -2.0830504330429165e-03 5.5810364527199138e-03
      -6.4315642650793646e-03 -1.1917731218967081e-02
      -2.5745631516627581e-03 -5.3023060968149056e-03
      -4.8180564570360213e-03 -2.7233448662801613e-03
      1.9067186623456034e-03 -2.8432788207751417e-03
      -6.3199830056250494e-03 -3.4459913879317998e-03
      1.7419196805947500e-03 -1.1304908857269849e-03
      4.0788918363829233e-03 1.7490950665691807e-03
      -3.2280974816845634e-03 4.8808482671573294e-03
      -2.6109386557827416e-03 -6.8022690593200581e-03
      6.0832414865115425e-03 9.1463325662112255e-03
      -1.0387540796382435e-03 6.2053613463688203e-03
      6.1831516842630052e-03 -4.7117611342613044e-03
      8.8251812176835184e-03 -6.0510082554716830e-04
      -3.8904904048193537e-03 4.2388164054786865e-03
      -5.5315124586297927e-03 -2.7442749144905997e-03
      4.0183031801716172e-03 2.4356189110921341e-03
      -3.5795739243436875e-03 1.2935924891449618e-03
      4.2368876807029488e-03 2.0182144676058186e-03
      3.4874556088920652e-03 -1.1055035324120891e-03
      1.5590032961024108e-03 1.3056461811294256e-02
      1.8115747008139421e-03 1.8948810162485363e-03
      8.0664506970186782e-03 9.9533522402321870e-03
      -3.0290294683187314e-03 1.0799449942015177e-02
      -7.4382220993098706e-03 5.6224394511003141e-03
      -5.7021255140040699e-03 4.5133106855388943e-03
      -2.2456903687927358e-03 -3.0245997690563622e-03
      -1.0701680860967448e-02 1.0163003608928600e-03
      -1.0779400325338338e-03 3.2615536216906114e-04
      3.2208700390717175e-03 -4.8321426254065488e-03
      -8.2308210685507355e-04 5.2632782994436785e-05
      1.2452412995777431e-02 6.7179297657124677e-04
      7.8875572284616505e-03 -6.1883622250547832e-03
      -5.1606486041432089e-03 1.4018438488798394e-02
      -2.8433708143854389e-03 -4.8707203180327983e-03
      6.1888193716370206e-03 7.0733007624302685e-03
      -4.2682295546972284e-03 -6.4273135609285432e-04
      6.4075010212322689e-03 -7.9176986588795420e-03
      -2.3605128132920595e-04 -3.7906543850202748e-03
      1.6197396131561502e-03 1.6084095389365912e-03
      4.2192488647132985e-03 4.6389029444120046e-03
      -8.2378553191316314e-03 -6.3731882505158835e-04
      8.3287272731347932e-04 -1.0205938308661714e-03
      6.3139649058424974e-03 -1.0015490584838868e-02
      4.9800812193883104e-03 8.6126366285691901e-04
      -3.5341755798445596e-03 -1.3004709026463997e-03
      -1.5661356595449262e-03 -8.6356506194921903e-04
      -8.3232270979577781e-03 -3.7786255735041486e-03
      1.5898710320946815e-04 5.3086719242927615e-04
      -1.2666298413930259e-04 -6.1811473074820135e-03
      8.4398984332616049e-03 -8.5228834735346301e-03
      -1.3269397084932392e-03 -5.8977417573298073e-04
      -3.6571468590309410e-03 -5.1421394289148242e-03
      -4.4917046152180371e-03 6.3109909860292572e-03
      -4.2726983095197957e-04 5.7143472572485283e-04
      -6.6812790341283920e-03 5.4992271404553563e-03
      -5.6117858018347342e-03 4.3074012630146142e-03
      2.2183011363849751e-03 1.4123291076445874e-02
      -5.8489921310755401e-03 -3.2575745532638096e-04
      -2.5021858943518127e-03 -1.1049012655357951e-02
      5.6683354652126809e-03 2.9419196218414571e-03
      1.7836853265640281e-03 5.4234360751021227e-03
      5.7887257515580439e-03 1.1657554389297706e-02
      -3.1125188651045061e-03 -5.1638581824938335e-04
      -1.0123275879902589e-04 5.2327564078538495e-03
      -2.3963015382274426e-03 -2.2603995091257261e-03
      -4.2118152542098821e-03 -4.8109377109047079e-03
      -2.6871932701206806e-03 -1.4668368360878608e-03
      -2.4768685148519104e-03 -4.3330674295341091e-03
      -1.0137631382433251e-02 -6.5821541105420432e-03
      -6.3733255756564687e-03 3.4107333171544628e-03
      6.1727625326540912e-04 9.5999148824849490e-03
      2.2460069750724105e-04 8.8557014541688073e-03
      -4.4277477062967612e-04 -7.7807320737011227e-03
      -3.0661870547398140e-03 3.7968532743190286e-03
      3.0024848739608413e-04 -4.4024311846490288e-03
      5.9162410650951758e-03 2.9088845202011465e-03
      3.9174955304180203e-03 -2.1288895474485038e-03
      -2.5756616071459532e-03 4.8912268539150127e-03
      -1.0232194931974768e-02 5.8361389865003164e-04
      5.9522149203398295e-03 1.9332308582724410e-02
      -4.1694566856180374e-03 4.4229046335453288e-04
      -9.9409887148922354e-05 2.9271993160552194e-03
      9.7065017825522289e-03 -5.8457590448881243e-03
      8.9619669858970923e-04 4.4669236545035766e-03
      -2.0930809331310678e-03 -5.0613230907772038e-03
      3.8159390288106173e-05 9.9332288506084627e-03
      -8.1351164451217003e-04 1.7121975052554071e-03
      -8.4807779131867225e-03 2.8084761155645131e-03
      -9.0404287689681111e-03 1.0738638877535623e-03
      -1.3692531264211803e-03 -1.5708109511882682e-04
      -5.7094699005087474e-03 -2.9065718524925398e-03
      -3.5069846009535383e-04 -2.0084417749256524e-03
      6.8715573661857800e-03 -5.1201250758994322e-03
      7.7291067347828018e-03 3.3372538194495760e-03
      -2.5011204097600469e-04 -2.7429263557561243e-03
      4.0024817948016407e-03 8.2516083456069637e-03
      -6.5549417314585620e-03 5.8947021057628290e-03
      -2.3898530039713661e-03 -9.9421265127625103e-03
      -1.5196504597447180e-03 7.7754459927556977e-03
      -5.2875167178799776e-03 -4.6790872374711081e-03
      5.7252501624419855e-03 -1.1145586182291547e-02
      -3.1226271828875612e-03 -1.4180624389231969e-03
      1.4630464146774395e-03 8.3538720713749997e-03
      -2.3811919899927704e-03 3.3577378275703481e-03
      -4.2405421668852902e-03 4.2898613793795659e-04
      -5.5616220742910425e-03 3.0482285340361253e-03
      -2.6571666367719441e-03 -6.9271788454900842e-03
      -1.6801822364550527e-03 -8.0217516975382951e-03
      -1.8715189079615471e-03 -1.5748188380811511e-03
      1.2403770786766619e-03 -1.2240952365319159e-03
      -3.9809719041538922e-03 9.2964557590796207e-05
      -4.5391207830903450e-03 -3.3852040014221881e-03
      3.2428570845087355e-03 2.0779321874885397e-03
      3.1246597843689193e-03 -3.6083633009086429e-03
      -4.4355680900712924e-03 -1.1995044147305378e-02
      -2.8937748202019714e-03 -8.0570620756831961e-03
      -1.9388256646910762e-03 6.9005597208436397e-03
      -1.3704768039228819e-03 1.2312463721511977e-03
      1.1579024218991893e-02 2.8691809052367170e-03
      -3.6845306327681188e-03 -3.1586996328017473e-03
      -1.5781832750862173e-04 1.0796621836849039e-02
      1.0693611193239754e-03 -3.4775257212671892e-03
      -3.8470690760075911e-03 -1.4417141704462131e-02
      1.0255229606795074e-03 -5.0806917705941632e-03
      1.7920285185986059e-03 6.1380151110172736e-03
      1.9630333027203595e-03 2.0633079884062842e-02
      -4.7384133419206201e-04 -1.5070304800500389e-03
      -2.0320346719443585e-03 4.3359580385816474e-03
      -4.8338125198883926e-03 -6.3577441083961265e-03
      5.9850989707240822e-03 -1.5928101257656892e-02
      -3.3773344860676185e-03 -4.1625163379902979e-03
      8.0651840423629235e-03 -5.0524533966785226e-03
      -6.0118979779245603e-03 -9.0540901202890833e-03
      -5.6298281219343963e-04 2.9483209015206661e-04
      -1.0037101581145529e-02 8.6067186167103002e-03
      3.2889947093531014e-03 1.0334569840480782e-02
      1.8770168990892347e-03 -1.0832104874007842e-02
      -1.3711098512137013e-02 1.2734757872566213e-03
      1.8313209416841820e-03 -1.8889231200588184e-03
      1.0654388734235793e-03 8.0784145879084640e-03
      -1.8324248147217063e-02 1.4136360929276719e-02
      1.7726446168715040e-04 -1.2479600168147510e-03
      -5.0485871337532604e-03 -1.4862084544965397e-03
      5.4203729740716832e-03 1.2791617744525354e-02
      -1.4470071842319747e-03 -1.3918252890637308e-07
      -4.9179065638549639e-04 1.0122015289158811e-02
      8.2727349088866191e-03 4.2394597370299120e-03
      -1.9529660295171732e-03 1.3739592837511789e-04
      5.3273225498730583e-03 -4.9667611312753094e-05
      5.3693752945166229e-03 7.8149787006705251e-04
      -2.4503564007367683e-03 8.4219173095710469e-03
      -7.8611634954432880e-03 -1.6264636171514024e-02
      -8.6840089153875193e-03 -1.2373196396514221e-03
      9.6769945499444157e-04 3.3917171883971540e-03
      -4.4885406902573418e-03 -5.8605989378230482e-03
      1.6051332798343232e-03 -2.9400630718955136e-03
      1.0233891517431317e-03 -6.6865159477325683e-03
      6.4598592134426890e-03 -3.8283569761180568e-03
      -1.3195667647740404e-02 -5.2039287380659680e-04
      -4.6580832502789247e-03 3.1628126022481486e-03
      -6.6893959482743331e-03 6.1642637191375513e-05
      5.5103589147146778e-04 7.3512401747613662e-04
      -5.2243820983737107e-03 -1.1753449372531654e-02
      -2.1222785762322486e-03 -1.7276521898278237e-03
      1.1998007267533334e-02 -1.2483447442874097e-02
      -2.4659171851833259e-03 1.8981490158961366e-04
      -2.4415149117453286e-03 1.7336772369146214e-02
      -7.9714706507300684e-03 -1.9375023132011352e-03
      -8.3042825830638625e-03 7.0969093121601746e-03
      -7.5482477886551003e-04 -3.6259045759962439e-03
      -8.1012652327832144e-03 -1.2068158646999439e-02
      -4.0950498166850775e-04 -9.5710805482898606e-03
      -8.7104921291786025e-04 -6.8703780169606168e-04
      8.4440238618419255e-04 -6.8777280807076700e-04
      6.9041076413954702e-03 5.2123595152430494e-03
      -8.5620855134919318e-03 1.2029540004732031e-02
      1.8019054787538978e-03 4.2100898445233560e-03
      3.4890608206938332e-03 -2.7963751613751179e-03
      -2.5533933605514461e-03 -3.9352526000222283e-03
      -4.9042895870304833e-03 1.6822240730658229e-03
      2.2539269808943552e-03 -2.8145445684645866e-03
      1.8906794074939273e-04 -5.6304964883828815e-03
      5.5430313645382489e-03 -4.5474809867950038e-03
      -5.7225070451309809e-04 2.4360403026415611e-04
      -5.6882232691510596e-04 -4.2476785160756435e-03
      -6.2183013591763378e-03 -2.9428826597376998e-03
      -5.2218063097705816e-04 -1.3783408047362758e-02
      -4.8309536000896323e-03 -1.7921195130186519e-02
      2.6713931755470038e-03 8.8284976309605731e-03
      3.7581958250593964e-03 1.3102937832594525e-02
      -1.8904202145451907e-03 3.6215790893396460e-04
      -2.5497097427223045e-03 3.5984050783799070e-03
      -7.2624746019385915e-03 5.9529025106642595e-03
      4.8576516314417437e-03 7.7048832411135233e-03
      -5.1720088422479377e-03 7.8952526375196223e-04
      1.3688709320665435e-02 -1.7672673926450086e-03
      -8.3031442582170087e-03 -8.9799990442444473e-03
      1.2766505965025174e-02 1.0436351105103726e-02
      -9.6081147391784624e-03 2.2598587953424273e-03
      -2.5849766627580270e-03 -4.9284891401310191e-03
      1.2327617267338077e-03 -7.1450447028856608e-03
      -2.3570452277758900e-03 8.3074021878283676e-03
      -2.1691104189696529e-03 -2.9812551855891130e-03
      5.9158680405170939e-04 1.2047644469439240e-03
      -1.4244073786534795e-02 1.6389424023331701e-02
      3.0979318972903214e-03 -5.2370293322758490e-03
      4.0040819895655506e-03 -1.1057390619764254e-02
      3.5974612743983926e-03 -2.0193832039084752e-03
      -2.2177340486027150e-03 1.2874039427928532e-03
      2.2381282513090016e-03 1.5455635705808568e-04
      -1.0442397816668680e-02 -2.2025347669522434e-03
      -1.7801800166360455e-03 1.7630316174227108e-02
      1.6970975795785721e-02 2.5305259982149283e-03
      -6.4929697500459424e-03 -1.2597346096853574e-02
      -4.7863989066888376e-03 4.3364253121711046e-03
      -6.1174241060895536e-03 -1.2556749400444106e-02
